-0.17022748291492462 -0.15871210396289825 -0.08227315545082092 -0.09855641424655914 -0.16007569432258606 -0.20335014164447784 -0.2071400135755539 -0.22062747180461884 -0.17248177528381348 -0.17607389390468597 -0.17015403509140015 -0.2213308960199356 -0.19980356097221375 -0.17560988664627075 -0.07780195027589798 -0.09349729120731354 -0.051918789744377136 -0.15052495896816254 -0.24084945023059845 -0.24373304843902588 -0.32928621768951416 -0.2863186001777649 -0.2670569121837616 -0.19631585478782654 -0.1536788046360016 -0.1520383507013321 -0.07923068106174469 -0.10443830490112305 -0.06594697386026382 -0.03117191232740879 -0.079193614423275 -0.16393649578094482 -0.15903577208518982 -0.20163755118846893 -0.11281829327344894 -0.11549119651317596 -0.056935522705316544 -0.04585720971226692 -0.04849250614643097 -0.04204593226313591 -0.029068756848573685 -0.048835016787052155 -0.03692867234349251 -0.03079356625676155 -0.03617066890001297 -0.10017625987529755 -0.10157124698162079 -0.0014997267862781882 -0.011639307253062725 0.09413377940654755 0.11987204104661942 0.11111102253198624 -0.05476877838373184 -0.008188161998987198 0.04402252659201622 0.11377620697021484 0.05260126292705536 -0.03617233783006668 -0.013358326628804207 -0.03102649748325348 0.1308828443288803 0.19981135427951813 0.1314685344696045 0.17751052975654602 0.25176745653152466 0.015877295285463333 0.005582237616181374 0.040675170719623566 0.08239173889160156 0.1028471291065216 0.08352857828140259 -0.00239024986512959 0.08274153620004654 0.1498500406742096 0.24891884624958038 0.30447813868522644 0.2947064936161041 0.34852734208106995 -0.04854482412338257 0.029765460640192032 0.09705081582069397 0.14356206357479095 0.08568829298019409 0.07795467972755432 -0.03934760019183159 0.05270290747284889 0.17220115661621094 0.2543393075466156 0.21501700580120087 0.21465399861335754 0.343047171831131 -0.025550883263349533 0.07300938665866852 0.0629817470908165 0.1471146196126938 0.036252062767744064 0.06659876555204391 0.04355756938457489 0.042150504887104034 0.11637990176677704 0.18128591775894165 0.1738893836736679 0.1432117372751236 0.35824453830718994 -0.09230614453554153 -0.005460978485643864 0.0820438340306282 0.12162692844867706 0.05465437099337578 -0.012043265625834465 -0.017170093953609467 -0.0047763134352862835 0.05239400640130043 0.0865432471036911 0.1684975028038025 0.15961749851703644 0.26609236001968384 -0.08224378526210785 0.021931208670139313 0.03423234447836876 0.04707449674606323 -0.08247245103120804 -0.06739883869886398 -0.08561539649963379 -0.07715337723493576 -0.05354508385062218 0.0022379676811397076 0.10088037699460983 0.05390805006027222 0.10928341001272202 -0.1744726002216339 -0.03631821274757385 -0.06831880658864975 -0.12919668853282928 -0.2162453681230545 -0.240253284573555 -0.26261863112449646 -0.1937214434146881 -0.1063259020447731 -0.1063542515039444 0.019574379548430443 -0.011246209032833576 -0.016158532351255417 -0.11988791823387146 -0.09251055121421814 -0.14041373133659363 -0.19082632660865784 -0.3298313319683075 -0.3972013294696808 -0.46068137884140015 -0.4045363664627075 -0.30631113052368164 -0.20437771081924438 -0.18309780955314636 -0.1217028945684433 -0.13952186703681946 -0.18430954217910767 -0.12493214756250381 -0.17273679375648499 -0.36287474632263184 -0.5170839428901672 -0.692731499671936 -0.7377895712852478 -0.7007160782814026 -0.6005147695541382 -0.45042312145233154 -0.38676485419273376 -0.294551819562912 -0.18203821778297424 -0.1405017226934433 -0.07588953524827957 -0.04412103444337845 -0.04454615339636803 -0.07748372852802277 -0.08793458342552185 -0.08059157431125641 -0.07558190077543259 -0.11105836182832718 -0.08712515234947205 -0.06295664608478546 -0.03474104031920433 0.045068398118019104 -0.14575037360191345 -0.1285194307565689 -0.1960371881723404 -0.1906263828277588 -0.17209455370903015 -0.15383078157901764 -0.13752536475658417 -0.08972731977701187 -0.05965680256485939 -0.08945058286190033 -0.07454593479633331 0.005779036320745945 0.02839801460504532 -0.13837984204292297 -0.12194545567035675 -0.2314014732837677 -0.24341942369937897 -0.1736261546611786 -0.12955604493618011 -0.06339161843061447 -0.04951155558228493 -0.028729187324643135 -0.07857488840818405 -0.09833348542451859 -0.1656731218099594 -0.08775553107261658 -0.16153405606746674 -0.20030036568641663 -0.267241895198822 -0.2342490702867508 -0.15022899210453033 -0.07724815607070923 -0.04289931431412697 -0.0015034433454275131 -0.04209153354167938 -0.04689754173159599 -0.06672822684049606 -0.12403225153684616 -0.2241654247045517 -0.21142877638339996 -0.24242393672466278 -0.29042473435401917 -0.3040684759616852 -0.22037413716316223 -0.07757983356714249 -0.08006423711776733 0.0028983892407268286 -0.05111713707447052 -0.03183067589998245 -0.04043911397457123 -0.18626344203948975 -0.4177517294883728 -0.1968776434659958 -0.3582019507884979 -0.2752244770526886 -0.21511304378509521 -0.18936054408550262 -0.06220099702477455 -0.053758252412080765 -0.050093505531549454 -0.05094330757856369 -0.05015655979514122 -0.07153137773275375 -0.25400757789611816 -0.5192880034446716 -0.19380904734134674 -0.24072907865047455 -0.17276668548583984 -0.09140803664922714 -0.07979416847229004 -0.08891166746616364 -0.062019672244787216 -0.04669230803847313 -0.05287500098347664 -0.03145679831504822 -0.12999050319194794 -0.18764977157115936 -0.4893271327018738 -0.15867117047309875 -0.28641897439956665 -0.17928333580493927 -0.0419280007481575 -0.019770003855228424 -0.02362355962395668 0.05283650755882263 0.007425260730087757 0.037467699497938156 0.016194285824894905 -0.06013384461402893 -0.256705105304718 -0.5020618438720703 -0.26797816157341003 -0.3044431805610657 -0.2140224277973175 -0.07500550895929337 0.011102856136858463 0.034798189997673035 0.07520190626382828 0.06084345653653145 0.04596089571714401 -0.017283311113715172 -0.03893406316637993 -0.26251304149627686 -0.5177547931671143 -0.3056236505508423 -0.3136354088783264 -0.1959337741136551 -0.080942302942276 -0.027676835656166077 -0.049324363470077515 -0.007713690400123596 0.009850510396063328 0.07229110598564148 -0.013835095800459385 -0.04073179513216019 -0.25762125849723816 -0.5886329412460327 -0.2766619026660919 -0.353042870759964 -0.2825714647769928 -0.11038025468587875 -0.016867421567440033 -0.010896716266870499 0.08219338208436966 0.08303909748792648 0.08103857934474945 -0.020724670961499214 -0.08183617889881134 -0.28892257809638977 -0.4786415994167328 -0.141074076294899 -0.3373854458332062 -0.24653930962085724 -0.10572737455368042 0.018205787986516953 0.09960681945085526 0.08044779300689697 0.1427130252122879 0.24520570039749146 0.13067744672298431 -0.1450868397951126 -0.23549379408359528 -0.4146070182323456 -0.1837601661682129 -0.20002789795398712 -0.07887160778045654 0.09596892446279526 0.19827881455421448 0.2566310465335846 0.3536670506000519 0.42205068469047546 0.34652063250541687 0.27841874957084656 0.029429975897073746 -0.20438522100448608 -0.33006182312965393 -0.32747596502304077 -0.26403602957725525 -0.4524395167827606 -0.11172527819871902 -0.15448147058486938 -0.09301341325044632 -0.04575216770172119 0.048479773104190826 0.03959662467241287 -0.03035813570022583 0.08332690596580505 0.07209910452365875 0.1736970990896225 -0.4396992325782776 -0.23330964148044586 -0.10755777359008789 -0.14149150252342224 -0.1687125563621521 -0.07955993711948395 -0.042315397411584854 0.06691495329141617 0.22656187415122986 0.14806398749351501 0.1932162493467331 0.16881635785102844 0.19476290047168732 -0.20831452310085297 -0.04597288370132446 0.012977862730622292 -0.05503690242767334 -0.033660952001810074 -0.13325800001621246 -0.07684891670942307 -0.007509578485041857 0.15179356932640076 0.2765326201915741 0.29898861050605774 0.2596047520637512 0.20069238543510437 0.01550743542611599 0.03156478703022003 0.17284418642520905 -0.044338714331388474 -0.14320184290409088 -0.1380884200334549 -0.043522052466869354 0.04653036221861839 0.15118345618247986 0.25536638498306274 0.33982640504837036 0.3871217668056488 0.2438378781080246 0.10037971287965775 0.048337455838918686 0.10390057414770126 0.06372065842151642 0.025596212595701218 0.02204497531056404 0.08210548758506775 0.15982268750667572 0.2562277317047119 0.3098151385784149 0.2843814790248871 0.3300011157989502 0.20799893140792847 0.21700704097747803 0.08127971738576889 0.18418443202972412 0.1601482778787613 0.11271294206380844 0.12469622492790222 0.14697861671447754 0.20961089432239532 0.27122756838798523 0.31256818771362305 0.34017428755760193 0.30715569853782654 0.17237119376659393 0.39414188265800476 0.1949709951877594 0.19908249378204346 0.228245809674263 0.2486928403377533 0.23196600377559662 0.22723381221294403 0.2893059253692627 0.30567169189453125 0.2851608693599701 0.2584005892276764 0.21462927758693695 0.06924019008874893 0.3600742816925049 0.22960996627807617 0.239497572183609 0.28540462255477905 0.23206333816051483 0.2169700413942337 0.21198198199272156 0.17710764706134796 0.16210617125034332 0.2176382839679718 0.09691799432039261 0.06877677887678146 -0.043169014155864716 0.36995306611061096 0.20909735560417175 0.37214162945747375 0.3387830853462219 0.21982666850090027 0.0971304252743721 0.016417181119322777 -0.056679822504520416 -0.0532788522541523 0.0020281150937080383 -0.07540891319513321 -0.10641292482614517 -0.10892243683338165 0.42959269881248474 0.2283741980791092 0.345365047454834 0.3429112136363983 0.10268472135066986 -0.07773738354444504 -0.1039639338850975 -0.21049655973911285 -0.18315733969211578 -0.199326753616333 -0.16672421991825104 -0.17493918538093567 -0.11558645218610764 0.4008375108242035 0.28843653202056885 0.3543602526187897 0.3062630593776703 0.07778052240610123 -0.07429759204387665 -0.181073397397995 -0.34928885102272034 -0.39009636640548706 -0.33737024664878845 -0.3324839770793915 -0.2904466986656189 -0.09657540172338486 0.4320027828216553 0.2686711251735687 0.2863425314426422 0.2680298984050751 0.03356533497571945 -0.17137295007705688 -0.3035873770713806 -0.3584780991077423 -0.47143885493278503 -0.395711213350296 -0.3992163836956024 -0.2904577851295471 -0.11317463219165802 0.1182715892791748 0.43966585397720337 0.4925215244293213 0.2400086373090744 0.022040223702788353 -0.15517430007457733 -0.3287026882171631 -0.46934330463409424 -0.5209820866584778 -0.6245889663696289 -0.5256898403167725 -0.4047539234161377 -0.3256755471229553 -0.08560368418693542 -0.10939431935548782 -0.13100147247314453 -0.016585635021328926 -0.10350342094898224 -0.09518341720104218 -0.2169702649116516 -0.22595584392547607 -0.11260929703712463 -0.12263143062591553 -0.03558392450213432 -0.04188646748661995 0.029286740347743034 -0.06404794007539749 -0.051344193518161774 0.11107621341943741 0.0854046568274498 0.12801751494407654 0.025003036484122276 0.00040014571277424693 -0.13809502124786377 -0.09941789507865906 -0.16845346987247467 -0.14986613392829895 -0.14870040118694305 -0.12774787843227386 0.15952199697494507 0.0842314288020134 0.1976395547389984 0.18070320785045624 0.18685473501682281 0.11172521859407425 0.047710806131362915 -0.0410577766597271 -0.14909936487674713 -0.2461995631456375 -0.17396460473537445 -0.2266671061515808 -0.08403715491294861 0.3111496567726135 0.232050821185112 0.25213852524757385 0.33187541365623474 0.2625168263912201 0.1356826275587082 0.05456022918224335 -0.1576949656009674 -0.1959218829870224 -0.26040104031562805 -0.32886090874671936 -0.2291286736726761 -0.0807049423456192 0.4122141897678375 0.27799293398857117 0.3704690933227539 0.3136412799358368 0.22864235937595367 0.15090790390968323 0.11678627133369446 -0.08622345328330994 -0.17613324522972107 -0.2045099139213562 -0.23663893342018127 -0.11461012810468674 -0.007375219836831093 0.4803353548049927 0.3103259801864624 0.2743115723133087 0.17204834520816803 0.2110946923494339 0.1498030722141266 0.07814700156450272 -0.01579924114048481 -0.0066068521700799465 -0.0414012111723423 -0.06951702386140823 -0.0027888664044439793 0.16524504125118256 0.434640109539032 0.2916490435600281 0.25646570324897766 0.19377705454826355 0.2545367479324341 0.17971907556056976 0.1901121437549591 0.13664646446704865 0.11634323745965958 0.08777958899736404 0.06066574156284332 0.18346893787384033 0.3073326349258423 0.4324255883693695 0.230464905500412 0.23460033535957336 0.1618136763572693 0.24775712192058563 0.1949518918991089 0.2815795838832855 0.22445079684257507 0.22527913749217987 0.11622127890586853 0.12409649789333344 0.2886620759963989 0.37721943855285645 0.32016608119010925 0.2127159833908081 0.09846802800893784 0.12717151641845703 0.13092005252838135 0.15453055500984192 0.22699669003486633 0.23606860637664795 0.15275168418884277 0.16851238906383514 0.23279954493045807 0.3290860652923584 0.4792007505893707 0.23949174582958221 0.0009376010275445879 -0.04753606766462326 -0.07257331907749176 -0.05165279656648636 0.1107180044054985 0.12711170315742493 0.21600256860256195 0.26263201236724854 0.23028600215911865 0.2733418047428131 0.2997657358646393 0.5002449154853821 0.12235512584447861 0.04735151678323746 -0.06626764684915543 -0.1333206444978714 -0.14074066281318665 0.03736531361937523 0.14360196888446808 0.2523064911365509 0.2497967779636383 0.3216845393180847 0.2994038760662079 0.35036689043045044 0.5502609014511108 -0.025316134095191956 -0.1837340146303177 -0.12084225565195084 -0.17412373423576355 -0.22791911661624908 -0.0013438405003398657 0.12698809802532196 0.16949495673179626 0.2932397425174713 0.3318825960159302 0.3935067355632782 0.41284582018852234 0.6246715188026428 -0.0714544802904129 -0.0971033126115799 -0.1559288203716278 -0.15996484458446503 -0.103579580783844 0.06439968198537827 0.03195274621248245 0.2304445505142212 0.38178199529647827 0.3757140338420868 0.5280060768127441 0.484160453081131 0.5705978274345398 -0.35719969868659973 -0.30156755447387695 -0.20711597800254822 -0.21362031996250153 -0.20283423364162445 -0.14612771570682526 -0.13910409808158875 -0.00422061188146472 -0.11131363362073898 -0.04870161786675453 -0.03881444036960602 0.07661314308643341 0.0987023115158081 -0.29283007979393005 -0.0979786217212677 -0.1418267786502838 -0.23412729799747467 -0.20184533298015594 -0.16071854531764984 -0.19919081032276154 -0.08747780323028564 -0.036755263805389404 -0.014618763700127602 0.04394729807972908 0.10220493376255035 0.34338560700416565 -0.28585222363471985 -0.12074801325798035 -0.18710005283355713 -0.2796153426170349 -0.1849648654460907 -0.22526222467422485 -0.08341710269451141 -0.032063569873571396 -0.021590331569314003 0.0665976032614708 0.03788867965340614 0.09402710944414139 0.36685267090797424 -0.23808172345161438 -0.22892877459526062 -0.21361175179481506 -0.2358328402042389 -0.23592813313007355 -0.2357240915298462 -0.15174247324466705 -0.04071686416864395 -0.036012373864650726 0.0438326820731163 0.05714469403028488 0.13545338809490204 0.521740198135376 -0.0568942129611969 -0.21003025770187378 -0.16795440018177032 -0.17924942076206207 -0.25129783153533936 -0.14765307307243347 -0.142686128616333 -0.16532033681869507 -0.08480378240346909 0.0314004011452198 0.07874024659395218 0.21070314943790436 0.48897311091423035 -0.04668924957513809 -0.17133548855781555 -0.13100016117095947 -0.15788353979587555 -0.19063468277454376 -0.17231932282447815 -0.15371184051036835 -0.03524867072701454 -0.01782471127808094 0.024453990161418915 0.048537641763687134 0.12540502846240997 0.42732951045036316 0.05981798842549324 -0.023319043219089508 0.014479517936706543 0.01046058814972639 -0.07690057903528214 -0.041214194148778915 -0.08223679661750793 0.01593191921710968 0.010594358667731285 0.08105557411909103 0.18055760860443115 0.12339667975902557 0.37298038601875305 0.13363328576087952 0.08555439859628677 0.11856070905923843 0.17203474044799805 0.10412022471427917 0.06430470943450928 0.06564497202634811 0.07412104308605194 0.11748243123292923 0.13856151700019836 0.1467750519514084 0.1191626712679863 0.35653218626976013 0.09491115808486938 0.031814392656087875 0.03123350441455841 0.07472966611385345 0.038214247673749924 0.02884240448474884 -0.014435806311666965 -0.06359295547008514 -0.056018367409706116 -0.014531332068145275 -0.01870301552116871 0.03907543048262596 0.2644914984703064 0.020114613696932793 0.00415749941021204 0.04219500347971916 0.033821385353803635 -0.02405046671628952 -0.008499514311552048 -0.10161908715963364 -0.09274806082248688 -0.10800173878669739 -0.10516813397407532 -0.13299834728240967 -0.040376074612140656 0.11538080871105194 0.10766612738370895 -0.003073889296501875 -0.05229143798351288 0.026997804641723633 -0.013574940152466297 -0.062347713857889175 -0.1209116205573082 -0.11892374604940414 -0.145791158080101 -0.20079179108142853 -0.12135274708271027 -0.16321983933448792 -0.06939762085676193 -0.00962800346314907 0.06310711801052094 0.05324989929795265 0.041591182351112366 -0.005231078248471022 -0.04325350746512413 -0.03428548201918602 -0.14357532560825348 -0.1287192702293396 -0.08951213955879211 -0.21224148571491241 -0.10861612111330032 -0.03463226556777954 0.08531986176967621 0.08241092413663864 0.12078793346881866 0.0775131955742836 0.049664102494716644 0.029094455763697624 0.018497778102755547 0.020945344120264053 -0.05155068635940552 -0.0792897641658783 -0.1466256082057953 -0.13957379758358002 -0.001499052974395454 -0.27930015325546265 -0.26529866456985474 -0.4703134596347809 -0.259392648935318 -0.4004516005516052 -0.3836566209793091 -0.41619187593460083 -0.3724459111690521 -0.2921762466430664 -0.2030104249715805 -0.13954749703407288 -0.048148464411497116 -0.2204037606716156 -0.32719311118125916 -0.19119864702224731 -0.08975464850664139 -0.05521513521671295 -0.25830498337745667 -0.2985902428627014 -0.25658831000328064 -0.2719549834728241 -0.19993403553962708 -0.09723032265901566 -0.013199780136346817 -0.0053045800887048244 -0.14088444411754608 -0.052542056888341904 -0.019496632739901543 0.048018891364336014 0.04494889825582504 0.05747319757938385 -0.166231170296669 -0.18669724464416504 -0.12034497410058975 -0.04447474703192711 0.007402187213301659 0.02217075601220131 0.10581536591053009 0.005524272099137306 0.16786512732505798 0.13396015763282776 0.21890132129192352 0.1744505912065506 0.10502113401889801 -0.0391581654548645 -0.06765527278184891 -0.013921460136771202 0.07356683909893036 0.017283309251070023 0.09285377711057663 0.10408291965723038 -0.010878287255764008 0.32976120710372925 0.184605672955513 0.2314029335975647 0.2476714849472046 0.1491478681564331 0.07430646568536758 0.08929383754730225 0.04071066528558731 0.1100090742111206 0.09915854036808014 0.15939950942993164 0.12670612335205078 0.05600687116384506 0.42464032769203186 0.23236124217510223 0.2494187206029892 0.23036764562129974 0.1472221314907074 0.16035938262939453 0.16694316267967224 0.13070252537727356 0.20055927336215973 0.2589905858039856 0.22483320534229279 0.19340316951274872 0.1515515297651291 0.40292179584503174 0.18203666806221008 0.16689062118530273 0.22946326434612274 0.23820754885673523 0.29236364364624023 0.2705090641975403 0.28844019770622253 0.3284040689468384 0.30836740136146545 0.3064359724521637 0.26125308871269226 0.07728269696235657 0.45232638716697693 0.249384343624115 0.2762197256088257 0.31659844517707825 0.28730225563049316 0.27223464846611023 0.3351912796497345 0.28184834122657776 0.3151821494102478 0.3135110139846802 0.21735446155071259 0.12412921339273453 0.02336076833307743 0.42064863443374634 0.23021315038204193 0.40171632170677185 0.31182506680488586 0.3175419569015503 0.21665149927139282 0.18377025425434113 0.11472629755735397 0.19119790196418762 0.13207171857357025 0.10282688587903976 0.07056552916765213 0.05605674907565117 0.41052350401878357 0.30362704396247864 0.3925477862358093 0.32652929425239563 0.13611602783203125 0.07809708267450333 0.004105584230273962 -0.060584571212530136 -0.016822608187794685 -0.01689104177057743 0.046193283051252365 0.014174769632518291 0.05316684767603874 0.4606854021549225 0.2625121474266052 0.3004249930381775 0.18987876176834106 0.10240700840950012 -0.09904120117425919 -0.15402206778526306 -0.20281992852687836 -0.2360733449459076 -0.056026726961135864 -0.06994538754224777 -0.06372734904289246 0.11909724771976471 0.2478032112121582 0.14453743398189545 0.15130560100078583 0.10339445620775223 -0.17359361052513123 -0.3191359341144562 -0.35178977251052856 -0.3874906897544861 -0.2834632396697998 -0.10021328181028366 -0.15419189631938934 -0.09620486944913864 0.08324459195137024 -0.12056393176317215 0.08828948438167572 0.07280212640762329 -0.252775102853775 -0.5663763284683228 -0.6082767248153687 -0.5307435393333435 -0.5679790377616882 -0.3589887022972107 -0.30801644921302795 -0.25910791754722595 -0.15975996851921082 -0.01827777922153473 -0.17283418774604797 -0.12861695885658264 -0.0962757095694542 0.0720774307847023 0.05599387362599373 0.1048140600323677 0.11866997182369232 0.16306374967098236 0.15995340049266815 0.1365923136472702 0.17734332382678986 0.2082814872264862 0.571496307849884 -0.19523708522319794 -0.054925382137298584 -0.13594409823417664 -0.0963149443268776 -0.0073846373707056046 0.10036671161651611 0.06985563784837723 0.24091163277626038 0.24809448421001434 0.2258085310459137 0.3342786729335785 0.3192014694213867 0.5720624327659607 -0.17254424095153809 -0.1374751627445221 -0.1942247897386551 -0.1807633638381958 -0.14705650508403778 -0.06524647027254105 0.025482242926955223 0.10157207399606705 0.16997085511684418 0.23740766942501068 0.2750709056854248 0.29223528504371643 0.5807332396507263 -0.10048556327819824 -0.13575200736522675 -0.07157624512910843 -0.17152488231658936 -0.2502218186855316 -0.10663405060768127 0.02124178223311901 0.11770698428153992 0.12434229254722595 0.2197486311197281 0.3282935321331024 0.2926090955734253 0.5796728134155273 -0.03703612461686134 -0.09445377439260483 -0.07710666954517365 -0.17864200472831726 -0.19459447264671326 -0.09686058014631271 0.07029369473457336 0.10936331003904343 0.1350039541721344 0.19352911412715912 0.2068464308977127 0.357343852519989 0.5277053117752075 0.081692636013031 -0.04064811021089554 0.020810700953006744 -0.1604900360107422 -0.04074826464056969 0.010313085280358791 0.02053714729845524 0.08236990869045258 0.1574466973543167 0.2157270461320877 0.20089034736156464 0.253086119890213 0.3296569287776947 0.2560725212097168 0.08699815720319748 -0.02942398376762867 0.08755012601613998 -0.005141564179211855 0.01623774878680706 0.05885254219174385 -0.00252365181222558 0.044872332364320755 0.03026586025953293 0.04695778340101242 0.08132320642471313 0.21695299446582794 0.14326001703739166 0.12414834648370743 0.028787886723876 0.027291959151625633 0.05146288126707077 -0.019872460514307022 -0.05188984051346779 -0.07991666346788406 -0.1353292316198349 -0.1066674143075943 -0.15930023789405823 -0.09183057397603989 0.031191054731607437 0.1420014500617981 0.05907038226723671 0.007750429678708315 0.019928688183426857 0.011510155163705349 -0.07821287959814072 -0.09666554629802704 -0.12527406215667725 -0.2559066116809845 -0.26370444893836975 -0.38476261496543884 -0.29531604051589966 -0.19584603607654572 0.19514033198356628 -0.0035020785871893167 0.08092867583036423 0.08605802804231644 0.03562671318650246 -0.008291029371321201 -0.06580771505832672 -0.1442161351442337 -0.21811264753341675 -0.42244014143943787 -0.38269487023353577 -0.39876118302345276 -0.30953359603881836 0.10540817677974701 0.03176639974117279 0.11105235666036606 0.1435101479291916 0.1012004092335701 0.08087033033370972 0.02837505377829075 -0.15807287395000458 -0.27275100350379944 -0.4973195195198059 -0.47369784116744995 -0.532837450504303 -0.3992489278316498 0.19019345939159393 0.10733958333730698 0.1933814138174057 0.3053142726421356 0.271138072013855 0.19739997386932373 0.1394316554069519 0.09585142135620117 -0.1394464522600174 -0.3995168209075928 -0.415646493434906 -0.47581443190574646 -0.39900457859039307 0.24638307094573975 0.3014066517353058 0.455392450094223 0.487351655960083 0.5613487958908081 0.41476669907569885 0.3343408405780792 0.2606664299964905 0.06924431025981903 -0.18488582968711853 -0.4138811230659485 -0.5510033369064331 -0.5621148347854614 -0.1776365488767624 -0.20110520720481873 0.029859432950615883 0.04393453896045685 0.03839641809463501 0.03873307630419731 0.019475894048810005 -0.1063295230269432 -0.09159408509731293 -0.08508937805891037 -0.06895612180233002 -0.13511709868907928 -0.14987434446811676 0.033078476786613464 0.01071462407708168 0.0849081426858902 0.010663689114153385 0.03668680787086487 0.009990871883928776 0.034881677478551865 -0.011328904889523983 -0.09794313460588455 -0.09579619020223618 -0.19396913051605225 -0.23507384955883026 -0.12469996511936188 0.011110679246485233 0.12151382863521576 0.05133406072854996 0.03468409553170204 0.03937700390815735 -0.04776405543088913 0.019148344174027443 -0.13367611169815063 -0.19965913891792297 -0.2992217242717743 -0.3445155620574951 -0.38642942905426025 -0.12716737389564514 0.1591561734676361 0.10757262259721756 0.06414929777383804 0.11302212625741959 0.03491564095020294 -0.04552360251545906 0.004690551199018955 -0.05213656648993492 -0.1969311535358429 -0.29723432660102844 -0.39510878920555115 -0.3233826160430908 -0.035329099744558334 0.16155065596103668 0.1348571479320526 0.051320407539606094 -0.02828580141067505 -0.0758681446313858 -0.08263549953699112 -0.005746147129684687 -0.13183410465717316 -0.1281949281692505 -0.1834769994020462 -0.18573087453842163 -0.1518898755311966 0.036410484462976456 0.22415201365947723 0.15993891656398773 0.07319860905408859 -0.02892354317009449 -0.10724305361509323 -0.06401950120925903 0.024300843477249146 -0.0570821538567543 -0.11656883358955383 -0.07205413281917572 -0.05789531022310257 0.013861149549484253 0.1128336489200592 0.19206644594669342 0.17706099152565002 -0.011582549661397934 -0.06875758618116379 -0.10710329562425613 -0.06346117705106735 -0.03632311150431633 -0.012710878625512123 -0.08407671749591827 -0.026468290016055107 -0.060895103961229324 0.06167234852910042 0.31592416763305664 0.18220990896224976 0.12790484726428986 0.04862097650766373 -0.025760537013411522 -0.14681752026081085 -0.003554512280970812 0.02718491107225418 0.005272374488413334 -0.036725230515003204 0.00583084300160408 0.07256650924682617 0.1889181137084961 0.3539960980415344 0.10188493132591248 -0.013145999051630497 -0.07038494944572449 -0.2045399248600006 -0.18609586358070374 -0.06869897991418839 -0.021945146843791008 -0.0383029580116272 0.0025192536413669586 -0.003605889156460762 0.045063603669404984 0.17940498888492584 0.44760721921920776 0.015285113826394081 -0.08482987433671951 -0.25989317893981934 -0.3348197638988495 -0.21940375864505768 -0.12943874299526215 -0.05342312157154083 -0.02836581878364086 0.021704724058508873 0.024481112137436867 0.13974498212337494 0.24279551208019257 0.3946972191333771 -0.031001467257738113 -0.1683272421360016 -0.3335931897163391 -0.4001166820526123 -0.3339794874191284 -0.1701100617647171 -0.041091419756412506 0.00895767007023096 0.1011982336640358 0.10143151134252548 0.12301511317491531 0.20910659432411194 0.41438376903533936 -0.09028366208076477 -0.0528075285255909 -0.3219549059867859 -0.45294883847236633 -0.35289266705513 -0.0740024745464325 -0.06585300713777542 -0.006648738868534565 0.14154070615768433 0.14819590747356415 0.2762576937675476 0.34609487652778625 0.6137971878051758 -0.04074051231145859 -0.11193530261516571 -0.22699041664600372 -0.22053039073944092 -0.25519317388534546 -0.17818912863731384 -0.026966795325279236 0.039477474987506866 0.1848784238100052 0.3414435088634491 0.3037956953048706 0.33892422914505005 0.3875980079174042 0.42137494683265686 0.36817654967308044 0.33268436789512634 0.3057907223701477 0.4433254599571228 0.49506646394729614 0.4094981253147125 0.3464721441268921 0.44829556345939636 0.5155157446861267 0.5220394134521484 0.49151670932769775 0.446429967880249 0.37229955196380615 0.3319726884365082 0.2833109200000763 0.25756239891052246 0.38487711548805237 0.41919881105422974 0.3682843744754791 0.3720998764038086 0.44260263442993164 0.5769276022911072 0.5443643927574158 0.4717448055744171 0.46150097250938416 0.331398069858551 0.32827213406562805 0.18004915118217468 0.17365975677967072 0.2897908389568329 0.253614217042923 0.24126411974430084 0.16693854331970215 0.3183920383453369 0.4500528573989868 0.5134568810462952 0.4384605288505554 0.43046271800994873 0.32898348569869995 0.2916254997253418 0.08738572895526886 0.1426991969347 0.2479211986064911 0.2580116093158722 0.19290122389793396 0.16807590425014496 0.3360477387905121 0.3682180643081665 0.47214505076408386 0.4339478611946106 0.47570762038230896 0.3577713072299957 0.21408379077911377 0.11680655926465988 0.16240498423576355 0.2333647608757019 0.21737071871757507 0.20535467565059662 0.22332678735256195 0.3626745641231537 0.48355379700660706 0.5624775290489197 0.515809178352356 0.4663129150867462 0.3490981161594391 0.17479214072227478 0.13818074762821198 0.11142286658287048 0.18691952526569366 0.12580621242523193 0.10950970649719238 0.15701548755168915 0.373599648475647 0.45471325516700745 0.5236123204231262 0.446878582239151 0.4374610185623169 0.3462573289871216 0.17118677496910095 0.09433050453662872 0.06828277558088303 0.11154858022928238 0.0416005402803421 0.0837501734495163 0.1135835275053978 0.26351988315582275 0.2411145716905594 0.294322669506073 0.40776297450065613 0.40521475672721863 0.24251505732536316 0.2174186259508133 0.15888887643814087 0.18048100173473358 0.1847485452890396 0.13302423059940338 0.05280318856239319 0.13273872435092926 0.2660331428050995 0.10580284893512726 0.25250107049942017 0.40737384557724 0.36005744338035583 0.28776493668556213 0.2629604935646057 0.15118180215358734 0.26741063594818115 0.23622915148735046 0.19418269395828247 0.10678160935640335 0.1912309229373932 0.3704288899898529 0.02931920811533928 0.3252103924751282 0.3479626178741455 0.36287960410118103 0.2377832680940628 0.21058015525341034 0.2511363625526428 0.26924049854278564 0.26974985003471375 0.2129373848438263 0.17720146477222443 0.16775064170360565 0.31854936480522156 0.1271338313817978 0.2908138334751129 0.33157432079315186 0.38069239258766174 0.2398546189069748 0.2253538817167282 0.3424452543258667 0.29178979992866516 0.24597714841365814 0.2409570813179016 0.24302980303764343 0.27546074986457825 0.24883440136909485 0.2021181881427765 0.32051771879196167 0.2997235655784607 0.3835221529006958 0.2774662375450134 0.3205316364765167 0.3546178340911865 0.3789980709552765 0.27113017439842224 0.2508847415447235 0.25106191635131836 0.280122846364975 0.28925538063049316 0.21955373883247375 0.2678746283054352 0.3984544575214386 0.3861837387084961 0.4197387397289276 0.39721429347991943 0.4225849211215973 0.47272658348083496 0.32762691378593445 0.32232365012168884 0.29663214087486267 0.286228209733963 0.36890363693237305 0.30794116854667664 0.36184531450271606 0.41753432154655457 0.41088587045669556 0.21967953443527222 0.20272792875766754 0.03773660585284233 -0.08498349785804749 -0.13018329441547394 -0.21476012468338013 -0.19521424174308777 -0.1809544563293457 -0.2077067792415619 -0.0983046293258667 -0.11635187268257141 0.006011909805238247 0.12540630996227264 0.25218918919563293 0.17542877793312073 0.11557751148939133 -0.018542876467108727 -0.10850965976715088 -0.2354700118303299 -0.20725414156913757 -0.18038630485534668 -0.24942143261432648 -0.19058676064014435 -0.06637413799762726 0.06323421001434326 0.16000375151634216 0.19430707395076752 0.1837787926197052 0.08319327235221863 -0.0031990003772079945 -0.14955365657806396 -0.1907017081975937 -0.22028948366641998 -0.20461952686309814 -0.2568212151527405 -0.23078882694244385 -0.1230049729347229 0.06157700717449188 0.03345637023448944 0.2873382270336151 0.22124119102954865 0.06007913872599602 -0.13585233688354492 -0.29339438676834106 -0.30850479006767273 -0.2771714925765991 -0.2836925983428955 -0.26661452651023865 -0.15246829390525818 -0.0627012550830841 0.043688707053661346 0.12491006404161453 0.33972930908203125 0.22756852209568024 0.030310340225696564 -0.2270064502954483 -0.4302767515182495 -0.4634363651275635 -0.3678824007511139 -0.35246431827545166 -0.25021395087242126 -0.13462655246257782 -0.08707459270954132 -0.06463015079498291 0.03574950993061066 0.24377837777137756 0.2000313401222229 -0.07406336069107056 -0.45129701495170593 -0.45335155725479126 -0.4637247622013092 -0.48289957642555237 -0.3354564309120178 -0.32269009947776794 -0.2577306926250458 -0.14686104655265808 -0.05919186398386955 0.05224161222577095 0.2963162958621979 0.09145680069923401 -0.11627823859453201 -0.32376933097839355 -0.31615740060806274 -0.3141971826553345 -0.3385355770587921 -0.2868642508983612 -0.2219344824552536 -0.07965139299631119 -0.12351949512958527 0.05791429802775383 0.22360575199127197 0.21003906428813934 0.0969133973121643 -0.04837605357170105 -0.06780952215194702 -0.14531104266643524 -0.1929573118686676 -0.27521464228630066 -0.22090253233909607 -0.15708670020103455 -0.11460861563682556 -0.0007255150703713298 0.2010010927915573 0.2486153244972229 0.2773904502391815 0.1800718605518341 0.13713690638542175 -0.11142072081565857 -0.11982258409261703 -0.2614828050136566 -0.30801111459732056 -0.3293969929218292 -0.20105335116386414 -0.27369633316993713 -0.006412290036678314 0.1394031047821045 0.2347489446401596 0.3962407410144806 0.1489206701517105 0.08892277628183365 -0.1285369098186493 -0.18854184448719025 -0.18313317000865936 -0.28949981927871704 -0.2834782004356384 -0.2406933754682541 -0.12919138371944427 0.14770925045013428 0.24304598569869995 0.2584293782711029 0.29620563983917236 0.10352622717618942 -0.004809175152331591 -0.10132978111505508 -0.06637018173933029 -0.06847645342350006 -0.07960847020149231 -0.0703488290309906 -0.08524811267852783 0.04158942773938179 0.2512305676937103 0.40682438015937805 0.5001171827316284 0.2889564037322998 0.1864399015903473 0.08762399852275848 -0.08114191889762878 -0.028693052008748055 -0.11207537353038788 -0.15303578972816467 -0.11497306078672409 -0.015051077120006084 0.15687893331050873 0.3384896218776703 0.36486881971359253 0.43567830324172974 0.2628050446510315 0.21566931903362274 0.05014577507972717 -0.08917046338319778 -0.11843759566545486 -0.25145864486694336 -0.23898357152938843 -0.18532559275627136 -0.16093623638153076 -0.00024385552387684584 0.24122180044651031 0.40895381569862366 0.3605094254016876 0.029351528733968735 0.08722978085279465 0.21321545541286469 0.40153729915618896 0.4524581730365753 0.3188174366950989 0.287419855594635 0.17768143117427826 0.17436626553535461 0.15413913130760193 -0.04377399757504463 -0.11605208367109299 -0.037365105003118515 -0.004643945023417473 -0.1858353167772293 0.05139952898025513 0.27469152212142944 0.4888743460178375 0.3133881688117981 0.15891313552856445 0.1496017724275589 0.14406895637512207 0.0689697116613388 -0.03802585229277611 -0.09356045722961426 -0.13974376022815704 -0.11921712756156921 -0.3203587830066681 -0.13295434415340424 0.15255096554756165 0.3137868642807007 0.18018759787082672 0.030352575704455376 0.05448581650853157 0.058247391134500504 0.014576143585145473 -0.06403102725744247 -0.1848224699497223 -0.16281791031360626 -0.17043757438659668 -0.21762989461421967 -0.25567230582237244 0.1254574954509735 0.17211958765983582 0.13949452340602875 -0.027037858963012695 -0.015525564551353455 0.0055895112454891205 0.013252940028905869 -0.09803096204996109 -0.1293431520462036 -0.17866207659244537 -0.12112544476985931 -0.29793548583984375 -0.38146334886550903 0.054691512137651443 0.19724227488040924 0.09219426661729813 0.010420743376016617 0.004704474471509457 0.03634140267968178 -0.005859966855496168 -0.0791739821434021 -0.09739382565021515 -0.1789890080690384 -0.4504874050617218 -0.659595251083374 -0.628333568572998 -0.21969453990459442 0.09195823967456818 0.02152312360703945 -0.08818541467189789 -0.08991876244544983 -0.003760808613151312 -0.0214402936398983 -0.022308332845568657 -0.10511734336614609 -0.17101916670799255 -0.8281397819519043 -0.9553151726722717 -0.853447675704956 -0.4275403618812561 -0.08619137108325958 -0.05694103613495827 -0.12710167467594147 -0.08676200360059738 -0.10274197161197662 -0.03203586861491203 -0.04582040384411812 -0.13346701860427856 -0.1193351000547409 -0.7442071437835693 -0.7259196043014526 -0.5942384600639343 -0.3982490301132202 -0.25030678510665894 -0.18989700078964233 -0.13129007816314697 -0.15603861212730408 -0.04382410645484924 -0.07595054805278778 -0.030188005417585373 -0.017561884596943855 -0.16248869895935059 -0.3749796450138092 -0.4233745336532593 -0.48876768350601196 -0.31711074709892273 -0.232444167137146 -0.21810290217399597 -0.1686432957649231 -0.10266130417585373 0.006779358722269535 -0.07257290929555893 -0.022393478080630302 0.022539420053362846 -0.24796801805496216 -0.2972243130207062 -0.4666374623775482 -0.4580148756504059 -0.3468005955219269 -0.19651396572589874 -0.1477993279695511 -0.1459166407585144 -0.06478210538625717 0.029459483921527863 -0.0199104193598032 -0.05056113377213478 -0.08858935534954071 -0.25917288661003113 -0.2268063724040985 -0.41141748428344727 -0.44791892170906067 -0.33725130558013916 -0.20684155821800232 -0.13620254397392273 -0.03349880129098892 0.03780200704932213 0.05128888785839081 0.045415375381708145 -0.11308716982603073 -0.08849238604307175 -0.14103306829929352 -0.20751529932022095 -0.4668319821357727 -0.3499780595302582 -0.2522183060646057 -0.12953148782253265 -0.12511810660362244 -0.07545425742864609 0.022972119972109795 0.13167735934257507 0.17423242330551147 0.07815220952033997 -0.07228720188140869 -0.11846250295639038 -0.15330883860588074 -0.3352905213832855 -0.18807466328144073 -0.14669086039066315 0.02624422311782837 0.00683806836605072 -0.0032719112932682037 0.07101335376501083 0.09457831084728241 0.11364758759737015 0.05945593863725662 0.0033100058790296316 -0.1902465969324112 -0.04477468132972717 -0.27427569031715393 -0.3104988634586334 -0.19309234619140625 -0.29055994749069214 -0.06068773567676544 -0.013945345766842365 -0.030004940927028656 -0.06764473766088486 -0.03726228326559067 -0.01932886615395546 0.039319753646850586 0.026146957650780678 -0.18742360174655914 -0.32414770126342773 -0.6290981769561768 -0.605156421661377 -0.4169366955757141 -0.2552449703216553 -0.1250486820936203 -0.09628305584192276 -0.03358403593301773 0.016036594286561012 0.10122396796941757 0.039420098066329956 -0.022999510169029236 -0.4125845730304718 -0.5455054640769958 -0.859879732131958 -0.683087944984436 -0.4594166576862335 -0.3000629246234894 -0.22533833980560303 -0.17064467072486877 -0.10945546627044678 0.029268305748701096 0.0689186081290245 -0.006831740494817495 0.0973377525806427 -0.30955690145492554 -0.6139268279075623 -0.687707245349884 -0.6333458423614502 -0.3924366235733032 -0.1760646104812622 -0.14302033185958862 -0.04343518987298012 -0.05641049146652222 0.16935685276985168 0.08424048870801926 0.02524123340845108 0.014792803674936295 -0.33667227625846863 -0.5864476561546326 -0.5696320533752441 -0.507381796836853 -0.09657593816518784 -0.09669383615255356 -0.05074083432555199 0.022884929552674294 0.019635435193777084 0.06172263249754906 0.05839370936155319 0.05321234464645386 -0.033188868314027786 -0.2918776869773865 -0.4447145462036133 -0.5036842226982117 -0.21620683372020721 -0.024202030152082443 0.0058638714253902435 0.055455099791288376 -0.016795562580227852 0.044506266713142395 0.049452170729637146 0.14504684507846832 0.0882401317358017 0.015004996210336685 -0.4383344054222107 -0.11361193656921387 -0.25853195786476135 -0.2299826741218567 -0.10187575966119766 -0.0931076779961586 0.0008490901673212647 0.017852894961833954 -0.1129116490483284 -0.09965047240257263 -0.0044872211292386055 -0.027758479118347168 -0.05285300314426422 0.01771789975464344 0.009356381371617317 -0.04234519600868225 -0.14724445343017578 -0.1423114836215973 -0.06041228398680687 -0.02858409658074379 -0.05435408651828766 -0.1780092418193817 -0.08690063655376434 -0.08969197422266006 -0.046217288821935654 -0.15530236065387726 0.2547808885574341 0.0983949676156044 0.03232943266630173 -0.07727358490228653 -0.059810422360897064 0.05615862458944321 0.08639830350875854 0.009280366823077202 -0.07680108398199081 -0.07400945574045181 -0.02201017737388611 -0.09347673505544662 -0.2865681052207947 0.2855989634990692 0.09255237877368927 0.10261594504117966 -0.021713728085160255 0.05179489403963089 0.04749985784292221 0.04851169139146805 -0.014689268544316292 -0.08526439219713211 -0.1564689576625824 -0.11344385147094727 -0.20184439420700073 -0.40776416659355164 0.290209025144577 0.13261941075325012 0.012660072185099125 0.03339714929461479 -0.025382032617926598 0.07617969810962677 0.009112066589295864 -0.009322090074419975 -0.14341701567173004 -0.20088057219982147 -0.2761622667312622 -0.28193092346191406 -0.5417009592056274 0.3515949845314026 0.2380031943321228 0.11671172082424164 0.11245261132717133 0.034074459224939346 0.05201162397861481 0.08490591496229172 -0.029972441494464874 -0.15868452191352844 -0.27409884333610535 -0.2744555175304413 -0.36591607332229614 -0.49127426743507385 0.32144975662231445 0.24234554171562195 0.1789904236793518 0.09565085917711258 0.03825962543487549 0.08482620865106583 0.05928286537528038 0.06677096337080002 -0.07811634987592697 -0.2919635772705078 -0.3642011880874634 -0.2915746867656708 -0.45106229186058044 -0.14011701941490173 -0.20784159004688263 -0.2651236057281494 -0.35814806818962097 -0.31062933802604675 -0.38966435194015503 -0.45127052068710327 -0.575249433517456 -0.6077650189399719 -0.6306555271148682 -0.6087777614593506 -0.3653969466686249 -0.14366990327835083 -0.2893833518028259 -0.2884903848171234 -0.3012002408504486 -0.3832826614379883 -0.4309481084346771 -0.46904265880584717 -0.48281973600387573 -0.5536413192749023 -0.6803045868873596 -0.7318829894065857 -0.708672046661377 -0.520666241645813 -0.28609171509742737 -0.5752648711204529 -0.43729421496391296 -0.3218234181404114 -0.2055649757385254 -0.3308587968349457 -0.4547175467014313 -0.3745816946029663 -0.4696162939071655 -0.5380795001983643 -0.5402344465255737 -0.5151359438896179 -0.3434111773967743 -0.11388850957155228 -0.5396484732627869 -0.33088240027427673 -0.2896726727485657 -0.1504153311252594 -0.22514808177947998 -0.31912943720817566 -0.3208014965057373 -0.35655486583709717 -0.3830530643463135 -0.47318610548973083 -0.3870934247970581 -0.45925572514533997 -0.19932131469249725 -0.2976996898651123 -0.3167889714241028 -0.3642445206642151 -0.3634699285030365 -0.3472532033920288 -0.44229379296302795 -0.433586061000824 -0.3266828954219818 -0.2839508354663849 -0.4176938831806183 -0.3805108666419983 -0.35776302218437195 -0.31422027945518494 -0.190593421459198 -0.48340052366256714 -0.3797643184661865 -0.36715438961982727 -0.34568676352500916 -0.3317647874355316 -0.2925175130367279 -0.2719176411628723 -0.2867143154144287 -0.4364270865917206 -0.4871234893798828 -0.4870164394378662 -0.3530317544937134 -0.36315882205963135 -0.48918670415878296 -0.3900999128818512 -0.2883857786655426 -0.17578276991844177 -0.24149174988269806 -0.2673579454421997 -0.2084803581237793 -0.21537809073925018 -0.32627859711647034 -0.43261539936065674 -0.3973464071750641 -0.4635562300682068 -0.32041963934898376 -0.30626580119132996 -0.31487348675727844 -0.2568730115890503 -0.2352379560470581 -0.21696925163269043 -0.23994110524654388 -0.25822311639785767 -0.2130725383758545 -0.2878725528717041 -0.3018573224544525 -0.3409223258495331 -0.49787262082099915 -0.03141222149133682 -0.05199854448437691 -0.1481277197599411 -0.13181836903095245 -0.14761903882026672 -0.1797313094139099 -0.136061891913414 -0.23195943236351013 -0.12807554006576538 -0.2941710352897644 -0.2534010112285614 -0.11875088512897491 -0.25103601813316345 0.0070506916381418705 -0.15139584243297577 -0.1517879068851471 -0.1211906298995018 -0.12854734063148499 -0.11865191906690598 -0.15355779230594635 -0.17953918874263763 -0.14428474009037018 -0.1805422604084015 -0.05999142304062843 -0.04397999122738838 -0.22367076575756073 0.020646734163165092 -0.06290417909622192 -0.048305999487638474 -0.03812510520219803 -0.11448166519403458 -0.09178038686513901 -0.16130973398685455 -0.1495332419872284 -0.11268796026706696 -0.10498660802841187 -0.04947357252240181 0.046691011637449265 -0.3476383686065674 -0.001424311427399516 -0.07357197999954224 -0.07866319268941879 -0.035895757377147675 -0.012605679221451283 -0.011386118829250336 -0.048832498490810394 -0.03685612604022026 -0.018640385940670967 0.053172022104263306 0.14175492525100708 0.07737533003091812 -0.1281585842370987 -0.04702850058674812 -0.12564867734909058 -0.11413043737411499 -0.04556478187441826 -0.1003560721874237 -0.07803250104188919 -0.04069502279162407 -0.06179482862353325 -0.05621686577796936 0.10220395773649216 0.07721193134784698 -0.05644763261079788 -0.18898910284042358 0.018513817340135574 0.017894307151436806 0.03795720636844635 0.16079293191432953 0.3367960453033447 0.2887170612812042 0.189828023314476 0.1655578464269638 0.09945335239171982 0.25533273816108704 0.022513478994369507 -0.04021027684211731 0.06776202470064163 -0.020817657932639122 -0.2001386135816574 -0.1358010321855545 -0.0979776605963707 0.20319853723049164 0.17596346139907837 0.03227870911359787 0.04771620035171509 0.0878414586186409 0.1603698581457138 0.01612759940326214 0.04455874115228653 -0.1343735307455063 -0.13853749632835388 -0.38848647475242615 -0.5924473404884338 -0.046393003314733505 0.0014473964693024755 0.07325290888547897 0.002212334191426635 -0.020592449232935905 0.015294739976525307 0.03320203721523285 0.039974868297576904 -0.1121901124715805 -0.08904384821653366 -0.2505396604537964 -0.2717288136482239 -0.4137623906135559 -0.032252490520477295 0.04260928928852081 0.11734747141599655 0.0008106683380901814 -0.09965287894010544 0.06702229380607605 0.026110926643013954 0.02110576443374157 -0.042557813227176666 -0.02476436085999012 -0.19761782884597778 -0.3377893269062042 -0.5249675512313843 -0.10633498430252075 0.1653793305158615 0.09096111357212067 0.009115751832723618 -0.0037962801288813353 0.06545805186033249 0.04342661052942276 0.00857657752931118 0.03440143167972565 -0.05626346915960312 -0.32012027502059937 -0.6844794154167175 -0.6404115557670593 -0.2771374583244324 0.07542053610086441 -0.052271176129579544 -0.07672866433858871 -0.060175761580467224 0.059390075504779816 0.0013259716797620058 -0.00800155196338892 -0.030959447845816612 -0.10440856963396072 -0.6379544734954834 -0.7890546321868896 -0.6331152319908142 -0.29405248165130615 -0.06826507300138474 -0.13328246772289276 -0.18057838082313538 -0.036863334476947784 -0.11518348008394241 -0.13731814920902252 -0.13006356358528137 -0.0982949286699295 -0.13635775446891785 -0.32744449377059937 -0.4113357365131378 -0.28896602988243103 -0.1295410394668579 -0.0873061791062355 -0.150993213057518 -0.1326918601989746 -0.06362101435661316 -0.07149797677993774 -0.18010544776916504 -0.10974220186471939 -0.03910082206130028 -0.1450759619474411 -0.04021390154957771 -0.1603640764951706 -0.06979228556156158 0.014263004995882511 -0.002442785073071718 -0.11609216779470444 -0.07125017791986465 -0.11443024128675461 -0.05314960703253746 -0.14745041728019714 -0.0665007159113884 -0.008594843558967113 -0.20369499921798706 -0.02200581692159176 -0.06102719530463219 0.09589802473783493 0.0680156946182251 -0.00014049206220079213 -0.0032377676106989384 0.01950868032872677 -0.036810390651226044 0.02344105951488018 -0.12269539386034012 -0.20202524960041046 -0.11193341016769409 -0.2843742370605469 -0.040064409375190735 -0.07087724655866623 0.016098788008093834 0.08163682371377945 0.024599026888608932 -0.06211298331618309 0.007666435092687607 -0.0018779956735670567 -0.004698838107287884 -0.06073097884654999 -0.19902954995632172 -0.17553269863128662 -0.1941751390695572 0.09897643327713013 -0.04569367691874504 0.11162573099136353 0.012988281436264515 0.06969127804040909 -0.01394161768257618 0.013005693443119526 0.004455125890672207 0.05416013300418854 -0.023887887597084045 -0.08934132009744644 -0.1610218584537506 -0.15055625140666962 0.04661343991756439 0.08770076930522919 0.17928297817707062 0.1797468066215515 0.08178123831748962 0.07808918505907059 0.034355390816926956 0.13304054737091064 0.07457525283098221 0.03862535208463669 -0.12891480326652527 -0.13051699101924896 -0.19596879184246063 -0.3849276900291443 -0.22272486984729767 -0.20544646680355072 -0.1604643166065216 -0.07031505554914474 -0.11195454001426697 -0.14300566911697388 -0.2252054065465927 -0.17754963040351868 -0.2591167390346527 -0.30821287631988525 -0.2999424636363983 -0.11135312169790268 -0.3878430724143982 -0.3439658284187317 -0.13230004906654358 -0.08896026015281677 -0.1026778444647789 -0.18639177083969116 -0.16794998943805695 -0.09537864476442337 -0.17652258276939392 -0.3055345416069031 -0.266877144575119 -0.2011694461107254 -0.15441730618476868 -0.4841323792934418 -0.3333510458469391 -0.07350581884384155 -0.019190149381756783 0.016448497772216797 -0.11128582805395126 -0.11944697052240372 -0.11896557360887527 -0.1569380909204483 -0.2354823797941208 -0.292336642742157 -0.21636779606342316 -0.1584313064813614 -0.2939761281013489 -0.4833510220050812 -0.25323009490966797 -0.13634583353996277 -0.11291249841451645 -0.16086697578430176 -0.23843136429786682 -0.16759057343006134 -0.18618881702423096 -0.20504601299762726 -0.3133484125137329 -0.24833065271377563 -0.2330552190542221 -0.14056836068630219 -0.16276094317436218 -0.20187392830848694 -0.20342543721199036 -0.26053252816200256 -0.22271722555160522 -0.21787971258163452 -0.19504530727863312 -0.23701798915863037 -0.2523230314254761 -0.34772250056266785 -0.32493409514427185 -0.21316301822662354 -0.17888143658638 -0.1567215472459793 -0.2916235625743866 -0.2448972761631012 -0.1804620772600174 -0.189885675907135 -0.15061978995800018 -0.25415754318237305 -0.2713286578655243 -0.24405932426452637 -0.23544175922870636 -0.2988840639591217 -0.33693167567253113 -0.2889852523803711 -0.30622854828834534 -0.4144633412361145 -0.4069826006889343 -0.19236008822917938 -0.15578067302703857 -0.19319625198841095 -0.19747351109981537 -0.1647629737854004 -0.038433581590652466 -0.13651934266090393 -0.1760101616382599 -0.2803893983364105 -0.2730771005153656 -0.30207115411758423 -0.5088520050048828 -0.4791269302368164 -0.32522857189178467 -0.22660930454730988 -0.1577678918838501 -0.1721251904964447 -0.1306275576353073 0.011711899191141129 0.016348527744412422 -0.09947070479393005 -0.2726181149482727 -0.14992593228816986 -0.22336779534816742 -0.513847291469574 -0.6302366852760315 -0.31988343596458435 -0.2999849319458008 -0.18087564408779144 -0.1660325974225998 -0.13612936437129974 0.08934123069047928 -0.04232858121395111 -0.07755058258771896 -0.36518722772598267 -0.1579902619123459 -0.4373164772987366 -0.5891124606132507 -0.648581326007843 -0.3965230882167816 -0.3426811099052429 -0.2311485856771469 -0.2014620006084442 -0.11026410013437271 0.08981150388717651 0.0690084844827652 -0.13478542864322662 -0.4203602075576782 -0.05273987725377083 -0.3648366630077362 -0.578169047832489 -0.6090599298477173 -0.36292317509651184 -0.2754751443862915 -0.13256312906742096 -0.07855423539876938 -0.03596275672316551 0.0750226229429245 0.17213483154773712 0.17200449109077454 -0.14242646098136902 -0.22949396073818207 -0.4359298646450043 -0.5734777450561523 -0.5205801725387573 -0.37212124466896057 -0.31126177310943604 -0.2581368684768677 -0.10401011258363724 0.0007298014825209975 0.2535788118839264 0.13377392292022705 0.049629658460617065 0.07634013891220093 -0.2712034583091736 -0.4896429777145386 -0.6429757475852966 -0.5756706595420837 -0.4489067494869232 -0.3693116307258606 -0.19151470065116882 -0.1532197743654251 -0.04949193447828293 0.17546476423740387 0.21938952803611755 0.10927487164735794 -0.21036085486412048 -0.3195803165435791 -0.31527063250541687 -0.31888604164123535 -0.4103907346725464 -0.30230072140693665 -0.2744283378124237 -0.28990402817726135 -0.2666342258453369 -0.25810983777046204 -0.1429661363363266 -0.14006471633911133 -0.037801552563905716 -0.0934501588344574 -0.3644844889640808 -0.36288708448410034 -0.44093838334083557 -0.4231010973453522 -0.42897048592567444 -0.35916996002197266 -0.37878721952438354 -0.3787156343460083 -0.36331743001937866 -0.22546908259391785 -0.07186096161603928 -0.050398942083120346 -0.026379162445664406 -0.5634379386901855 -0.4608980119228363 -0.4015592932701111 -0.430921733379364 -0.433582067489624 -0.41206029057502747 -0.4234239161014557 -0.39821210503578186 -0.395603746175766 -0.3053557872772217 -0.2920660376548767 -0.16053973138332367 -0.07435020804405212 -0.28252971172332764 -0.32498449087142944 -0.34657010436058044 -0.4435632526874542 -0.4417964220046997 -0.5694316625595093 -0.4508231580257416 -0.46366071701049805 -0.4580345153808594 -0.46140041947364807 -0.31600677967071533 -0.12569299340248108 -0.1752745658159256 -0.22215628623962402 -0.2919369339942932 -0.4353221356868744 -0.3578457534313202 -0.47566142678260803 -0.5866613388061523 -0.5329645872116089 -0.48037296533584595 -0.4997226595878601 -0.512225866317749 -0.3572583496570587 -0.258073091506958 -0.16179034113883972 -0.24454790353775024 -0.29558050632476807 -0.34225526452064514 -0.3141629993915558 -0.4980008602142334 -0.5122408270835876 -0.5314834713935852 -0.5298742055892944 -0.5438618063926697 -0.5325238108634949 -0.35732659697532654 -0.20917686820030212 -0.2883579134941101 0.010352128185331821 -0.18917874991893768 -0.2721056342124939 -0.3280571699142456 -0.4804891347885132 -0.46756747364997864 -0.501995325088501 -0.5931814908981323 -0.5822639465332031 -0.638490617275238 -0.4360774755477905 -0.43155378103256226 -0.6117018461227417 0.12336459010839462 -0.1306362897157669 -0.22628553211688995 -0.2573970854282379 -0.3639843463897705 -0.5203735828399658 -0.5378714203834534 -0.5593342185020447 -0.5498378276824951 -0.6339684128761292 -0.753919243812561 -0.5133134126663208 -0.4415725767612457 0.03827063366770744 -0.07806362956762314 -0.057663444429636 -0.23124659061431885 -0.34931081533432007 -0.4094559848308563 -0.4401085376739502 -0.5051312446594238 -0.5538556575775146 -0.9222776293754578 -0.93314528465271 -0.4007565379142761 -0.5601218342781067 0.038275834172964096 0.036142561584711075 -0.06077461317181587 -0.15223129093647003 -0.3304402530193329 -0.40675944089889526 -0.4295204281806946 -0.44166919589042664 -0.4903591573238373 -0.8832294940948486 -0.9338868856430054 -0.3567916750907898 -0.6823466420173645 0.08099443465471268 -0.07428356260061264 0.002904353430494666 -0.19773496687412262 -0.31810808181762695 -0.35070496797561646 -0.3403221070766449 -0.41137075424194336 -0.5362338423728943 -0.860094428062439 -1.0017656087875366 -0.4673638939857483 -0.3015018105506897 0.11799563467502594 -0.005605493206530809 -0.04636538401246071 -0.1278172880411148 -0.22579257190227509 -0.34169769287109375 -0.2924474775791168 -0.46652621030807495 -0.5917656421661377 -0.8402180671691895 -0.8321054577827454 -0.6090292930603027 -0.247367724776268 -0.022768516093492508 0.05736343190073967 -0.07013841718435287 -0.22579722106456757 -0.25056159496307373 -0.2447366863489151 -0.24711187183856964 -0.34776097536087036 -0.568674623966217 -0.8845276236534119 -0.7539555430412292 -0.4820469617843628 -0.321946382522583 0.038733601570129395 -0.02057545632123947 -0.05576489493250847 -0.058323632925748825 -0.1729211062192917 -0.14559835195541382 -0.15459150075912476 -0.12944933772087097 -0.16157089173793793 -0.1660120040178299 -0.12755608558654785 -0.09589433670043945 -0.04316901043057442 0.06514807045459747 -0.031985022127628326 -0.05323962867259979 -0.06498127430677414 -0.14020997285842896 -0.08621235936880112 0.007773020304739475 -0.03972562775015831 -0.02004348114132881 -0.026416856795549393 -0.05478277429938316 -0.01139119639992714 -0.013261848129332066 -0.00834212638437748 -0.04268133267760277 -0.04858515039086342 -0.0614815279841423 -0.031002789735794067 0.033762894570827484 0.051675017923116684 0.1786828488111496 0.09090684354305267 0.09623421728610992 0.05858035013079643 0.11066856235265732 0.04649844765663147 -0.058754004538059235 -0.053163863718509674 -0.0351722426712513 -0.0024692611768841743 0.006019691936671734 0.10680338740348816 0.14263664186000824 0.14050449430942535 0.15994395315647125 0.1378163993358612 0.14573346078395844 0.14435967803001404 0.029050519689917564 -0.044559817761182785 -0.06554915010929108 -0.020033249631524086 0.037132322788238525 0.013854977674782276 0.10633200407028198 0.16655121743679047 0.15606024861335754 0.11754743754863739 0.07600051909685135 0.15393692255020142 0.15629930794239044 0.0053098564967513084 -0.07247678935527802 -0.023246008902788162 0.012587555684149265 -0.02550525590777397 0.0213016364723444 -0.007881034165620804 0.08845118433237076 -0.0041676838882267475 0.0006855460815131664 0.09368966519832611 0.137421652674675 -0.008347827009856701 -0.05785166472196579 -0.04917480796575546 -0.02215467393398285 -0.029893498867750168 -0.05197329819202423 -0.02634168416261673 -0.04654697701334953 -0.10454683750867844 -0.03562389686703682 -0.009353862144052982 0.10965890437364578 0.06628788262605667 0.031720105558633804 -0.09073759615421295 -0.04935329034924507 -0.05396131053566933 0.008261003531515598 -0.09310267120599747 -0.025794444605708122 -0.05841479450464249 -0.061671316623687744 -0.03980771079659462 0.08695802837610245 0.14727698266506195 0.008868873119354248 -0.03987874090671539 -0.08135484158992767 -0.008663749322295189 0.01309810858219862 -0.04450777545571327 -0.03449387103319168 -0.07217023521661758 -0.08201457560062408 -0.09199529886245728 -0.10967576503753662 -0.09690043330192566 -0.06501530855894089 -0.09412697702646255 -0.15305940806865692 -0.17411626875400543 -0.015690604224801064 -0.015599912963807583 -0.03592096269130707 -0.0554402656853199 -0.0796399638056755 -0.07932281494140625 -0.19783730804920197 -0.15770064294338226 -0.23373690247535706 -0.25571557879447937 -0.20842967927455902 -0.254098504781723 -0.23457834124565125 -0.006638026796281338 0.000760179478675127 -0.019933709874749184 -0.14639605581760406 -0.1507493555545807 -0.1792520433664322 -0.22497858107089996 -0.2375836968421936 -0.259821355342865 -0.267363041639328 -0.2300155758857727 -0.27882930636405945 -0.2526915371417999 0.020643116906285286 0.022039420902729034 0.030819933861494064 -0.05677636340260506 -0.11483284085988998 -0.2033451497554779 -0.28806471824645996 -0.36430245637893677 -0.3864785432815552 -0.24427227675914764 -0.21771173179149628 -0.29470887780189514 -0.236996591091156 -0.023012639954686165 -0.034654758870601654 -0.05479208379983902 -0.14841832220554352 -0.19831976294517517 -0.3217970132827759 -0.4186863303184509 -0.417783260345459 -0.301283597946167 -0.2988608181476593 -0.1405392736196518 -0.1814790666103363 -0.05762172117829323 0.025771591812372208 0.04102659970521927 0.05883565917611122 0.06755436956882477 0.027631154283881187 0.0378471277654171 -0.004933636635541916 0.0286420825868845 -0.0005354658933356404 -0.029811769723892212 0.005849084351211786 -0.03654155880212784 -0.07559201121330261 0.034241560846567154 0.023249758407473564 0.17300240695476532 0.20229801535606384 0.1625550389289856 0.1560632586479187 0.12444209307432175 0.07605055719614029 0.03008395992219448 -0.032066043466329575 -0.1121680736541748 -0.15163829922676086 -0.20750692486763 0.04421115666627884 0.20847022533416748 0.2613210082054138 0.2590022683143616 0.2904069721698761 0.2105288952589035 0.10515875369310379 0.06763597577810287 -0.023960651829838753 -0.07440441101789474 -0.12243626266717911 -0.24593520164489746 -0.30312618613243103 0.16262458264827728 0.2988264858722687 0.32459670305252075 0.3408144414424896 0.2981448173522949 0.2659773528575897 0.1595153957605362 0.044392891228199005 0.04990808665752411 -0.022632798179984093 -0.12384074926376343 -0.23547597229480743 -0.31522977352142334 0.16444459557533264 0.33505213260650635 0.36060985922813416 0.3221231698989868 0.40677690505981445 0.28681284189224243 0.1582985818386078 0.09467245638370514 0.020168865099549294 -0.034011360257864 -0.0807906836271286 -0.20774517953395844 -0.21078437566757202 0.03267333284020424 0.18696504831314087 0.24063193798065186 0.23271091282367706 0.22655832767486572 0.19158704578876495 0.1233484074473381 0.025797810405492783 -0.04437561705708504 -0.005408290773630142 -0.008131271228194237 -0.08479399234056473 -0.027341308072209358 0.13070343434810638 0.11616530269384384 0.16024751961231232 0.22618308663368225 0.17603853344917297 0.13467587530612946 0.09313993901014328 -0.002266675466671586 0.017686206847429276 0.05847082659602165 0.055859047919511795 0.09237383306026459 0.15637385845184326 0.04704796522855759 0.0997999757528305 0.14985506236553192 0.1331140547990799 0.06873005628585815 0.07404276728630066 0.06668391823768616 0.039163943380117416 0.030902264639735222 0.07442936301231384 0.12952768802642822 0.164395272731781 0.28048959374427795 0.06873127818107605 0.0646415650844574 0.1254243552684784 0.0913534089922905 0.1021275594830513 0.046619683504104614 0.06612774729728699 0.07995667308568954 0.13148733973503113 0.15164807438850403 0.1894063949584961 0.2856432795524597 0.5105958580970764 -0.005819055717438459 -0.021324602887034416 0.0168573260307312 0.03655538335442543 0.04692668095231056 0.004838600754737854 0.019053766503930092 0.08952558040618896 0.15037737786769867 0.20782601833343506 0.22203195095062256 0.33569279313087463 0.5884647369384766 -0.10661093890666962 -0.1066778302192688 -0.05651378259062767 -0.06601451337337494 -0.11308901757001877 -0.10056100785732269 0.017985273152589798 0.1599106788635254 0.2087102234363556 0.2542571723461151 0.32951077818870544 0.41619786620140076 0.6549720764160156 -0.1986520141363144 -0.14616723358631134 -0.1912030130624771 -0.19626787304878235 -0.15626390278339386 -0.05761713162064552 -0.010899921879172325 0.2559698224067688 0.2866833209991455 0.34637176990509033 0.40425777435302734 0.4920542538166046 0.5935322642326355 -0.18760961294174194 -0.22839276492595673 -0.18930183351039886 -0.09376772493124008 -0.06279630959033966 0.07168503105640411 0.19473488628864288 0.2989836037158966 0.31378939747810364 0.34627753496170044 0.34558072686195374 0.44890108704566956 0.46257346868515015 -0.2246260643005371 -0.07994453608989716 -0.030680472031235695 -0.07657066732645035 0.09147609025239944 0.1608313024044037 0.2468569278717041 0.3189437985420227 0.1815764307975769 0.20820440351963043 0.19428886473178864 0.11836113780736923 0.16538268327713013 -0.32058197259902954 -0.25377345085144043 -0.33947616815567017 -0.27447718381881714 -0.18940997123718262 -0.007442993111908436 0.12198199331760406 0.1702956110239029 0.15941160917282104 0.17707835137844086 0.20933619141578674 0.19603674113750458 0.19806931912899017 -0.337124764919281 -0.5112195611000061 -0.6047801971435547 -0.43432334065437317 -0.26025885343551636 -0.030542541295289993 0.11837930977344513 0.16674140095710754 0.11478418111801147 0.17419731616973877 0.155198872089386 0.2782135605812073 0.13316316902637482 -0.5499991178512573 -0.632841944694519 -0.6654713749885559 -0.5173014998435974 -0.11831648647785187 -0.0024091526865959167 0.055887091904878616 0.10701540112495422 0.1734132319688797 0.16188089549541473 0.2085016965866089 0.13705137372016907 0.15177325904369354 -0.5390773415565491 -0.5811337828636169 -0.534553050994873 -0.48526811599731445 -0.14532779157161713 0.00022950617130845785 0.007240600883960724 0.03903479501605034 0.10040173679590225 0.14617060124874115 0.16322782635688782 0.1539350003004074 0.07917309552431107 -0.7237305045127869 -0.6079921722412109 -0.6039549708366394 -0.3667149543762207 -0.24282799661159515 -0.04789792001247406 -0.02670898847281933 0.0048476774245500565 0.03234977275133133 0.036650024354457855 0.07067939639091492 0.048907794058322906 0.0414542630314827 -0.5342257022857666 -0.6353215575218201 -0.5666728019714355 -0.458120197057724 -0.2578672468662262 -0.2548997104167938 -0.09348350763320923 -0.06528181582689285 -0.03457432612776756 -0.04141987860202789 -0.019765576347708702 0.016495071351528168 -0.11972014605998993 -0.48654210567474365 -0.6537506580352783 -0.5988696813583374 -0.5143203735351562 -0.37115347385406494 -0.21510767936706543 -0.19322872161865234 -0.17983146011829376 -0.10086070746183395 -0.12148070335388184 -0.03413408622145653 -0.04566109925508499 -0.09776832908391953 -0.6418770551681519 -0.7328013777732849 -0.5915258526802063 -0.48755645751953125 -0.3744698464870453 -0.2854750156402588 -0.2791542410850525 -0.21331755816936493 -0.13053342700004578 -0.08587656170129776 -0.0587330162525177 -0.11576245725154877 -0.17584733664989471 -0.4417741000652313 -0.34431058168411255 -0.4788176417350769 -0.29545921087265015 -0.23010654747486115 -0.1705618053674698 -0.19477079808712006 -0.26464295387268066 -0.21645259857177734 -0.1241157278418541 -0.144991934299469 -0.09582194685935974 -0.2930046319961548 -0.2175295054912567 -0.21630799770355225 -0.2910381555557251 -0.21237967908382416 -0.27519381046295166 -0.20014801621437073 -0.24649253487586975 -0.21418361365795135 -0.11227356642484665 -0.18321189284324646 -0.19038429856300354 -0.17783814668655396 -0.33670562505722046 0.10137147456407547 -0.07373210042715073 -0.01886107586324215 -0.09542623907327652 -0.13217926025390625 -0.22022925317287445 -0.1376442164182663 -0.18406538665294647 -0.07142989337444305 -0.11936851590871811 -0.033706869930028915 -0.09607015550136566 -0.15718625485897064 -0.06353089958429337 -0.033000390976667404 -0.21142278611660004 -0.2310122400522232 -0.30435436964035034 -0.1727200448513031 -0.09898858517408371 -0.11592686176300049 -0.09738320857286453 0.04959966987371445 -0.0027464902959764004 0.05954694747924805 -0.3058302402496338 0.061660848557949066 0.10265909880399704 0.018440648913383484 0.031246086582541466 -0.01602286472916603 -0.16219526529312134 -0.17133046686649323 -0.2205893099308014 -0.2380225658416748 -0.12097494304180145 -0.14071740210056305 -0.10394556075334549 0.08062278479337692 0.1015489250421524 -0.007456155959516764 -0.14023464918136597 -0.3156871199607849 -0.3179400563240051 -0.3170122504234314 -0.3393419086933136 -0.2591007649898529 -0.21241749823093414 -0.11795534938573837 -0.1324455440044403 -0.07727482169866562 0.04116087406873703 -0.06918756663799286 -0.07267546653747559 -0.1708160638809204 -0.2857206165790558 -0.37606215476989746 -0.45509883761405945 -0.3960728645324707 -0.28208252787590027 -0.21926259994506836 -0.1207723543047905 -0.07939682900905609 -0.007859277538955212 0.10186613351106644 -0.12833786010742188 -0.15770979225635529 -0.12812373042106628 -0.26488056778907776 -0.4403659701347351 -0.42210453748703003 -0.3003174066543579 -0.29832345247268677 -0.22432853281497955 -0.1470154970884323 -0.06059584021568298 0.01570848748087883 0.2053670436143875 -0.08224503695964813 -0.03359116613864899 -0.14596880972385406 -0.18149200081825256 -0.24899308383464813 -0.24470902979373932 -0.16978590190410614 -0.20833836495876312 -0.20848678052425385 -0.09978178143501282 -0.07186267524957657 0.07877911627292633 0.21993222832679749 0.0319342315196991 0.0772874504327774 0.08790197968482971 -0.08242149651050568 -0.11189524084329605 -0.0782233327627182 -0.1019754707813263 -0.1675521731376648 -0.15181750059127808 -0.024286210536956787 -0.025062493979930878 0.14243529736995697 0.25054237246513367 0.08962254971265793 0.07322757691144943 0.14634186029434204 0.05075904354453087 -0.07862710952758789 0.04149697721004486 -0.04446520656347275 -0.13263671100139618 -0.1299358457326889 -0.05553518235683441 0.08007946610450745 0.08322753012180328 0.13078288733959198 0.3393136262893677 0.20420189201831818 0.09030914306640625 0.029049905017018318 0.05080617591738701 0.04108870029449463 -0.007027952466160059 -0.06299573183059692 -0.08358512818813324 -0.10099947452545166 -0.05661487579345703 0.018773628398776054 0.028307992964982986 0.3431381583213806 0.23955486714839935 0.16934308409690857 0.14292150735855103 0.06852328032255173 0.11977102607488632 0.08314423263072968 -0.018688859418034554 -0.07457907497882843 -0.06397949159145355 -0.12387309223413467 -0.1433115303516388 -0.1729602962732315 0.3812086284160614 0.2144511640071869 0.23250353336334229 0.2239352911710739 0.21135886013507843 0.18313626945018768 0.13066934049129486 0.15282030403614044 -0.044199008494615555 -0.11040566116571426 -0.24118593335151672 -0.2232455313205719 -0.314403772354126 0.3256532549858093 0.2776411771774292 0.2114189714193344 0.26383984088897705 0.2630302309989929 0.24763475358486176 0.1797180473804474 -0.006257359869778156 -0.06292622536420822 -0.1820073127746582 -0.33177080750465393 -0.36331549286842346 -0.6548619270324707 0.15234997868537903 0.18272718787193298 0.16092297434806824 0.15977421402931213 0.2089792639017105 0.24040587246418 0.09491947293281555 0.0433407686650753 -0.14989572763442993 -0.2551264464855194 -0.4197643995285034 -0.548617422580719 -0.8126712441444397 0.028635485097765923 -0.09892810136079788 -0.0062318230047822 0.13383714854717255 0.15941543877124786 0.07089470326900482 0.04464716836810112 0.01409363467246294 -0.12584629654884338 -0.2685582935810089 -0.6582566499710083 -0.7510244250297546 -1.028107762336731 0.16162928938865662 0.2611589729785919 0.2908603847026825 0.3784286677837372 0.31393948197364807 0.2832097113132477 0.22832457721233368 0.27431410551071167 0.14122313261032104 0.09995531290769577 0.16226793825626373 0.09923271089792252 0.025574859231710434 0.1261771321296692 0.19280631840229034 0.16793392598628998 0.27561041712760925 0.311405211687088 0.24560485780239105 0.20525367558002472 0.256936639547348 0.15484721958637238 0.09506064653396606 0.08946514874696732 0.12079663574695587 0.047508444637060165 0.1364409476518631 0.15806220471858978 0.2504839599132538 0.32873833179473877 0.2839205265045166 0.3272189497947693 0.23167134821414948 0.21368302404880524 0.1222507506608963 0.1497075855731964 0.09620881825685501 0.05244474485516548 -0.16670891642570496 0.07716133445501328 0.158228799700737 0.1265491396188736 0.09964483976364136 0.19355908036231995 0.256165087223053 0.1432524174451828 0.1306237131357193 0.12941324710845947 0.10200610756874084 -0.056004222482442856 -0.018182234838604927 -0.12624581158161163 -0.08264932781457901 -0.03034324012696743 0.10992077738046646 0.08722063153982162 0.09334814548492432 0.07724267244338989 0.06556785851716995 0.06441248208284378 0.06002631410956383 0.04651258885860443 -0.05842212960124016 -0.16125351190567017 -0.221944198012352 -0.09275040775537491 -0.053291670978069305 0.017059914767742157 -0.06208071485161781 -0.009768067859113216 -0.06621915102005005 -0.04354165121912956 -0.009205768816173077 -0.03498223051428795 -0.04867460951209068 -0.08559777587652206 -0.005914118606597185 0.042340535670518875 -0.1414819061756134 -0.041464194655418396 -0.015614718198776245 -0.080308698117733 -0.09520447999238968 -0.06469600647687912 -0.06130348891019821 -0.04519110918045044 0.0011494701029732823 0.0028458114247769117 -0.06783170253038406 0.08237070590257645 0.16823631525039673 -0.06278311461210251 0.0075312345288693905 -0.01835346221923828 -0.015858139842748642 -0.00448198476806283 -0.04851992428302765 -0.07681356370449066 0.0205606147646904 0.024990027770400047 0.06205497682094574 0.1299174427986145 0.1418275684118271 0.31807941198349 -0.022093700245022774 0.0025436205323785543 0.012570112943649292 0.04278016462922096 0.003981457091867924 -0.04923068359494209 -0.003914933651685715 -0.004522967617958784 2.8889713576063514e-05 0.0026878449134528637 0.07054266333580017 0.16329991817474365 0.2663794159889221 -0.03532981872558594 -0.0726780816912651 0.038775768131017685 0.019344840198755264 0.01377256028354168 -0.03949780389666557 -0.052720628678798676 -0.014145394787192345 -0.041078291833400726 -0.0239529050886631 0.017962882295250893 0.20890313386917114 0.31047433614730835 -0.026183295994997025 -0.013243913650512695 0.06585881859064102 -0.00729652214795351 -0.07191868871450424 -0.052604857832193375 -0.03653594106435776 -0.021131178364157677 0.06480757147073746 0.07677039504051208 0.10029840469360352 0.1768038272857666 0.23389706015586853 -0.07430077344179153 -0.018428917974233627 -0.0279222559183836 -0.055945396423339844 -0.08641958981752396 -0.0488896518945694 0.022355325520038605 0.06594354659318924 0.09592760354280472 0.18824538588523865 0.25061583518981934 0.21473823487758636 0.18453654646873474 -0.017118681222200394 0.02442551590502262 0.038930803537368774 -0.029622238129377365 0.06925254315137863 0.019170640036463737 0.0643049031496048 0.157594233751297 0.13990388810634613 0.17592452466487885 0.25017860531806946 0.27238404750823975 0.14995355904102325 -0.16342660784721375 0.0034374562092125416 -0.027933847159147263 -0.06157289445400238 -0.05912621319293976 -0.0911305621266365 -0.04574744030833244 0.07647202163934708 0.03863328695297241 -0.04298840090632439 0.05311180651187897 0.019411716610193253 3.426894545555115e-05 -0.33000805974006653 -0.05728040263056755 -0.1897214949131012 -0.32876214385032654 -0.4132688343524933 -0.18296264111995697 -0.052631281316280365 0.005356647539883852 0.052311766892671585 0.024562306702136993 0.0331730954349041 0.15995441377162933 0.004302711226046085 -0.18650442361831665 -0.20381055772304535 -0.363351434469223 -0.35332968831062317 -0.21594354510307312 -0.18762102723121643 -0.05880424752831459 0.0664900690317154 0.022530047222971916 0.10346826910972595 0.044361237436532974 0.15017272531986237 0.0544716939330101 -0.3981838524341583 -0.28158336877822876 -0.2515416443347931 -0.25062212347984314 -0.12852448225021362 -0.007703306619077921 0.10210909694433212 0.08982093632221222 0.10609808564186096 0.08971725404262543 0.06848900020122528 0.02447962947189808 0.07445155829191208 -0.3024795949459076 -0.27915480732917786 -0.2909379005432129 -0.20058035850524902 -0.0820380300283432 0.07921388745307922 0.1298292875289917 0.045465052127838135 0.08124887198209763 0.09126026183366776 0.09486008435487747 0.09518922120332718 0.07445449382066727 -0.4409838318824768 -0.29397180676460266 -0.3389863073825836 -0.14684978127479553 -0.14412452280521393 -0.06479739397764206 0.03777724504470825 0.0008665312197990716 -0.010427099652588367 0.04974225163459778 0.035536833107471466 0.03789573535323143 0.04261433333158493 -0.3870016634464264 -0.31051400303840637 -0.27377933263778687 -0.167941614985466 -0.1874602735042572 -0.2594779133796692 -0.04493075609207153 -0.035278838127851486 -0.008785249665379524 -0.03746999800205231 0.002488949568942189 -0.0009472137317061424 0.04477411508560181 -0.39703401923179626 -0.3874891996383667 -0.40177974104881287 -0.37253084778785706 -0.3016933798789978 -0.39194849133491516 -0.28226175904273987 -0.1203690767288208 -0.07664753496646881 -0.10172291100025177 -0.07254042476415634 -0.03631221503019333 0.02483329549431801 -0.5881317257881165 -0.503296434879303 -0.4806928038597107 -0.5532689094543457 -0.4842457175254822 -0.4552282989025116 -0.28574493527412415 -0.25018543004989624 -0.2146223932504654 -0.12321687489748001 -0.1354599893093109 -0.12089165300130844 -0.07460754364728928 -0.33518555760383606 -0.32148781418800354 -0.3901121914386749 -0.38387811183929443 -0.4511689841747284 -0.3925122320652008 -0.39909401535987854 -0.2933676242828369 -0.27044615149497986 -0.23858509957790375 -0.17696155607700348 -0.1874755173921585 -0.1637740433216095 -0.18894535303115845 -0.23647911846637726 -0.31969767808914185 -0.26525551080703735 -0.3956121504306793 -0.48137739300727844 -0.42021992802619934 -0.39121007919311523 -0.28607404232025146 -0.3181464970111847 -0.32815366983413696 -0.27852243185043335 -0.3698346018791199 0.0533970482647419 -0.19750474393367767 -0.28970035910606384 -0.31729722023010254 -0.5045252442359924 -0.547469973564148 -0.41316893696784973 -0.4143581986427307 -0.36294376850128174 -0.32221660017967224 -0.24466955661773682 -0.3546505868434906 -0.3567216992378235 -0.33845221996307373 -0.40304285287857056 -0.5900306105613708 -0.6118230819702148 -0.643920361995697 -0.6735741496086121 -0.4557753801345825 -0.36641639471054077 -0.37976059317588806 -0.3110547661781311 -0.25692009925842285 -0.1919676959514618 -0.42279815673828125 -0.03537389263510704 -0.023581447079777718 -0.004556186031550169 0.07410164922475815 0.056242939084768295 0.13766564428806305 0.1832760125398636 0.21502846479415894 0.1268537938594818 0.19487351179122925 0.188578799366951 0.141522616147995 0.19129209220409393 -0.02018808200955391 -0.02510259672999382 0.03754821792244911 0.07618451863527298 0.10053769499063492 0.17384102940559387 0.26557815074920654 0.17007997632026672 0.18066154420375824 0.13892050087451935 0.17693006992340088 0.1865578591823578 0.15080901980400085 -0.01050004456192255 -0.10851460695266724 -0.21431784331798553 -0.027694720774888992 -0.01841038651764393 0.11379066109657288 0.11635740846395493 0.08384788781404495 0.030170949175953865 0.14588570594787598 0.12640011310577393 0.15726040303707123 0.1089661717414856 -0.22527725994586945 -0.3247004449367523 -0.24703197181224823 -0.10574398934841156 0.0009735762141644955 0.006381568964570761 -0.03483182564377785 -0.04665069282054901 0.023977376520633698 0.022234464064240456 0.044356584548950195 -0.007139427121728659 0.06503261625766754 -0.24763208627700806 -0.2683252692222595 -0.33120056986808777 -0.25894567370414734 -0.0908532664179802 -0.10382650792598724 -0.034710973501205444 -0.04747464880347252 -0.012283083982765675 0.054028719663619995 0.05925718694925308 0.007033525034785271 -0.012687469832599163 -0.30394992232322693 -0.2922370731830597 -0.2516743242740631 -0.18970252573490143 -0.06958488374948502 -0.039689820259809494 -0.05074182152748108 -0.016373226419091225 0.048921506851911545 0.05724266916513443 0.04509507119655609 0.04138734191656113 -0.073766328394413 -0.12701518833637238 -0.18407461047172546 -0.2260051667690277 -0.1044195219874382 0.0063655381090939045 -0.04089103266596794 -0.0012002201983705163 0.03486214950680733 0.14066407084465027 0.01258934661746025 -0.00964562688022852 -0.0062940982170403 -0.05920950695872307 -0.13918539881706238 -0.23097532987594604 -0.17525820434093475 -0.07154469937086105 -0.005110463593155146 0.06056784838438034 0.0599224790930748 0.06890056282281876 0.08234918117523193 0.038989558815956116 0.019971443340182304 -0.030496546998620033 -0.1246357411146164 -0.1379767805337906 -0.18155719339847565 -0.12336704134941101 0.0028720698319375515 0.041582830250263214 0.09478133916854858 0.010704686865210533 0.022064365446567535 0.09316517412662506 0.05452057346701622 0.025192106142640114 -0.0188324935734272 -0.03373599052429199 -0.09971227496862411 -0.0838480293750763 -0.06312449276447296 0.0641513541340828 0.10515313595533371 0.10698031634092331 0.04674215987324715 0.08563153445720673 0.1110195443034172 0.16721364855766296 0.12547925114631653 0.16446422040462494 0.0004956120392307639 -0.045991118997335434 -0.07588065415620804 0.012765244580805302 0.15365760028362274 0.10050005465745926 0.1394270360469818 0.15230071544647217 0.14728780090808868 0.2204660177230835 0.19125960767269135 0.15265662968158722 0.2097194790840149 0.11737960577011108 -0.04911854863166809 0.054576773196458817 0.08550071716308594 0.054519329220056534 0.1816965937614441 0.2231997400522232 0.28961336612701416 0.34917160868644714 0.28739818930625916 0.21598902344703674 0.301072895526886 0.322527140378952 0.23960064351558685 0.20531031489372253 0.2400934100151062 0.25341376662254333 0.3347150385379791 0.30229002237319946 0.44335073232650757 0.41444316506385803 0.3639936149120331 0.3045160472393036 0.3079257011413574 0.250440388917923 0.2967251241207123 0.2999415695667267 0.11091050505638123 0.11216723918914795 0.17621605098247528 0.11473382264375687 0.025396376848220825 -0.08960667252540588 -0.10392322391271591 -0.22927968204021454 -0.18388916552066803 -0.287438303232193 -0.27327147126197815 -0.32734236121177673 -0.28554314374923706 0.14546799659729004 0.12354733049869537 0.0854182243347168 0.14034001529216766 0.06881256401538849 -0.019222090020775795 -0.09063322842121124 -0.18057119846343994 -0.15765380859375 -0.22834637761116028 -0.29253825545310974 -0.29669106006622314 -0.1943221241235733 0.023795656859874725 0.11368453502655029 0.06419292092323303 0.036912623792886734 -0.005975634790956974 -0.05946451425552368 -0.16278231143951416 -0.2092665582895279 -0.20968516170978546 -0.22255699336528778 -0.1902753859758377 -0.14122924208641052 -0.03854305297136307 -0.0057334597222507 -0.00375797669403255 0.03360976651310921 0.03634293004870415 0.06770475953817368 0.059028927236795425 -0.0843295082449913 -0.08852493762969971 -0.12565135955810547 -0.09221633523702621 -0.046470798552036285 -0.14992743730545044 -0.04562090337276459 0.050604961812496185 0.21293452382087708 0.13413295149803162 0.1848938912153244 0.11061660945415497 0.12340517342090607 0.006008930504322052 -0.0712505578994751 -0.03713146224617958 -0.012852502055466175 -0.03200707957148552 -0.0500948503613472 -0.010185744613409042 0.07629897445440292 0.15322503447532654 0.20759055018424988 0.24380044639110565 0.20785169303417206 0.11029276996850967 0.07215680181980133 0.0037858961150050163 -0.03430357947945595 -0.040135983377695084 0.02956400066614151 0.046766381710767746 0.08251796662807465 0.07327353209257126 0.26120588183403015 0.20685642957687378 0.19822753965854645 0.21169225871562958 0.06531821191310883 0.11061500012874603 0.04668416082859039 0.06001121178269386 0.05398286506533623 0.024320606142282486 0.04374914616346359 0.05232938751578331 0.08675358444452286 0.10054722428321838 0.21381790935993195 0.2037866860628128 0.13875217735767365 0.1023353636264801 0.12013360857963562 0.09664787352085114 0.06961801648139954 0.09053684771060944 0.014716295525431633 0.03363236412405968 0.08059968054294586 0.1690809279680252 0.19868236780166626 0.18094465136528015 0.18508803844451904 0.19895099103450775 0.12339897453784943 0.14405423402786255 0.1481655240058899 0.0759071409702301 0.08933490514755249 -0.070470429956913 -0.04388904571533203 0.04638536274433136 0.084404356777668 0.10676591843366623 0.08909275382757187 0.11337108165025711 0.14444361627101898 0.1738380491733551 0.2156153917312622 0.18314674496650696 0.15644407272338867 0.17490625381469727 0.02099595032632351 0.011365103535354137 -0.05387471243739128 0.06022690609097481 0.10349132865667343 0.08222758024930954 0.19970253109931946 0.07677260786294937 0.16994692385196686 0.23466075956821442 0.22745515406131744 0.1768123209476471 0.05384025722742081 -0.07441821694374084 -0.1975959986448288 -0.23794673383235931 0.003948733676224947 0.03644712641835213 0.0879024937748909 0.0074000125750899315 0.06235212832689285 0.15355442464351654 0.13531474769115448 0.0797630026936531 0.07161787897348404 -0.03515096753835678 -0.23865260183811188 -0.30077892541885376 -0.4016071557998657 0.013416294008493423 -0.012584584765136242 0.04029259458184242 0.00936620682477951 0.04205986484885216 0.049686651676893234 0.05878012999892235 0.040407974272966385 -0.06946635246276855 -0.09861474484205246 -0.22574742138385773 -0.33080893754959106 -0.43614086508750916 -0.04045795276761055 -0.004743705969303846 -0.039061322808265686 -0.08755186945199966 -0.1888202726840973 -0.20558270812034607 -0.18983635306358337 -0.26834389567375183 -0.27116021513938904 -0.34311357140541077 -0.28525683283805847 -0.15233607590198517 -0.07972352206707001 -0.08005357533693314 -0.001040965085849166 -0.06713519990444183 -0.16246134042739868 -0.20681574940681458 -0.10957609117031097 -0.12699362635612488 -0.07322440296411514 -0.23899778723716736 -0.275802344083786 -0.2686355412006378 -0.17185159027576447 -0.08253151923418045 -0.04538077861070633 -0.07069945335388184 -0.14464426040649414 -0.13745415210723877 -0.16234619915485382 -0.15296782553195953 -0.1263747215270996 -0.2092488408088684 -0.26822981238365173 -0.33779773116111755 -0.3838277757167816 -0.18441498279571533 -0.021737780421972275 -0.013265172950923443 -0.008042204193770885 -0.05183456093072891 -0.11742525547742844 -0.14846807718276978 -0.06052566319704056 -0.0012373414356261492 -0.05731239542365074 -0.18432511389255524 -0.4266870319843292 -0.37372055649757385 -0.1596737653017044 -0.09799672663211823 -0.030542954802513123 0.03991268202662468 -0.010855782777071 -0.06135137751698494 -0.11093198508024216 -0.10124046355485916 0.010995225049555302 -0.034712083637714386 -0.24513587355613708 -0.3909981846809387 -0.3274398148059845 -0.20074722170829773 -0.08930496871471405 -0.044613152742385864 0.02708953060209751 0.017577046528458595 -0.10221841931343079 -0.20855897665023804 -0.10857348144054413 -0.06348147988319397 -0.06229150667786598 -0.22042497992515564 -0.3144592046737671 -0.306447297334671 -0.18274378776550293 -0.06156368926167488 0.025077706202864647 0.0152672054246068 0.0822087898850441 0.0005321211647242308 -0.0702899843454361 -0.058099351823329926 -0.05019060894846916 -0.1395275741815567 -0.20683185756206512 -0.22956709563732147 -0.182089701294899 -0.1345415562391281 -0.03014838695526123 0.006657163146883249 -0.0052151307463645935 0.020971106365323067 0.020656384527683258 -0.08006300032138824 -0.051744382828474045 -0.05551264435052872 -0.08257780224084854 -0.14172053337097168 -0.21613559126853943 -0.144296333193779 -0.12089086323976517 0.0395643450319767 0.007757327053695917 -0.022018849849700928 0.047331444919109344 0.017863262444734573 -0.020137164741754532 0.013931252993643284 0.050027430057525635 0.0015597013989463449 -0.09710286557674408 -0.11203151196241379 -0.11149090528488159 -0.016764536499977112 0.09133216738700867 -0.014034709893167019 -0.026760302484035492 0.031184159219264984 0.029899412766098976 0.049481261521577835 0.05806539207696915 0.13048958778381348 -0.0031505064107477665 -0.06399444490671158 0.02395804412662983 0.014990178868174553 0.08948180824518204 0.09164668619632721 -0.01966908574104309 0.027146773412823677 -0.06250989437103271 -0.003948776051402092 0.08914917707443237 0.18274584412574768 0.182640939950943 0.06597350537776947 0.04247400537133217 0.0914672315120697 0.0871448814868927 0.10846835374832153 0.07575073093175888 -0.042228054255247116 -0.03687257319688797 -0.007792203221470118 0.024999916553497314 0.07320842146873474 0.047928355634212494 0.130286306142807 0.0730985701084137 0.030714377760887146 0.025913190096616745 0.03428458794951439 0.052720412611961365 0.10742896050214767 -0.05445215106010437 0.013315689750015736 0.028989138081669807 -0.025659950450062752 0.0069908881559967995 0.06757483631372452 0.1493304818868637 0.034855201840400696 0.0579761266708374 -0.001591631444171071 -0.014970055781304836 0.01650594361126423 0.0015640679048374295 0.060331687331199646 0.10391124337911606 0.10022909939289093 0.11546260863542557 0.1402435600757599 0.1036357581615448 0.06563179194927216 0.036716118454933167 0.005334092304110527 -0.004123232327401638 -0.1019386351108551 -0.09980329871177673 -0.12742522358894348 0.0410018153488636 0.1978408396244049 0.22939614951610565 0.24436374008655548 0.23889437317848206 0.17033320665359497 0.10366492718458176 0.08935151249170303 0.013029989786446095 -0.053437139838933945 -0.07963089644908905 -0.10894347727298737 -0.1761058121919632 0.17409130930900574 0.24383407831192017 0.32364946603775024 0.32745733857154846 0.2416694015264511 0.18363648653030396 0.11708755046129227 0.08682185411453247 0.023185526952147484 -0.03812136501073837 -0.10771699994802475 -0.08996311575174332 -0.15481339395046234 0.20044605433940887 0.28131574392318726 0.39507588744163513 0.3238614797592163 0.24180562794208527 0.17149385809898376 0.13992547988891602 0.11290028691291809 0.05808009207248688 -0.03790515288710594 -0.0882519781589508 -0.07277438789606094 -0.14145639538764954 0.27877670526504517 0.31700602173805237 0.3441496789455414 0.25267523527145386 0.2349289357662201 0.16627374291419983 0.1315566897392273 0.10710851103067398 0.012134714052081108 -0.042572472244501114 -0.0826641395688057 -0.10231754928827286 -0.19526539742946625 0.3683558702468872 0.3932598829269409 0.36185288429260254 0.27657854557037354 0.19793495535850525 0.09856482595205307 0.06740064918994904 0.04826929047703743 -0.006021437235176563 -0.10234156250953674 -0.17792905867099762 -0.1220855638384819 -0.24220222234725952 0.2522912323474884 0.4164533019065857 0.4411892592906952 0.31866300106048584 0.17953871190547943 0.13405241072177887 0.15246501564979553 0.11358311027288437 0.04676291346549988 -0.12733782827854156 -0.09581489861011505 -0.12249119579792023 -0.20236746966838837 0.31051015853881836 0.38374948501586914 0.405176043510437 0.322858601808548 0.2775426208972931 0.20717604458332062 0.19554683566093445 0.15811537206172943 0.10259000957012177 -0.008591905236244202 -0.05459196865558624 -0.06743457913398743 -0.09293068200349808 0.22752338647842407 0.36461907625198364 0.3137612044811249 0.3100328743457794 0.2910911738872528 0.2628941535949707 0.2729972004890442 0.189871147274971 0.11855502426624298 0.0707983747124672 -0.0008850034209899604 0.0015335463685914874 -0.16452054679393768 0.15321338176727295 0.3406965434551239 0.37210243940353394 0.3915114402770996 0.3667210638523102 0.3854352533817291 0.34962040185928345 0.2764214873313904 0.21630646288394928 0.13057841360569 0.06079128384590149 0.0008263700292445719 -0.26677829027175903 0.3334282338619232 0.38620471954345703 0.426278680562973 0.40998709201812744 0.3784250319004059 0.43786829710006714 0.36708205938339233 0.3335247039794922 0.2935703694820404 0.18060478568077087 0.06392524391412735 -0.10686120390892029 -0.29983869194984436 0.26232436299324036 0.3704986572265625 0.3946595788002014 0.48354148864746094 0.40448665618896484 0.42277035117149353 0.3632083535194397 0.29638737440109253 0.20052902400493622 0.1181757003068924 -0.11808539927005768 -0.25838935375213623 -0.319998174905777 0.3275619149208069 0.3840065002441406 0.4520357847213745 0.46381303668022156 0.5008506178855896 0.4734821617603302 0.3553815484046936 0.31510812044143677 0.2448282241821289 0.1257563680410385 -0.06871999800205231 -0.230407252907753 -0.2528943419456482 -0.11446714401245117 -0.2556098401546478 -0.3193691074848175 -0.3666214644908905 -0.22749339044094086 0.03280773386359215 0.12373075634241104 0.10597259551286697 0.13897806406021118 -0.0003732219338417053 0.09948968142271042 0.10870111733675003 0.15292812883853912 -0.4139007329940796 -0.5304266810417175 -0.7252956628799438 -0.6784311532974243 -0.3780575096607208 -0.17949776351451874 -0.03182147815823555 0.02772102877497673 0.03553684800863266 0.06415896862745285 -0.015613065101206303 0.09827367216348648 0.08319034427404404 -0.4762417674064636 -0.8097843527793884 -1.0111443996429443 -0.9900442957878113 -0.48625823855400085 -0.2581091821193695 -0.21617010235786438 -0.08674205094575882 -0.05695855990052223 -0.0325709693133831 0.02169409766793251 -0.005046050995588303 0.05480394884943962 -0.6020222306251526 -0.973297119140625 -1.1826947927474976 -1.0030721426010132 -0.49800407886505127 -0.3102462887763977 -0.18041174113750458 -0.1395849883556366 -0.0579661950469017 -0.048472654074430466 -0.03933519497513771 -0.06466030329465866 0.05506116524338722 -0.6943944692611694 -0.7412099242210388 -1.0184440612792969 -0.9142001271247864 -0.5291341543197632 -0.21469330787658691 -0.09760559350252151 -0.015820691362023354 -0.05032707750797272 -0.04166044667363167 -0.07556475698947906 -0.08343499898910522 0.020072149112820625 -0.5102561712265015 -0.5780715942382812 -0.7571905255317688 -0.8165895938873291 -0.47367051243782043 -0.167384073138237 -0.03333678096532822 -0.009161151945590973 0.012574873864650726 0.011731013655662537 -0.03311047703027725 -0.07058222591876984 -0.03179977461695671 -0.39803048968315125 -0.38477209210395813 -0.5380324721336365 -0.7165440320968628 -0.41065847873687744 -0.14615243673324585 -0.07541684806346893 -0.07270032912492752 -0.008727272972464561 -0.04940630495548248 -0.0305800624191761 -0.006494472734630108 0.08715922385454178 -0.33939290046691895 -0.35029107332229614 -0.5385148525238037 -0.5750810503959656 -0.45505139231681824 -0.24105332791805267 -0.12360046803951263 -0.03681284189224243 -0.09644575417041779 -0.05335010960698128 -0.07958076149225235 -0.02602272480726242 0.024334775283932686 -0.2827034890651703 -0.21964667737483978 -0.46630677580833435 -0.4487817883491516 -0.3405877351760864 -0.2063889354467392 -0.08045591413974762 -0.08032739162445068 -0.031826652586460114 -0.032171569764614105 -0.08214285969734192 -0.01829882524907589 0.03190677985548973 -0.22045192122459412 -0.12203699350357056 -0.2338200956583023 -0.33892983198165894 -0.1603882610797882 -0.12014240771532059 -0.0705094262957573 -0.02054845169186592 -0.010494951158761978 -0.019199874252080917 0.021990900859236717 0.050901878625154495 0.007988529279828072 -0.14457736909389496 -0.20611263811588287 -0.19424934685230255 -0.3294420540332794 -0.20033405721187592 -0.2147883176803589 -0.11244980245828629 -0.13525912165641785 -0.1725386083126068 -0.08983068913221359 -0.022660717368125916 -0.043489377945661545 0.1203722357749939 -0.14402882754802704 -0.2109302133321762 -0.24728205800056458 -0.34051159024238586 -0.3828662037849426 -0.2335766702890396 -0.3045986294746399 -0.2353026270866394 -0.27150434255599976 -0.12464679777622223 -0.06240198388695717 -0.018538760021328926 0.016355158761143684 0.1738886833190918 -0.13425636291503906 -0.18563197553157806 -0.21412983536720276 -0.2682684361934662 -0.479757159948349 -0.4120691120624542 -0.4289381206035614 -0.4457639753818512 -0.3695727586746216 -0.2134070247411728 -0.17514358460903168 0.033358123153448105 0.0518449991941452 0.05896998941898346 0.14141100645065308 0.02097148448228836 -0.13032878935337067 -0.158018559217453 -0.25170621275901794 -0.2411307692527771 -0.1996968537569046 -0.1399925947189331 -0.11318714171648026 -0.04073884338140488 -0.039976391941308975 -0.031777169555425644 -0.1519722044467926 -0.1392090767621994 -0.2779386043548584 -0.25895801186561584 -0.3342559337615967 -0.2777236998081207 -0.19066758453845978 -0.10316199064254761 0.08868130296468735 0.02493644319474697 0.05441676080226898 0.04685954377055168 -0.16659806668758392 -0.18987534940242767 -0.20127950608730316 -0.2692776024341583 -0.39956146478652954 -0.30912140011787415 -0.14680413901805878 -0.10767591744661331 -0.01278538815677166 0.10217568278312683 0.18120317161083221 0.11080117523670197 0.20217940211296082 -0.2564002275466919 -0.15829214453697205 -0.2456033080816269 -0.31831037998199463 -0.2547217905521393 -0.20067979395389557 -0.17685866355895996 -0.09050247818231583 -0.03181318938732147 0.10366380959749222 0.12352937459945679 0.1416512131690979 0.2397001087665558 -0.3492031991481781 -0.2888876795768738 -0.20768041908740997 -0.24312911927700043 -0.21324510872364044 -0.26303544640541077 -0.23631583154201508 -0.19740089774131775 -0.04091165214776993 0.014489411376416683 0.10702066868543625 0.09640581160783768 0.03858470171689987 -0.3689153492450714 -0.47099578380584717 -0.45774802565574646 -0.35755568742752075 -0.30766892433166504 -0.2817470133304596 -0.3226856291294098 -0.20066338777542114 -0.14644455909729004 -0.029574904590845108 0.09805053472518921 0.007481968030333519 0.05276767909526825 -0.49041318893432617 -0.6141951680183411 -0.613982081413269 -0.6083526015281677 -0.3591924011707306 -0.3314676880836487 -0.29449155926704407 -0.21161547303199768 -0.10867635905742645 -0.025820115581154823 0.05596843734383583 -0.019557448104023933 0.05524948239326477 -0.7802520990371704 -0.9137553572654724 -0.8186360597610474 -0.6257006525993347 -0.5146394968032837 -0.39517468214035034 -0.29750311374664307 -0.2536722719669342 -0.10246869176626205 0.0026307639200240374 0.03648099675774574 -0.0019530506106093526 -0.01807786151766777 -0.8679659366607666 -1.0212112665176392 -0.7921112179756165 -0.5717687010765076 -0.4585859477519989 -0.3345271646976471 -0.31304121017456055 -0.31746938824653625 -0.1251092553138733 -0.09510672837495804 -0.03276157006621361 -0.07295380532741547 -0.10350006073713303 -1.0206303596496582 -0.8131937980651855 -0.6065887212753296 -0.4205532968044281 -0.34499719738960266 -0.3054121434688568 -0.27195510268211365 -0.29116305708885193 -0.14838317036628723 -0.06302708387374878 0.03851215913891792 -0.062192242592573166 -0.07917369157075882 -0.6817458868026733 -0.7561478614807129 -0.6382073760032654 -0.4814225137233734 -0.3689388036727905 -0.2834417223930359 -0.29158076643943787 -0.23064467310905457 -0.09329156577587128 -0.03616512939333916 0.03544878214597702 0.028918564319610596 0.1364441215991974 -0.42141732573509216 -0.4966762065887451 -0.4911559224128723 -0.4221861660480499 -0.26277321577072144 -0.27696090936660767 -0.20273752510547638 -0.1520797312259674 -0.016436975449323654 0.07167880982160568 0.19473466277122498 0.17688316106796265 0.3139509856700897 -0.1576157957315445 -0.37108296155929565 -0.4191415309906006 -0.3630647659301758 -0.20041754841804504 -0.13633958995342255 -0.08361230045557022 -0.07126307487487793 0.13972069323062897 0.22475412487983704 0.2925621271133423 0.32265231013298035 0.4365045130252838 0.2682538330554962 0.243289515376091 0.37038764357566833 0.39658671617507935 0.4855790138244629 0.4223840534687042 0.35209783911705017 0.26723313331604004 0.2902226150035858 0.2513917088508606 0.16419658064842224 0.04033071920275688 -0.20732703804969788 0.30539461970329285 0.26399099826812744 0.308188796043396 0.29696857929229736 0.29976290464401245 0.2854529023170471 0.24630491435527802 0.1659989207983017 0.1572166532278061 0.08680768311023712 0.05096809193491936 -0.06663502007722855 -0.271216481924057 0.18260864913463593 0.1746828407049179 0.20179781317710876 0.25763335824012756 0.22153978049755096 0.22628404200077057 0.1389976143836975 0.11300335079431534 0.12967707216739655 0.07068746536970139 0.05273985490202904 -0.10577117651700974 -0.2965901494026184 0.16901330649852753 0.18204393982887268 0.20803506672382355 0.16221952438354492 0.191878542304039 0.16260552406311035 0.10018408298492432 0.11868119239807129 0.09693017601966858 0.07397837936878204 0.003661629743874073 0.03945481404662132 -0.1282457411289215 -0.0010466622188687325 0.06863853335380554 0.08607754856348038 0.13801833987236023 0.15575863420963287 0.10945339500904083 0.05947037413716316 0.10596667230129242 0.06677106767892838 0.03244706615805626 0.03334373980760574 -0.06116107851266861 -0.15950064361095428 0.09813839942216873 0.14187432825565338 0.09081178158521652 0.14184699952602386 0.08376634865999222 0.11824017763137817 0.08109842985868454 0.07973004132509232 0.04143231362104416 -0.04575158655643463 -0.005531018599867821 -0.008946092799305916 -0.11088324338197708 0.07054639607667923 0.09114329516887665 0.14080810546875 0.10231874138116837 0.07556968927383423 0.08236800134181976 0.07797681540250778 -0.008135709911584854 -0.015511217527091503 -0.0959835946559906 -0.016786711290478706 -0.12213747948408127 -0.3327842652797699 -0.013421782292425632 0.06020106375217438 0.09422510862350464 0.06883756816387177 0.0691763162612915 0.11196104437112808 0.1007460281252861 0.02522721327841282 -0.025838756933808327 -0.05849507451057434 -0.049386102706193924 -0.03677152469754219 -0.2504861652851105 0.02261650376021862 0.105850450694561 0.1110878586769104 0.0688474178314209 0.13072212040424347 0.08039229363203049 0.11102768778800964 0.07004261761903763 -0.02707369439303875 0.0009521605097688735 -0.025734467431902885 -0.028887802734971046 -0.14425311982631683 0.07008639723062515 0.1712520867586136 0.1863318681716919 0.14158818125724792 0.118400439620018 0.13006514310836792 0.1548864245414734 0.09971395134925842 0.0673421323299408 -0.053698666393756866 -0.04028071090579033 -0.11640806496143341 -0.2728104889392853 0.1273222267627716 0.21662567555904388 0.1544516533613205 0.19270673394203186 0.1455659717321396 0.1040329858660698 0.11007180064916611 0.07485657185316086 -0.034213874489068985 -0.06397450715303421 0.004909811075776815 -0.17054477334022522 -0.27036383748054504 0.14804251492023468 0.17156343162059784 0.16654324531555176 0.16470395028591156 0.10859925299882889 0.02528536692261696 0.04766353964805603 0.031730830669403076 -0.010382933542132378 -0.11150737851858139 -0.12128446251153946 -0.22907236218452454 -0.2357468158006668 0.10394131392240524 0.10040841996669769 0.1559346616268158 0.14299026131629944 0.14436295628547668 0.10876252502202988 0.06681078672409058 -0.039232637733221054 -0.03889011964201927 -0.07723208516836166 -0.18831905722618103 -0.32254329323768616 -0.20122301578521729 0.024454500526189804 -0.16683408617973328 -0.23164713382720947 