-0.18104228377342224 -0.10520300269126892 -0.020642172545194626 0.08976686745882034 0.15117643773555756 0.10610592365264893 0.053966909646987915 0.11707985401153564 0.2268780767917633 0.148501917719841 0.1143341138958931 0.16033872961997986 0.40922409296035767 0.17811621725559235 0.2823071777820587 0.1153545081615448 0.0996532067656517 0.045458175241947174 0.08451007306575775 0.10229716449975967 0.23535068333148956 0.2864134609699249 0.29546108841896057 0.3772532641887665 0.31469494104385376 0.5367499589920044 0.3962602913379669 0.2892646789550781 0.2596154808998108 0.09680198132991791 0.038565490394830704 0.03605940565466881 0.09023772180080414 0.22770118713378906 0.2646169662475586 0.24913613498210907 0.3505719006061554 0.35891443490982056 0.4415329098701477 0.6672170758247375 0.5387354493141174 0.2621285021305084 0.10715091228485107 -0.053875554352998734 -0.048658598214387894 0.0869082510471344 0.1279750019311905 0.2528391480445862 0.2428487241268158 0.22148577868938446 0.26288822293281555 0.35385894775390625 0.8238291144371033 0.4373386800289154 0.2967473864555359 0.17198728024959564 0.02013464644551277 -0.06069422513246536 -0.03972984105348587 0.16171108186244965 0.1402548998594284 0.12579312920570374 0.05144278705120087 0.1562006026506424 0.1726352572441101 0.7543159127235413 0.36967647075653076 0.2618975043296814 0.09381097555160522 -0.018317850306630135 0.007111834827810526 -0.009321971796452999 0.021924203261733055 0.12677565217018127 0.15048347413539886 0.103736512362957 0.12961368262767792 0.10012049227952957 0.9240431189537048 0.40614187717437744 0.21742750704288483 0.1650935262441635 0.011185250245034695 -0.11167992651462555 -0.04139801487326622 -0.05850837007164955 -0.025818727910518646 -0.02253168821334839 -0.10143435001373291 0.13530854880809784 0.021155305206775665 0.8720076680183411 0.37676331400871277 0.14047454297542572 -0.012231249362230301 -0.1314052939414978 -0.1800210326910019 -0.1420552134513855 -0.1006833165884018 -0.0847802460193634 -0.03769335523247719 -0.02017667330801487 0.08460410684347153 -0.034845247864723206 0.8985424637794495 0.3209395110607147 0.14630256593227386 -0.09159328043460846 -0.1113440990447998 -0.22032307088375092 -0.25877270102500916 -0.1923902928829193 -0.10511960089206696 -0.08356842398643494 -0.06416316330432892 0.049318812787532806 -0.04761804640293121 0.7056933641433716 0.20037499070167542 0.08080480992794037 -0.0009993052808567882 -0.178262859582901 -0.1970432549715042 -0.16620926558971405 -0.19515682756900787 -0.12345605343580246 -0.08764110505580902 -0.053512055426836014 0.12158124893903732 -0.0893288180232048 0.6143455505371094 0.18788810074329376 0.0789046362042427 -0.002344678156077862 -0.18766085803508759 -0.12861569225788116 0.005598511081188917 0.0018665739335119724 -0.07462476938962936 -0.07224996387958527 -0.09036852419376373 0.08060843497514725 -0.17623871564865112 0.4032280445098877 0.18136605620384216 0.20346972346305847 0.09935309737920761 -0.0074161202646791935 -0.01123669371008873 0.009891662746667862 0.12489078938961029 -0.0008983903098851442 -0.03744330629706383 -0.06432835757732391 0.013401105999946594 0.042763687670230865 0.3721217215061188 0.3673402965068817 0.25125640630722046 0.2934318482875824 0.28357255458831787 0.1986057609319687 0.434990793466568 0.4263681173324585 0.26156625151634216 0.25355327129364014 0.1271955370903015 0.10674566775560379 -0.18731115758419037 0.13446834683418274 0.05430028587579727 -0.07375387847423553 -0.07661683112382889 -0.09504827111959457 -0.16177284717559814 -0.20575645565986633 -0.25492623448371887 -0.21172519028186798 -0.08695133030414581 -0.019183872267603874 -0.14860832691192627 -0.12044908106327057 0.16649368405342102 0.04066270589828491 -0.00015913242532406002 0.05195535346865654 0.02581080235540867 -0.014063186012208462 -0.21280893683433533 -0.31912878155708313 -0.3378451466560364 -0.3170842230319977 -0.36048877239227295 -0.37942683696746826 -0.3000677525997162 0.25795599818229675 0.19512978196144104 0.16757503151893616 0.2356211096048355 0.12406938523054123 0.06521108746528625 -0.13208164274692535 -0.25259384512901306 -0.2608081102371216 -0.378233402967453 -0.35226985812187195 -0.3517226576805115 -0.4303395748138428 0.30613064765930176 0.16615036129951477 0.17204591631889343 0.22489573061466217 0.2102763056755066 0.1470699906349182 -0.05236087739467621 -0.0814552903175354 -0.05721883848309517 -0.10227079689502716 -0.25105521082878113 -0.39844462275505066 -0.44218912720680237 0.2344452440738678 0.16411904990673065 0.1913418471813202 0.23930753767490387 0.2938161790370941 0.13077561557292938 0.0767764076590538 0.03096926026046276 0.08618871122598648 -0.024069754406809807 -0.1740550398826599 -0.19334153831005096 -0.23732078075408936 0.08337125927209854 0.14348286390304565 0.18162435293197632 0.21857582032680511 0.23734840750694275 0.24319984018802643 0.12651342153549194 0.15707822144031525 0.15914590656757355 0.19788236916065216 0.09329192340373993 0.02431177720427513 0.02329198829829693 0.05614654719829559 0.09698126465082169 0.15321727097034454 0.15780089795589447 0.185371533036232 0.18667757511138916 0.0837182030081749 0.05498669296503067 0.17459094524383545 0.18716035783290863 0.18913288414478302 0.08357375860214233 0.2371136099100113 0.04173285514116287 0.11957854777574539 0.17514772713184357 0.18453609943389893 0.12676289677619934 0.14880509674549103 0.1225440576672554 0.15789711475372314 0.19744139909744263 0.3258386254310608 0.30260786414146423 0.1891593039035797 0.7706683874130249 -0.06370150297880173 -0.02362385019659996 0.11691861599683762 0.1322430670261383 0.16076676547527313 0.15536406636238098 0.18614985048770905 0.16132032871246338 0.16549937427043915 0.24793915450572968 0.37305304408073425 0.2709072232246399 0.6753882169723511 -0.12301763892173767 -0.10824061185121536 -0.059216927736997604 -0.018693966791033745 -0.06131090223789215 0.07603224366903305 0.16646626591682434 0.28399184346199036 0.24660706520080566 0.38465502858161926 0.3448089063167572 0.3140780031681061 0.5941835045814514 -0.4162054657936096 -0.31500443816185 -0.2686558663845062 -0.15901778638362885 -0.09522583335638046 0.038700979202985764 0.13249856233596802 0.16249768435955048 0.2867623567581177 0.45907750725746155 0.48472243547439575 0.4868791997432709 0.39889898896217346 -0.31378787755966187 -0.4365171790122986 -0.3827782869338989 -0.44582557678222656 -0.339804470539093 -0.3656937777996063 -0.13008473813533783 0.18497245013713837 0.40427955985069275 0.46511587500572205 0.57166588306427 0.5764397978782654 0.49616432189941406 -0.3831195831298828 -0.8861684799194336 -0.8326282501220703 -0.9383560419082642 -0.754669189453125 -0.6556448936462402 -0.46464332938194275 -0.16177920997142792 0.1521090865135193 0.3661964535713196 0.5997008681297302 0.48938819766044617 0.2654549777507782 -0.322073370218277 -0.007684078998863697 0.12475062906742096 -0.012060651555657387 -0.00016145367408171296 0.08601595461368561 -0.044385313987731934 0.12343580275774002 0.017222238704562187 -0.06161779165267944 0.023733975365757942 -0.09787053614854813 -0.17241528630256653 0.3460884392261505 0.12490859627723694 0.09654395282268524 0.1643630713224411 0.12249130010604858 0.0648246482014656 0.11344738304615021 0.03440161794424057 0.01924348808825016 -0.07259759306907654 -0.07772798091173172 -0.09666624665260315 -0.3538679778575897 0.6384575366973877 0.33131101727485657 0.3262218236923218 0.13665996491909027 -0.03839939832687378 0.0469958670437336 0.1203450858592987 0.0059510995633900166 -0.07022766768932343 -0.14058256149291992 -0.23060059547424316 -0.3326544165611267 -0.3067994713783264 0.7947915196418762 0.40657949447631836 0.23666608333587646 0.02196047082543373 -0.027356786653399467 -0.09360554069280624 -0.09580469131469727 -0.02027893252670765 -0.08354492485523224 -0.2873450815677643 -0.40678706765174866 -0.19367974996566772 -0.1935691386461258 0.8851240873336792 0.40447014570236206 0.15044496953487396 0.02027318626642227 -0.12022507935762405 -0.06741990149021149 0.020332563668489456 -0.01881006732583046 -0.09783576428890228 -0.2202071249485016 -0.23077107965946198 -0.11841188371181488 -0.1788998395204544 0.7875496745109558 0.40629053115844727 0.1797216385602951 -0.040959496051073074 -0.12933507561683655 -0.10874322056770325 -0.0009432299993932247 0.0001516725169494748 -0.04272739589214325 -0.07415615022182465 -0.12105859816074371 -0.0245278961956501 -0.04701206833124161 0.6631838083267212 0.43306493759155273 0.13496948778629303 0.018949829041957855 -0.04935280978679657 -0.03233938664197922 0.025422433391213417 0.01930774375796318 0.03441086411476135 -0.04318565875291824 -0.15249289572238922 -0.017577167600393295 0.006910957396030426 0.5195918679237366 0.3877684772014618 0.15627266466617584 0.00041407797834835947 -0.06224320828914642 -0.008790123276412487 0.00027284209500066936 -0.026447124779224396 -0.10853169113397598 -0.056028202176094055 -0.09541931748390198 0.08997803181409836 0.08438385277986526 0.37152716517448425 0.1962250918149948 -0.05379274860024452 -0.108919657766819 -0.1704629510641098 -0.11538145691156387 -0.08060912042856216 -0.08725706487894058 -0.1938536912202835 -0.19013015925884247 -0.137235626578331 -0.01700044423341751 0.08270850032567978 0.2752031981945038 -0.018360786139965057 -0.1493293195962906 -0.2887123227119446 -0.2917148172855377 -0.17416517436504364 -0.056589510291814804 -0.11226768791675568 -0.1779903769493103 -0.1110248789191246 -0.10568858683109283 0.05416947603225708 0.1709033101797104 -0.09313222765922546 -0.11533152312040329 -0.3166371285915375 -0.438838928937912 -0.30295416712760925 -0.048441190272569656 -0.0034353816881775856 -0.02537647821009159 -0.016952387988567352 0.02033883146941662 0.03801138699054718 0.18370050191879272 0.2528362572193146 -0.20111362636089325 -0.22728343307971954 -0.3141871392726898 -0.26740238070487976 -0.14628711342811584 0.08198922872543335 0.18455743789672852 0.1747358739376068 0.1374693065881729 0.20084010064601898 0.22609712183475494 0.3401404619216919 0.34542569518089294 -0.2851293981075287 -0.22377543151378632 -0.2432093620300293 -0.2174275666475296 -0.1171146109700203 -0.0040647778660058975 0.09143012762069702 0.1843930184841156 0.26946139335632324 0.35951462388038635 0.4332400858402252 0.7051082253456116 0.6667400002479553 -0.005703927483409643 0.021669799461960793 -0.02682560682296753 0.01496173907071352 -0.012703057378530502 0.019138537347316742 -0.006585451774299145 -0.0040331617929041386 -0.0018690733704715967 -0.014728575944900513 0.009076285175979137 0.021427461877465248 -0.004139141645282507 -0.0020749024115502834 0.025673704221844673 -0.016453973948955536 0.014929752796888351 -0.009713253937661648 0.005402288865298033 0.019992584362626076 0.014189839363098145 0.004894332028925419 0.0012804699363186955 0.012491949833929539 0.01419475395232439 -0.022633090615272522 0.009284872561693192 0.023850755766034126 -0.014563769102096558 -0.019512386992573738 -0.02075817622244358 -0.017338449135422707 -0.012467063963413239 0.02704167738556862 -0.020953303202986717 -0.014765704050660133 -0.023393841460347176 0.002515181200578809 -0.0018465766916051507 -0.0005655588465742767 -0.01379088032990694 -0.01764945313334465 0.004772848449647427 -0.0029755448922514915 -0.02031175047159195 -0.012255321256816387 0.02462741546332836 -0.00885180477052927 0.0007427085074596107 0.0003285217098891735 0.00467717507854104 0.014542751014232635 -0.025579463690519333 0.018970264121890068 -0.019301103428006172 -0.014221662655472755 -0.0033592109102755785 0.0014022969407960773 0.008559723384678364 -0.02698860876262188 0.008902539499104023 0.00039452043711207807 0.016144292429089546 -0.019614271819591522 -0.013940971344709396 0.012331140227615833 -0.025405092164874077 0.021242894232273102 0.025244470685720444 -0.01906384341418743 -0.023108085617423058 0.018421359360218048 0.018781717866659164 -0.010308490134775639 0.002829956589266658 0.005654051434248686 -0.011231467127799988 -0.026721166446805 -0.01548001915216446 -0.02613799460232258 -0.024243460968136787 -0.023489508777856827 -0.014910517260432243 -0.026174698024988174 0.009985003620386124 -0.014810260385274887 -0.02029174566268921 -0.019184492528438568 -0.02077365294098854 0.0015232551377266645 -0.019562868401408195 0.016765782609581947 -0.01938796602189541 -0.015621509402990341 -0.009033376350998878 -0.01562708243727684 -0.009214763529598713 -0.003990778233855963 0.008691072463989258 -0.0019188779406249523 0.01582230255007744 -0.01776745729148388 0.02173198200762272 -0.024684183299541473 -0.015649015083909035 0.00858986470848322 0.02272743545472622 0.01370870042592287 0.02287447266280651 0.021533580496907234 0.020875055342912674 0.004373847506940365 0.026281684637069702 -0.0010164458071812987 -0.02074986882507801 0.0072103627026081085 0.017609255388379097 -0.012213596142828465 0.012906787917017937 0.009341608732938766 -0.009703200310468674 0.006549824494868517 0.022308191284537315 0.026350852102041245 -0.015204316936433315 -0.019590983167290688 0.0021285617258399725 -0.009246863424777985 0.012392519041895866 -0.004257590509951115 -0.013237543404102325 -0.01156176533550024 0.014711915515363216 0.010412742383778095 -0.01751049794256687 0.015962382778525352 -0.004036585334688425 -0.002037829253822565 -0.02595582604408264 -0.004631688818335533 0.005944903939962387 -0.014013084582984447 0.00300716795027256 -0.005852654110640287 -0.019867992028594017 0.016094470396637917 -0.016358809545636177 -0.02646488882601261 0.0160803385078907 -0.004509031772613525 -0.0035507746506482363 0.0002721292257774621 0.003433473641052842 0.01920366659760475 0.014823626726865768 -0.01020875759422779 0.020693570375442505 0.022404145449399948 0.0073332758620381355 0.002587842522189021 0.014629906974732876 0.001779576065018773 0.010813431814312935 -0.00476883165538311 -0.02405957691371441 0.019385896623134613 -0.017933102324604988 0.019810931757092476 -0.01809227652847767 -0.04211970791220665 -0.061843834817409515 -0.0480513870716095 -0.07283051311969757 -0.06763166189193726 -0.12056255340576172 -0.22440123558044434 -0.24002337455749512 -0.12430551648139954 -0.2018686830997467 -0.15338432788848877 -0.1389731764793396 -0.18957045674324036 -0.06493834406137466 -0.09174511581659317 -0.052128247916698456 -0.10985498130321503 -0.1022728756070137 -0.06101397052407265 -0.19587208330631256 -0.30230507254600525 -0.19464674592018127 -0.18075239658355713 -0.15899819135665894 -0.27798160910606384 -0.2577354609966278 -0.11623707413673401 -0.09416899085044861 -0.16217319667339325 -0.07601726800203323 -0.060990236699581146 -0.1782870590686798 -0.2434840053319931 -0.24375763535499573 -0.2088540643453598 -0.11225246638059616 -0.1889161467552185 -0.17298685014247894 -0.33381202816963196 -0.17418324947357178 -0.13248495757579803 -0.08061784505844116 -0.05865192040801048 -0.050259966403245926 -0.03826948627829552 -0.1364152878522873 -0.20121967792510986 -0.18927043676376343 -0.11353637278079987 -0.19280295073986053 -0.2621406018733978 -0.39410096406936646 -0.27225595712661743 -0.27122217416763306 -0.20834827423095703 -0.08150523155927658 -0.10947082191705704 -0.10369238257408142 -0.24908176064491272 -0.2339600771665573 -0.15644852817058563 -0.09844043105840683 -0.12100862711668015 -0.32685965299606323 -0.257297158241272 -0.4015464782714844 -0.4031144678592682 -0.2346261590719223 -0.07842476665973663 -0.07942947745323181 -0.3035458028316498 -0.2664848268032074 -0.25947287678718567 -0.1430748850107193 -0.12349838018417358 -0.159356951713562 -0.22361253201961517 -0.2827167809009552 -0.4526252746582031 -0.45652100443840027 -0.2726689279079437 -0.2342778444290161 -0.21390892565250397 -0.2711699604988098 -0.3036953806877136 -0.19385768473148346 -0.18615329265594482 -0.11780552566051483 -0.039499204605817795 -0.15936292707920074 -0.2216247022151947 -0.44274723529815674 -0.4141046404838562 -0.33971789479255676 -0.18181732296943665 -0.13551728427410126 -0.03599787876009941 -0.03476450964808464 -0.11187350749969482 -0.016984207555651665 0.08463489264249802 -0.02947339601814747 -0.130530446767807 -0.12202569842338562 -0.35829126834869385 -0.3435186743736267 -0.20904742181301117 0.011585601605474949 0.060600873082876205 0.0682608038187027 0.09539969265460968 0.1711808145046234 0.07246578484773636 0.05697530135512352 0.04249390959739685 -0.062202777713537216 -0.08017117530107498 -0.22627495229244232 -0.23405063152313232 -0.16232724487781525 0.0015932549722492695 0.10060828179121017 0.047146353870630264 0.07660667598247528 0.1246270015835762 0.05561216175556183 0.06627721339464188 -0.011244031600654125 -0.09572277963161469 -0.10255617648363113 -0.1399126946926117 -0.22732532024383545 -0.16000980138778687 0.010893580503761768 0.06532540917396545 0.006498535163700581 0.03871956095099449 0.06287679076194763 -0.02011365257203579 -0.017304658889770508 -0.13626404106616974 -0.08126002550125122 -0.17909649014472961 -0.04160171374678612 -0.03923607990145683 -0.19613873958587646 0.03200625628232956 -0.008206329308450222 -0.05190606787800789 -0.095722496509552 -0.1532379388809204 -0.12067097425460815 -0.10778031498193741 -0.19292321801185608 -0.18555153906345367 -0.035982273519039154 -0.07564172148704529 -0.11229006946086884 -0.10811024904251099 -0.08044824749231339 -0.15546166896820068 -0.08429847657680511 -0.18688485026359558 -0.13925445079803467 -0.1483047753572464 -0.07443386316299438 -0.17895616590976715 -0.12584395706653595 -0.15611974895000458 -0.5649043917655945 -0.41216444969177246 -0.32240626215934753 -0.4259846806526184 -0.05806294083595276 -0.04573661461472511 -0.11847903579473495 -0.06903986632823944 -0.14580732583999634 -0.1715572327375412 -0.2679024636745453 -0.1802324652671814 -0.2137879729270935 -0.8843047618865967 -0.6278783679008484 -0.37696710228919983 -0.3790193796157837 -0.14988365769386292 -0.16989491879940033 -0.08251121640205383 -0.03862646222114563 -0.12420927733182907 -0.09367047995328903 -0.04339825361967087 -0.1112009584903717 -0.08382558822631836 -0.8447705507278442 -0.5159919261932373 -0.42953893542289734 -0.3868499994277954 -0.18265071511268616 -0.1165941134095192 -0.0023876535706222057 -0.07608897984027863 -0.09864328801631927 -0.06596841663122177 -0.051707975566387177 -0.1680261492729187 0.08827175199985504 -0.9131004214286804 -0.5933294296264648 -0.46551400423049927 -0.4048512279987335 -0.2284097820520401 -0.215703085064888 -0.08988731354475021 -0.11350781470537186 -0.15709733963012695 -0.11042352765798569 -0.05456101521849632 -0.17827196419239044 0.09703800827264786 -0.8223130106925964 -0.6979455351829529 -0.4466075897216797 -0.3493296504020691 -0.332371324300766 -0.2806412875652313 -0.1442602574825287 -0.1263061910867691 -0.1362437754869461 -0.17746564745903015 -0.1124720498919487 -0.25960996747016907 -0.02485205978155136 -0.7772990465164185 -0.4909849762916565 -0.4248768389225006 -0.4429188072681427 -0.3306101858615875 -0.20590883493423462 -0.19514743983745575 -0.2212979644536972 -0.1739284098148346 -0.156536266207695 -0.13771381974220276 -0.24415963888168335 -0.2106470763683319 -0.4670581519603729 -0.4822491705417633 -0.3088076710700989 -0.35017237067222595 -0.2137366682291031 -0.07130853831768036 -0.13047194480895996 -0.14268673956394196 -0.19807252287864685 0.016822397708892822 -0.04077479988336563 -0.19941754639148712 -0.20448796451091766 -0.3198639750480652 -0.2185530811548233 -0.17168106138706207 -0.08293778449296951 -0.04835934191942215 0.0600622296333313 0.03835224360227585 -0.07847218215465546 -0.07887064665555954 -0.07719547301530838 -0.13831888139247894 -0.28243589401245117 -0.2203250378370285 -0.2420620620250702 -0.27657437324523926 -0.12255609780550003 -0.0620926097035408 -0.012933146208524704 0.020188167691230774 0.006989265326410532 -0.03220544010400772 -0.17677901685237885 -0.1478799432516098 -0.08598482608795166 -0.23216789960861206 -0.31738704442977905 -0.1161656603217125 -0.2749631106853485 -0.22036896646022797 -0.051482804119586945 0.010845285840332508 0.015443488024175167 9.174796286970377e-05 -0.07071476429700851 -0.12985841929912567 -0.1436384916305542 -0.17975853383541107 -0.34965866804122925 -0.3745194971561432 -0.04357236996293068 -0.31786012649536133 -0.24225246906280518 -0.13931572437286377 -0.00530999107286334 0.07011113315820694 0.05926716700196266 0.061398155987262726 -0.020668109878897667 -0.009159491397440434 -0.13519833981990814 -0.18128900229930878 -0.3736022710800171 -0.05510091409087181 -0.24948087334632874 -0.24302871525287628 -0.17438997328281403 -0.05556218698620796 0.023507555946707726 0.11959955096244812 0.1612667590379715 0.13418817520141602 0.009006970562040806 -0.07394301146268845 -0.09946836531162262 -0.32293128967285156 -0.08204656839370728 -0.1549965888261795 -0.08537036925554276 -0.05860428512096405 0.06644527614116669 0.16723622381687164 0.10325731337070465 0.17294545471668243 0.19244222342967987 0.1301908940076828 0.02941811829805374 -0.125143900513649 -0.21918350458145142 -0.08773069083690643 -0.0033292053267359734 -0.026857350021600723 0.058765072375535965 -0.08380945771932602 0.003026306629180908 0.027032407000660896 -0.06347139924764633 -0.005615856032818556 0.02614908292889595 -0.008722362108528614 0.0401095449924469 0.06533645838499069 0.1254429668188095 -0.0045311059802770615 -0.14111214876174927 -0.18042446672916412 -0.1968270242214203 -0.1662788987159729 -0.127187117934227 -0.026704179123044014 -0.018590815365314484 0.047221314162015915 0.02336110733449459 0.14365118741989136 0.18086659908294678 -0.01033705659210682 -0.2898021638393402 -0.25277307629585266 -0.3936346471309662 -0.2763427197933197 -0.21752817928791046 -0.15405058860778809 -0.07830056548118591 0.0020668338984251022 0.10886425524950027 0.11111387610435486 0.15974019467830658 0.13822586834430695 0.043688926845788956 -0.32713720202445984 -0.3700648546218872 -0.3607918918132782 -0.30583229660987854 -0.1561412811279297 -0.034332748502492905 0.07334887981414795 0.12755274772644043 0.1531674563884735 0.18405649065971375 0.17874902486801147 0.03345569968223572 0.06649883836507797 -0.47759512066841125 -0.45480918884277344 -0.4005471467971802 -0.20032481849193573 -0.11332160234451294 0.045104242861270905 0.09414064139127731 0.1095414087176323 0.08469118177890778 0.130203977227211 0.06071177497506142 -0.08263269811868668 -0.015046355314552784 -0.3982958495616913 -0.23351101577281952 -0.09245731681585312 -0.10516966134309769 -0.1113092303276062 -0.08322072774171829 0.010983153246343136 0.11194834858179092 0.10734599083662033 0.06607858091592789 0.06624788790941238 -0.08330368995666504 0.3190905451774597 -0.09873909503221512 -0.023678317666053772 -0.021759137511253357 0.004462965298444033 -0.08112552016973495 -0.07232101261615753 -0.025568656623363495 0.007738756015896797 -0.02653481625020504 -0.011457573622465134 0.007138787768781185 -0.2929016351699829 0.3799336850643158 -0.027532506734132767 0.029479950666427612 0.024381468072533607 0.061313778162002563 0.012505934573709965 -0.014856193214654922 -0.025690952315926552 0.023187540471553802 0.017296653240919113 -0.04761388897895813 -0.20105645060539246 -0.3581143915653229 0.293605238199234 -0.07308024913072586 0.006984428036957979 0.09260242432355881 0.05367431417107582 -0.01090548187494278 -0.02344343438744545 -0.030646556988358498 0.03604572266340256 -0.04412558674812317 -0.1262567788362503 -0.24359792470932007 -0.4723915159702301 0.23923340439796448 -0.03787714242935181 -0.07035664469003677 0.06334229558706284 -0.008830204606056213 -0.06667812168598175 -0.05747891962528229 -0.05831119418144226 -0.0949506163597107 -0.06023777276277542 -0.09207113087177277 -0.3637281358242035 -0.6095981597900391 0.2308066487312317 -0.01695648580789566 0.020866625010967255 0.008214923553168774 0.05576915293931961 0.04929704964160919 -0.004512394312769175 -0.03611496090888977 -0.027523836120963097 -0.1892678439617157 -0.275120347738266 -0.5532259941101074 -1.0257211923599243 0.15435336530208588 0.013459514826536179 0.1718692183494568 0.35663339495658875 0.2777537405490875 0.13155314326286316 0.036457885056734085 0.0003590933629311621 -0.006693929899483919 -0.14982490241527557 -0.4569353759288788 -0.9090487360954285 -1.0898536443710327 0.23528292775154114 0.5711292624473572 0.5224681496620178 0.6130865216255188 0.6830518245697021 0.4111337661743164 0.3459671139717102 0.272928386926651 0.1421576291322708 -0.04815920814871788 -0.5138924717903137 -0.7946068048477173 -1.0676060914993286 -0.14137984812259674 -0.14819501340389252 -0.18594537675380707 -0.23333974182605743 -0.24725914001464844 -0.2758525013923645 -0.26815181970596313 -0.3293646275997162 -0.21061019599437714 -0.11043427139520645 -0.07256019860506058 -0.26192334294319153 -0.02183111198246479 -0.009301239624619484 -0.17067649960517883 -0.1615096479654312 -0.09776031225919724 -0.24661338329315186 -0.1648830771446228 -0.20485955476760864 -0.13651347160339355 -0.036928530782461166 0.16586218774318695 0.20534706115722656 0.29290613532066345 0.46608540415763855 -0.0018354711355641484 -0.05592009797692299 -0.017339395359158516 -0.09062949568033218 -0.16361205279827118 -0.19024501740932465 -0.12413753569126129 -0.04035590961575508 0.09176456183195114 0.25757020711898804 0.41705748438835144 0.6119484901428223 0.8291872143745422 0.0990893617272377 0.07796463370323181 0.022504951804876328 0.05447404459118843 -0.08580493927001953 -0.0886293351650238 -0.016885748133063316 0.10344814509153366 0.21791473031044006 0.4485783576965332 0.5077019333839417 0.5025458931922913 0.8083114624023438 0.11944136768579483 0.12418606877326965 0.19282858073711395 0.11600851267576218 0.05638301372528076 0.0026352275162935257 0.10727295279502869 0.2117333561182022 0.3881166875362396 0.44153904914855957 0.503233790397644 0.49860554933547974 0.7873963117599487 0.13998794555664062 0.18279223144054413 0.23191623389720917 0.2289072871208191 0.24288663268089294 0.13643856346607208 0.2336743175983429 0.3244355022907257 0.44051826000213623 0.5027954578399658 0.542479395866394 0.5699958801269531 0.7341930270195007 0.10815457999706268 0.26598453521728516 0.32376009225845337 0.33833634853363037 0.34913408756256104 0.27693819999694824 0.27869996428489685 0.390491783618927 0.5063160061836243 0.5184740424156189 0.48689886927604675 0.5103429555892944 0.6602054834365845 0.10230187326669693 0.3487049639225006 0.4025120139122009 0.4197893440723419 0.3999687433242798 0.39667758345603943 0.3871461749076843 0.4456776976585388 0.4795122742652893 0.48044610023498535 0.38150545954704285 0.39835724234580994 0.3754956126213074 0.16355662047863007 0.36313870549201965 0.36186569929122925 0.3723199665546417 0.36866453289985657 0.29383715987205505 0.2997274398803711 0.20262230932712555 0.13226167857646942 0.1746736466884613 0.08921291679143906 0.08568020164966583 0.22196848690509796 0.23039545118808746 0.32853391766548157 0.3282334506511688 0.25153684616088867 0.16723720729351044 -0.007498045917600393 -0.09599599242210388 -0.2150081992149353 -0.1903863251209259 -0.2345488965511322 -0.1586015373468399 -0.09621676802635193 -0.018116185441613197 0.16787835955619812 0.31691303849220276 0.28904199600219727 0.1558624505996704 0.032114241272211075 -0.1659553050994873 -0.32154378294944763 -0.44241568446159363 -0.47444888949394226 -0.4844816327095032 -0.43378308415412903 -0.16967719793319702 -0.2515879273414612 0.20259487628936768 0.22195014357566833 0.17919041216373444 -0.0026494490448385477 -0.21828912198543549 -0.4327681362628937 -0.5167972445487976 -0.7634001970291138 -0.8465695977210999 -0.7578966617584229 -0.6106115579605103 -0.5007286071777344 -0.41218113899230957 0.07855433970689774 0.12962791323661804 0.0877063050866127 -0.12386074662208557 -0.3396257162094116 -0.6236424446105957 -0.7789266705513 -1.2209930419921875 -1.5318245887756348 -1.4806119203567505 -1.376544713973999 -0.9714733362197876 -1.05516517162323 -0.2854432165622711 -0.05614582076668739 0.0015331665053963661 0.14493611454963684 0.3634030520915985 0.023580875247716904 -0.11833488941192627 -0.17241151630878448 -0.14434689283370972 -0.1893303394317627 -0.21598580479621887 -0.28607240319252014 -0.15864449739456177 -0.40902021527290344 -0.04081873595714569 0.10591933876276016 0.4042207598686218 0.3398161828517914 0.0017573818331584334 -0.1023271381855011 0.00322576891630888 -0.018253933638334274 -0.06043664366006851 -0.24589934945106506 -0.38349613547325134 -0.2027127742767334 -0.7365939021110535 -0.2666832506656647 0.13902486860752106 0.3788195848464966 0.44975197315216064 0.12977585196495056 3.959890455007553e-05 0.13936364650726318 0.08947646617889404 -0.03766881674528122 -0.20161765813827515 -0.2691963315010071 -0.25775542855262756 -0.5798962116241455 -0.2032725065946579 -0.023671923205256462 0.32672080397605896 0.309649258852005 0.06578042358160019 0.00585429510101676 0.15355074405670166 0.11252402514219284 0.01303583662956953 -0.20972879230976105 -0.16521143913269043 -0.15222318470478058 -0.7368044257164001 -0.32602837681770325 0.031696077436208725 0.289550244808197 0.25918665528297424 -0.023099791258573532 0.020755015313625336 0.0914979800581932 0.051515597850084305 0.06890549510717392 -0.16368930041790009 -0.2960452735424042 -0.4169100821018219 -0.8797793388366699 -0.30584654211997986 0.1625426560640335 0.32243993878364563 0.16145355999469757 -0.08106987923383713 0.08905047178268433 0.10559701174497604 -0.03219400346279144 -0.026429805904626846 -0.15095360577106476 -0.42302629351615906 -0.6991793513298035 -0.5534213185310364 -0.4325599670410156 -0.12935292720794678 0.12489601969718933 0.19442118704319 -0.0070285736583173275 0.06109453737735748 0.1255638152360916 0.0334797166287899 0.07666383683681488 -0.05751243978738785 -0.35293513536453247 -0.6837202906608582 -0.535554826259613 -0.36107784509658813 -0.2785378098487854 0.011128902435302734 0.14880011975765228 0.0014370768330991268 0.10496827214956284 0.16313569247722626 0.10477179288864136 0.07869450002908707 -0.07730758190155029 -0.3205215334892273 -0.7650316953659058 -0.4837290048599243 -0.3419441282749176 -0.26000285148620605 -0.1541125625371933 -0.01837093196809292 -0.025525586679577827 0.02481169067323208 0.03634646162390709 0.09925373643636703 0.03990289568901062 -0.1094391942024231 -0.38826411962509155 -0.6658750176429749 -0.12180978804826736 -0.22253882884979248 -0.28250905871391296 -0.0954180583357811 -0.09437454491853714 -0.02805570513010025 0.1332385390996933 -0.04908624291419983 0.023517217487096786 0.03925057873129845 -0.16250987350940704 -0.37995871901512146 -0.3327822685241699 0.07890541106462479 -0.10186273604631424 -0.13390706479549408 -0.08363250643014908 -0.12240902334451675 -0.021338358521461487 0.04072752594947815 -0.04306446388363838 -0.10074474662542343 -0.21168215572834015 -0.19617988169193268 -0.3043820858001709 -0.2518540918827057 0.09704708307981491 -0.13672998547554016 -0.23719993233680725 -0.1992710679769516 -0.13941818475723267 -0.07633350044488907 0.06402233988046646 -0.004903516266494989 -0.06451141834259033 -0.11684134602546692 -0.040875229984521866 -0.04440660774707794 -0.24831247329711914 0.1338011473417282 -0.16196711361408234 -0.1600559502840042 -0.20659972727298737 -0.11244768649339676 -0.1512504369020462 -0.07181394845247269 -0.07142782211303711 -0.1321427822113037 -0.12399273365736008 -0.06522918492555618 0.13685740530490875 0.029034532606601715 0.002690621418878436 -0.07844168692827225 -0.08508799225091934 -0.12504549324512482 0.005408735945820808 0.07814135402441025 0.2392548769712448 0.26644450426101685 0.2702930271625519 0.35454025864601135 0.40864700078964233 0.21702975034713745 0.27968278527259827 -0.0625789612531662 -0.07433722168207169 -0.30655190348625183 -0.2402103841304779 -0.08886654675006866 0.07344583421945572 0.1078421100974083 0.18646252155303955 0.3097188174724579 0.3989027142524719 0.5327795147895813 0.2763928771018982 0.22661787271499634 -0.05287765711545944 -0.07360224425792694 -0.15852034091949463 -0.2647707164287567 -0.10278040170669556 0.07049576193094254 -0.005209554452449083 0.05692964047193527 0.16757377982139587 0.4419550895690918 0.4915090501308441 0.3882262110710144 0.20026499032974243 -0.10663300007581711 -0.05061855539679527 -0.2992829978466034 -0.19995637238025665 -0.07227171957492828 0.13244253396987915 0.032683540135622025 0.12017310410737991 0.21434037387371063 0.38085252046585083 0.35007745027542114 0.30600854754447937 0.1540846973657608 -0.08162791281938553 -0.12866796553134918 -0.22415262460708618 -0.23040981590747833 -0.07251765578985214 0.0019921581260859966 0.07292286306619644 0.02535570226609707 0.27497410774230957 0.31664174795150757 0.462263286113739 0.4282931387424469 0.12761832773685455 -0.12352629750967026 -0.06578002870082855 -0.179121732711792 -0.29398947954177856 -0.09877600520849228 -0.06956128776073456 -0.06321652233600616 -0.08992454409599304 0.148336723446846 0.27407997846603394 0.4102579355239868 0.35549208521842957 0.12363283336162567 0.19290074706077576 0.03657824173569679 -0.08916763216257095 -0.1862022876739502 -0.08501658588647842 -0.10666017979383469 -0.0875590518116951 -0.17624567449092865 0.042193394154310226 -0.07612142711877823 0.12630973756313324 0.15750658512115479 0.010006695054471493 0.18580318987369537 0.16773012280464172 0.12393815815448761 -0.013957778923213482 0.11973395943641663 0.0036817060317844152 -0.04158315062522888 -0.13446423411369324 -0.03253212198615074 -0.36056506633758545 -0.4620964825153351 -0.1523430496454239 -0.0061269113793969154 0.2503911852836609 0.2303840070962906 0.2104208916425705 0.19756898283958435 0.17527571320533752 0.07013647258281708 0.03847311809659004 0.03577715530991554 -0.0059761120937764645 -0.46626612544059753 -0.28067418932914734 0.010508081875741482 -0.06450806558132172 0.18890191614627838 0.32733163237571716 0.3706422448158264 0.30249691009521484 0.3131788969039917 0.15960049629211426 0.16243794560432434 0.12318344414234161 -0.036334291100502014 -0.5470864176750183 -0.460496723651886 0.05599582567811012 0.07861774414777756 0.2861722707748413 0.3606601059436798 0.3374347686767578 0.3724004924297333 0.3025887906551361 0.31363505125045776 0.28564783930778503 0.3343135118484497 -0.11773619800806046 -0.4460527002811432 -0.3575790524482727 -0.1534734070301056 -0.014236576855182648 0.2520994246006012 0.33315184712409973 0.38050132989883423 0.46966734528541565 0.5614134669303894 0.34914714097976685 0.22430838644504547 0.07805094867944717 -0.2744112014770508 -0.6357614994049072 -0.33002766966819763 -0.304595947265625 0.03288578242063522 0.22453221678733826 0.39930737018585205 0.3761652708053589 0.466982364654541 0.30523887276649475 0.20924913883209229 0.275947242975235 -0.09735536575317383 -0.3322778046131134 -0.732666015625 -0.4804007112979889 -0.22494104504585266 0.07087913155555725 -0.17670011520385742 -0.20482532680034637 -0.3426700532436371 -0.3713245391845703 -0.42828527092933655 -0.3250381648540497 -0.2331998497247696 -0.34950390458106995 -0.30872026085853577 -0.18454329669475555 -0.1972762942314148 -0.13629528880119324 -0.07463669776916504 -0.5235471129417419 -0.4653714597225189 -0.5374840497970581 -0.663143515586853 -0.6320547461509705 -0.4038369357585907 -0.41160914301872253 -0.2906090319156647 -0.35811659693717957 -0.21094028651714325 -0.13401392102241516 -0.11812296509742737 -0.19764508306980133 -0.7195942401885986 -0.5892364382743835 -0.45230966806411743 -0.4711895287036896 -0.5239694118499756 -0.5437382459640503 -0.38979336619377136 -0.4310404062271118 -0.4021465480327606 -0.3425263464450836 -0.3028966188430786 -0.11074357479810715 -0.032445602118968964 -0.5187407732009888 -0.28732526302337646 -0.474967896938324 -0.5602800846099854 -0.44382622838020325 -0.580491840839386 -0.5843459367752075 -0.5029944181442261 -0.5759912133216858 -0.525801956653595 -0.44262829422950745 -0.1525096595287323 -0.19617930054664612 -0.6467877626419067 -0.3289736211299896 -0.4918227791786194 -0.3563402593135834 -0.3933544456958771 -0.6362603306770325 -0.4560090899467468 -0.5661520957946777 -0.6099662780761719 -0.7108127474784851 -0.5108574628829956 -0.24558846652507782 -0.1695566326379776 -0.5517394542694092 -0.47138848900794983 -0.19917795062065125 -0.33955857157707214 -0.46345430612564087 -0.5334581136703491 -0.4865565001964569 -0.5596153140068054 -0.6993076801300049 -0.6731697916984558 -0.506202220916748 -0.1738063097000122 -0.41028082370758057 -0.5454479455947876 0.014156205579638481 -0.3599567115306854 -0.46712377667427063 -0.621281087398529 -0.5545592308044434 -0.47228050231933594 -0.5331504344940186 -0.6630629301071167 -0.6830453872680664 -0.5332477688789368 -0.2685249149799347 -0.4313713014125824 -0.06882535666227341 -0.15591156482696533 -0.23393218219280243 -0.5306625366210938 -0.5533877015113831 -0.5698409080505371 -0.5238487124443054 -0.5331324338912964 -0.5933555960655212 -0.5830469727516174 -0.4946977198123932 -0.4115842878818512 -0.3960980474948883 0.03928423672914505 -0.06792698055505753 -0.20418237149715424 -0.5404630899429321 -0.5564425587654114 -0.5921599864959717 -0.46171072125434875 -0.4715949594974518 -0.6274571418762207 -0.6704548597335815 -0.6847260594367981 -0.4199623167514801 -0.37810012698173523 0.20820337533950806 0.02251621149480343 -0.253796249628067 -0.4596315026283264 -0.6136460900306702 -0.5507793426513672 -0.498124361038208 -0.5407225489616394 -0.5758183598518372 -0.706392228603363 -0.6890704035758972 -0.35210612416267395 -0.27082768082618713 0.17402631044387817 -0.019615095108747482 -0.1409839540719986 -0.3953362703323364 -0.49145621061325073 -0.595230758190155 -0.40280333161354065 -0.6052738428115845 -0.6874139308929443 -0.667352557182312 -0.9279338717460632 -0.2286050021648407 -0.013257110491394997 0.34014883637428284 0.10254331678152084 -0.05345980077981949 -0.26475781202316284 -0.5631325840950012 -0.5210144519805908 -0.4671344459056854 -0.6439289450645447 -0.7992753386497498 -0.8847346305847168 -0.8499141931533813 -0.24395683407783508 -0.16293513774871826 0.22439789772033691 0.16847513616085052 -0.06999101489782333 -0.11492081731557846 -0.21827468276023865 -0.31524965167045593 -0.35991159081459045 -0.6142343878746033 -0.7978470921516418 -1.0916941165924072 -0.7659627199172974 -0.7477094531059265 -0.2775019109249115 0.019894884899258614 -0.021579841151833534 -0.019047986716032028 -0.010431600734591484 -0.0066759828478097916 0.018245652318000793 0.023824647068977356 -0.020568618550896645 0.02646755240857601 0.01376985851675272 -0.016584765166044235 -0.023388609290122986 0.016479456797242165 0.024678394198417664 -0.021860672160983086 -0.010094238445162773 0.011343860067427158 0.005565384402871132 0.018408983945846558 -0.025031669065356255 0.02274014800786972 -0.009732495062053204 -0.0041047073900699615 -0.0006168385734781623 0.024319570511579514 0.010848683305084705 0.010661388747394085 0.008819296024739742 -0.009262165986001492 -0.01956954412162304 0.017560746520757675 0.011248336173593998 0.018108954653143883 0.0063467868603765965 -0.0211053267121315 0.009627627208828926 -0.01995517499744892 0.005018924362957478 -0.02131275087594986 -0.012128164060413837 -0.008230420760810375 -0.021736521273851395 -0.020024357363581657 -0.026516569778323174 -0.013943435624241829 0.0070521957240998745 -0.017157765105366707 0.0024521686136722565 -0.02483982965350151 0.0030778611544519663 0.015234662219882011 0.015780849382281303 0.01241503469645977 -0.020826172083616257 -0.011294739320874214 0.0039203898049890995 0.01945125311613083 -0.003983415197581053 0.007095567882061005 -6.9801667450519744e-06 0.007327988278120756 0.015608735382556915 -0.02108738198876381 0.005317347124218941 0.0063670044764876366 0.005165955517441034 0.004126811865717173 -0.004198640119284391 -0.022011788561940193 -0.025077370926737785 -0.02488105185329914 -0.0073714773170650005 -0.014878618530929089 -0.011408270336687565 -0.004466956481337547 -0.013133862987160683 -0.023395763710141182 0.0205741748213768 0.024828681722283363 0.014102760702371597 -0.0028213458135724068 -0.002040883293375373 0.007999967783689499 -0.007712319027632475 -0.00982027780264616 -0.001971133518964052 0.012131311930716038 -0.017909318208694458 -0.000912294490262866 -0.022541742771863937 0.02530699409544468 -0.005088168662041426 -0.01323035266250372 0.007938352413475513 0.004650285467505455 -0.023989317938685417 0.00911790318787098 0.005522673483937979 0.003653470426797867 0.017635464668273926 -0.024593377485871315 -0.02554897591471672 0.010069589130580425 -0.0003890056977979839 -0.004486901685595512 -0.024800723418593407 -0.009905744343996048 0.015034526586532593 0.0048565976321697235 -0.012803307734429836 -0.007711427286267281 0.026515798643231392 -0.025261709466576576 -0.023662742227315903 0.0018891223007813096 -0.016613418236374855 -0.004652859643101692 -0.019737157970666885 -0.014814150519669056 0.0009211582946591079 0.001952806138433516 -0.023271044716238976 0.02541336603462696 0.008927464485168457 -0.019383462145924568 -0.013720848597586155 -0.02699187956750393 0.02056521736085415 0.01287019532173872 -0.008012443780899048 -0.009155326522886753 0.012227841652929783 0.0008080491097643971 0.0026912707835435867 -0.02473878301680088 -0.008700448088347912 -0.005056960508227348 0.00702166510745883 -0.026193076744675636 -0.005340641364455223 0.00036316641489975154 0.013918156735599041 -0.007803540676832199 -0.026159627363085747 -0.017257582396268845 0.024823132902383804 0.0015320152742788196 0.00032308476511389017 0.003989698365330696 0.015731599181890488 0.006825432647019625 -0.023536602035164833 -0.021112484857439995 0.004015534650534391 -0.00637127086520195 0.024774545803666115 0.00011045716382795945 -0.02478906512260437 0.01405995525419712 0.013706284575164318 0.003396770218387246 0.0026357602328062057 -0.024993814527988434 -0.005706388503313065 -0.010813613422214985 0.0003564618236850947 -0.022814925760030746 0.01456733513623476 0.002697894349694252 0.40939536690711975 0.3766891360282898 0.3074307441711426 0.3166519105434418 0.34581464529037476 0.34847915172576904 0.4613736867904663 0.5595895648002625 0.49559134244918823 0.42814019322395325 0.456175833940506 0.41327130794525146 0.41817060112953186 0.39805203676223755 0.3607720136642456 0.2527693510055542 0.2599012553691864 0.36223140358924866 0.4089375436306 0.5147473216056824 0.6146891117095947 0.6325018405914307 0.561203122138977 0.5280529856681824 0.39349427819252014 0.39956799149513245 0.37231817841529846 0.3429909348487854 0.357097864151001 0.2641061842441559 0.4161728322505951 0.5704229474067688 0.6284025311470032 0.6319150328636169 0.6654362678527832 0.7312254309654236 0.6467192769050598 0.5005903840065002 0.32616472244262695 0.362257182598114 0.3488805592060089 0.34182488918304443 0.2334325760602951 0.3547727167606354 0.48603886365890503 0.6217999458312988 0.5409227609634399 0.7079264521598816 0.6478073000907898 0.5540586113929749 0.44391873478889465 0.38490429520606995 0.3867757022380829 0.3968829810619354 0.22650621831417084 0.37592214345932007 0.3569774031639099 0.5369834899902344 0.4754648804664612 0.5883604288101196 0.7576854825019836 0.6857596635818481 0.5553519129753113 0.4729836583137512 0.3661820888519287 0.4017832577228546 0.3783281445503235 0.30018559098243713 0.3491545617580414 0.46702486276626587 0.6708587408065796 0.5381959676742554 0.5882290601730347 0.6846413016319275 0.7135178446769714 0.6513186693191528 0.40080901980400085 0.337635338306427 0.4246191680431366 0.5084847211837769 0.4250392019748688 0.48974087834358215 0.7379415035247803 0.7901979684829712 0.6607398986816406 0.7878852486610413 0.7228067517280579 0.7579954266548157 0.48280203342437744 0.389818012714386 0.4067898988723755 0.4668998122215271 0.50798100233078 0.5004043579101562 0.5806141495704651 0.66124427318573 0.7862985134124756 0.5210584998130798 0.46270260214805603 0.473160982131958 0.5882826447486877 0.39812642335891724 0.3842734396457672 0.4557707905769348 0.42713579535484314 0.5451802611351013 0.4593261182308197 0.620141863822937 0.527006983757019 0.5137075185775757 0.42351824045181274 0.38422495126724243 0.43085816502571106 0.4230521023273468 0.39343008399009705 0.4759393632411957 0.4298359751701355 0.47766321897506714 0.49118301272392273 0.5404242873191833 0.44987043738365173 0.4983452260494232 0.41052892804145813 0.3093102276325226 0.36940452456474304 0.3309042155742645 0.35934972763061523 0.43154188990592957 0.5438556671142578 0.44198164343833923 0.3268194794654846 0.4122699201107025 0.4094300866127014 0.3225630819797516 0.3102985918521881 0.37934890389442444 0.28116586804389954 0.32627424597740173 0.38560914993286133 0.43943798542022705 0.4660896360874176 0.5159045457839966 0.4836755096912384 0.4546114504337311 0.3581834137439728 0.42157182097435 0.4247191250324249 0.38566234707832336 0.4046400785446167 0.38116052746772766 0.29129862785339355 0.327246755361557 0.3885437548160553 0.512235164642334 0.4843215346336365 0.4905143976211548 0.3276812732219696 0.26294106245040894 0.3381263017654419 0.3220128118991852 0.2589752972126007 0.25038963556289673 0.3846319913864136 0.34009072184562683 0.3614920377731323 0.38527119159698486 0.4668682813644409 0.505484402179718 0.41620945930480957 -0.17451485991477966 -0.21278253197669983 -0.5323053002357483 -0.7323025465011597 -1.0108050107955933 -0.9385709762573242 -0.8118011951446533 -0.8921663761138916 -1.2520251274108887 -1.2580351829528809 -1.3589650392532349 -0.9686640501022339 -0.5641583800315857 -0.31229206919670105 -0.39648959040641785 -0.7314533591270447 -0.8609314560890198 -1.0333985090255737 -0.8280485272407532 -0.8758155107498169 -1.1020349264144897 -1.1377320289611816 -1.2880529165267944 -0.9489418268203735 -0.6433793902397156 -0.590892493724823 -0.40383973717689514 -0.3829750716686249 -0.551680862903595 -0.7394203543663025 -0.7299835085868835 -0.6769915819168091 -0.7682357430458069 -0.9485828876495361 -1.2528389692306519 -1.1241624355316162 -0.7588405013084412 -0.6721158027648926 -0.6492878794670105 -0.26774075627326965 -0.23975171148777008 -0.49157628417015076 -0.6049058437347412 -0.6385914087295532 -0.6349285244941711 -0.6388289928436279 -0.7683210968971252 -0.9151683449745178 -0.748394250869751 -0.7886597514152527 -0.5746514201164246 -0.6104913353919983 -0.37228694558143616 -0.27111655473709106 -0.48071667551994324 -0.7837381362915039 -0.8248860239982605 -0.7438013553619385 -0.8456419706344604 -0.9653792381286621 -1.0347083806991577 -0.8760087490081787 -0.8686307072639465 -0.6936677098274231 -0.6010563969612122 -0.333729088306427 -0.3374684154987335 -0.5242197513580322 -0.8321229815483093 -0.754179060459137 -0.6862710118293762 -0.8178476691246033 -0.8933557271957397 -0.8265630006790161 -0.7417371869087219 -0.5509832501411438 -0.7016419172286987 -0.7136033773422241 -0.46822258830070496 -0.3104143738746643 -0.5267583131790161 -0.546779990196228 -0.5797817707061768 -0.569384753704071 -0.657236635684967 -0.6830716133117676 -0.5853723883628845 -0.6694445610046387 -0.6556550860404968 -0.5373072028160095 -0.6192643046379089 -0.25044986605644226 -0.31648531556129456 -0.3009898066520691 -0.5784792900085449 -0.42868396639823914 -0.45082321763038635 -0.5750926733016968 -0.673941433429718 -0.49501779675483704 -0.617497444152832 -0.5311934947967529 -0.2714814841747284 -0.46807384490966797 -0.05163000524044037 0.06289566308259964 -0.1723555624485016 -0.3612477779388428 -0.4188005030155182 -0.49986934661865234 -0.4177875220775604 -0.5138137340545654 -0.42685213685035706 -0.34212276339530945 -0.22091759741306305 -0.12152495235204697 -0.48804378509521484 -0.13931827247142792 -0.01733487658202648 -0.10340189933776855 -0.2511652410030365 -0.3643457889556885 -0.38862866163253784 -0.3928852081298828 -0.4267456531524658 -0.5060796737670898 -0.3879919946193695 -0.0033989923540502787 0.11693083494901657 -0.24517184495925903 -0.007466058246791363 -0.01254426222294569 -0.06436276435852051 -0.29153650999069214 -0.2757543623447418 -0.3109625577926636 -0.28541260957717896 -0.34543079137802124 -0.37969231605529785 -0.2625385820865631 -0.07223213464021683 0.31752800941467285 0.276840478181839 0.026210373267531395 -0.019857725128531456 -0.08157189935445786 -0.21948516368865967 -0.16674168407917023 -0.14467506110668182 -0.2420596480369568 -0.3203887939453125 -0.3230726420879364 -0.15858320891857147 0.14903520047664642 0.1607614904642105 0.19244052469730377 0.059805795550346375 -0.10461445152759552 -0.20460544526576996 -0.07760226726531982 -0.13196876645088196 -0.21499474346637726 -0.24426479637622833 -0.37533921003341675 -0.3824319541454315 -0.2113766372203827 0.16174063086509705 0.09283845871686935 -0.012877124361693859 0.0012749014422297478 -0.05217188596725464 0.025273023173213005 0.062172938138246536 -0.030416786670684814 -0.10077152401208878 -0.289630264043808 -0.29552584886550903 -0.2146901786327362 -0.2602401077747345 -0.3304292857646942 -0.3141883313655853 -0.31449374556541443 -0.3130950629711151 0.06670717149972916 0.11031733453273773 0.19932542741298676 0.09745984524488449 -0.02573934569954872 -0.28599920868873596 -0.3519674837589264 -0.22057925164699554 -0.2481151968240738 -0.4407922625541687 -0.28680655360221863 -0.2318710833787918 -0.06770949065685272 0.10501324385404587 0.12525615096092224 0.24919651448726654 0.020953446626663208 -0.1429785043001175 -0.2647897005081177 -0.2702651023864746 -0.3342306613922119 -0.2913697063922882 -0.36463749408721924 -0.2317461371421814 -0.2246311753988266 -0.1798606663942337 0.21446676552295685 0.18327277898788452 0.06131177023053169 0.025415293872356415 -0.26584234833717346 -0.48132190108299255 -0.3821718096733093 -0.3199451267719269 -0.3964709937572479 -0.3873565196990967 -0.36401331424713135 -0.38280922174453735 -0.3869493901729584 -0.15044842660427094 0.12059425562620163 -0.13914869725704193 -0.2067011445760727 -0.40981850028038025 -0.5315464735031128 -0.5488377213478088 -0.41420912742614746 -0.3895440697669983 -0.38671934604644775 -0.34936633706092834 -0.2565947473049164 -0.332354336977005 -0.31308645009994507 -0.6226035952568054 -0.7077210545539856 -0.398593008518219 -0.5007863640785217 -0.6391555666923523 -0.6274092197418213 -0.4387836158275604 -0.524730384349823 -0.46865636110305786 -0.3924792408943176 -0.40665021538734436 -0.2629297971725464 -0.4716251492500305 -0.700127124786377 -0.6508212685585022 -0.3704726994037628 -0.36700671911239624 -0.5715787410736084 -0.36320772767066956 -0.34024104475975037 -0.18757414817810059 -0.34086471796035767 -0.19612902402877808 -0.007576866075396538 -0.43914559483528137 -0.39463549852371216 -0.3915218114852905 -0.5200615525245667 -0.183218315243721 -0.27780580520629883 -0.3472571074962616 -0.19928455352783203 -0.044764261692762375 -0.02778801880776882 -0.29808884859085083 -0.11848163604736328 0.04294826090335846 -0.10579624772071838 -0.18490421772003174 -0.306924045085907 -0.5595991611480713 -0.3847983479499817 -0.3859204351902008 -0.507845938205719 -0.26679855585098267 -0.03018040955066681 -0.010815677233040333 -0.027102604508399963 -0.10825179517269135 -0.023966845124959946 -0.12211895734071732 -0.23276396095752716 -0.3145747482776642 -0.6035556793212891 -0.48775622248649597 -0.4681347608566284 -0.40002551674842834 -0.15333400666713715 -0.00806425977498293 -0.12500949203968048 -0.13699722290039062 -0.053437937051057816 0.19266104698181152 -0.08428099751472473 -0.3351212739944458 -0.4303821325302124 -0.3505602777004242 -0.2985365688800812 -0.3124101459980011 -0.2033262848854065 0.03170253708958626 0.14572125673294067 0.16912128031253815 0.08796738088130951 0.3189232051372528 0.2802620530128479 -0.051954541355371475 -0.3167629539966583 -0.32311227917671204 -0.3191779851913452 -0.2626829445362091 -0.12421811372041702 -0.100685715675354 0.18717855215072632 0.24916601181030273 0.2715011239051819 0.34906378388404846 0.5956919193267822 0.5117358565330505 0.015653561800718307 -0.11951681971549988 -0.562244713306427 -0.6881122589111328 -0.692763090133667 -0.5832452774047852 -0.40943047404289246 -0.08144690096378326 -0.01523478701710701 0.1295614242553711 0.24652332067489624 0.30445635318756104 0.4358385503292084 -0.18823854625225067 0.07010859996080399 0.05060049518942833 0.40174007415771484 0.5254576802253723 0.3843497335910797 0.4326529800891876 0.14172303676605225 0.13821864128112793 0.27975714206695557 0.32102230191230774 0.3068636953830719 0.22136551141738892 -0.4122198522090912 -0.19617204368114471 -0.01384652964770794 0.19586911797523499 0.3625450134277344 0.2344651222229004 0.18616066873073578 0.18471577763557434 0.19983696937561035 0.24959398806095123 0.2936471700668335 0.04620274528861046 0.22023789584636688 -0.3990643620491028 -0.17226679623126984 -0.07073759287595749 0.06972949951887131 0.2483879029750824 0.12276119738817215 0.05461026728153229 0.0016823724145069718 0.061167966574430466 0.0679474025964737 -0.03429412469267845 -0.12732192873954773 0.18513013422489166 -0.273668497800827 -0.2612681984901428 -0.14756780862808228 0.0687282383441925 0.20300862193107605 0.0774511992931366 0.06303463131189346 0.05293514207005501 0.13413716852664948 -0.050487227737903595 -0.11931408941745758 -0.0008865706622600555 -0.06643768399953842 -0.3724220395088196 -0.35042470693588257 -0.12974639236927032 0.0901683121919632 0.06174636259675026 0.10038851201534271 0.02033151686191559 0.11342889070510864 0.24303705990314484 0.07773416489362717 0.09698891639709473 0.05548407509922981 -0.051753271371126175 -0.5221538543701172 -0.450137734413147 -0.12307360023260117 -0.10791175812482834 -0.07050595432519913 0.024916211143136024 -0.06885683536529541 0.09704294800758362 0.11564494669437408 -0.0010565449483692646 -0.05433596670627594 -0.11314953863620758 -0.28231585025787354 -0.30871641635894775 -0.4958886206150055 -0.26959916949272156 -0.07838226109743118 -0.09187335520982742 -0.09545762836933136 -0.11109659820795059 -0.12660522758960724 0.016964463517069817 -0.0807173028588295 -0.2924546003341675 -0.23506994545459747 -0.8956857323646545 -0.21166063845157623 -0.41518133878707886 -0.23675230145454407 -0.12376901507377625 -0.08641922473907471 -0.20744773745536804 -0.25904878973960876 -0.16188104450702667 -0.08325652033090591 -0.08894607424736023 -0.4166549742221832 -0.31308576464653015 -0.5167669653892517 -0.2314510941505432 -0.180894672870636 -0.22537343204021454 -0.04647139087319374 -0.1256028264760971 -0.14586424827575684 -0.20536842942237854 -0.20101110637187958 0.008644433692097664 0.03917539492249489 -0.32214733958244324 -0.25788161158561707 -0.5908027291297913 -0.21627037227153778 -0.20166264474391937 -0.1065862700343132 0.029355298727750778 -0.0562446266412735 -0.0723109319806099 -0.05789870396256447 0.02021919935941696 0.0859471783041954 0.022110721096396446 -0.17857171595096588 -0.35887444019317627 -0.40695151686668396 -0.23260024189949036 -0.08054319024085999 -0.05107065290212631 -0.05730137228965759 -0.030952006578445435 -0.059826068580150604 -0.05298575013875961 0.0004679056291934103 0.19455312192440033 0.0026252029929310083 -0.41963958740234375 -0.4642619788646698 -0.5665231347084045 -0.15107762813568115 -0.09213119745254517 -0.03296232968568802 -0.0003691937308758497 -0.030813707038760185 -0.009949910454452038 -0.03828967735171318 0.0012588017852976918 0.12780889868736267 0.07332248240709305 -0.17048907279968262 -0.6640110611915588 -0.4083612859249115 -0.025228481739759445 0.07617884874343872 -0.011592481285333633 -0.008347924798727036 0.03578890860080719 0.05247318372130394 0.05582740902900696 0.15544737875461578 0.17028610408306122 0.15343929827213287 0.14805330336093903 -0.14037542045116425 -0.1294798105955124 -0.1979004293680191 -0.1154102236032486 0.0013018277240917087 0.028763970360159874 0.08657842874526978 0.20423386991024017 0.1734958440065384 0.1542649120092392 0.11665529757738113 0.19723448157310486 0.10329988598823547 0.26371467113494873 0.14762237668037415 -0.45729631185531616 -0.33782410621643066 -0.1656322479248047 -0.06898605823516846 0.10941096395254135 0.120723195374012 0.19358329474925995 0.11884854733943939 0.17246028780937195 0.12638972699642181 0.22005893290042877 0.2717636227607727 0.028262397274374962 -0.5791799426078796 -0.4687451720237732 -0.3907104730606079 -0.2615050971508026 -0.03743528947234154 0.07705774158239365 0.06750531494617462 0.039567623287439346 0.1065915897488594 0.11267641186714172 0.08382990211248398 0.06446024030447006 -0.06302483379840851 -0.7004783749580383 -0.6475058794021606 -0.44427889585494995 -0.21883679926395416 -0.08253935724496841 0.030783293768763542 -0.03190130740404129 -0.047538042068481445 -0.0555657260119915 -0.05160578340291977 -0.07764512300491333 0.09625347703695297 -0.08163940906524658 -0.9239304065704346 -0.5087602138519287 -0.36878135800361633 -0.16134722530841827 -0.12022703140974045 -0.03367314487695694 -0.05911138653755188 -0.109379343688488 -0.03566301614046097 -0.03237314522266388 -0.027122408151626587 0.08975103497505188 -0.15409167110919952 -0.6265840530395508 -0.3231651782989502 -0.2156510353088379 -0.05182965099811554 -0.014831851236522198 0.047309767454862595 0.017025373876094818 -0.0037519228644669056 -0.07140897959470749 -0.03370070829987526 0.06686368584632874 0.047826994210481644 -0.21355696022510529 -0.3799881339073181 -0.14604532718658447 0.000529047625605017 0.18777942657470703 0.15571776032447815 0.13261114060878754 0.09878667443990707 0.029765522107481956 0.012644289992749691 -0.056690946221351624 -0.039391741156578064 -0.054639894515275955 -0.20252688229084015 -0.2993946373462677 -0.08968660980463028 0.08468402922153473 0.2684186100959778 0.2575893700122833 0.20694707334041595 0.14209851622581482 0.08357252925634384 0.06306833773851395 -0.025862261652946472 -0.09331893175840378 -0.131474107503891 -0.2864408493041992 -0.19656364619731903 0.012903088703751564 0.11506015062332153 0.234552800655365 0.20013630390167236 0.24387551844120026 0.15695807337760925 0.14057153463363647 0.10907402634620667 -0.0005795618053525686 -0.15713909268379211 -0.22128215432167053 -0.15941882133483887 -0.02858162298798561 0.07832306623458862 0.12375003099441528 0.15443788468837738 0.15050072968006134 0.19701480865478516 0.12042982131242752 0.11069697886705399 0.09729864448308945 0.017416423186659813 -0.058761224150657654 -0.2907353937625885 -0.2082037776708603 0.10710322111845016 0.1000734269618988 0.11893956363201141 0.17564862966537476 0.2226593941450119 0.15612494945526123 0.16074822843074799 0.20046855509281158 0.1614692062139511 0.020487189292907715 -0.05861565098166466 -0.14657630026340485 -0.06543684005737305 0.13959422707557678 0.027138229459524155 0.09219372272491455 0.19122527539730072 0.11283350735902786 0.2569301128387451 0.22027085721492767 0.2905568480491638 0.22431373596191406 0.1653061956167221 -0.11231454461812973 -0.19691753387451172 -0.06286883354187012 0.07370379567146301 -0.03479756414890289 0.09756926447153091 0.1654374599456787 0.24410876631736755 0.32805246114730835 0.360490620136261 0.3753410279750824 0.3149636685848236 0.18458174169063568 -0.15163053572177887 -0.20282481610774994 0.05491355061531067 -0.16349166631698608 -0.05603945627808571 -0.05943826586008072 -0.04329726845026016 -0.13139913976192474 -0.26213711500167847 -0.22313876450061798 -0.2594107389450073 -0.34451931715011597 -0.33629751205444336 -0.38155117630958557 -0.5149452090263367 -0.5199703574180603 -0.10165373980998993 -0.02795596607029438 0.026438996195793152 -0.013690408319234848 -0.1237943172454834 -0.19020068645477295 -0.15864388644695282 -0.19625915586948395 -0.2286895364522934 -0.2655969262123108 -0.4112589359283447 -0.4525321424007416 -0.4013407230377197 -0.051723625510931015 0.10752705484628677 0.07980114221572876 0.02164442278444767 -0.05828537046909332 -0.14075809717178345 -0.12067262083292007 -0.016051407903432846 -0.08494971692562103 -0.17797251045703888 -0.2893921136856079 -0.3409779667854309 -0.26837918162345886 0.008215952664613724 0.09942679852247238 0.2123613953590393 0.1813114434480667 0.08434920758008957 0.10353245586156845 0.08558306843042374 0.060029286891222 0.060385383665561676 -0.04193954914808273 -0.08933775871992111 -0.10269436985254288 -0.2801606357097626 0.11248033493757248 0.11639817804098129 0.22123666107654572 0.1767302304506302 0.1071498766541481 0.1503714919090271 0.03908611088991165 0.011121803894639015 -0.03818835690617561 -0.04821965470910072 -0.10411479324102402 -0.043163903057575226 -0.07915879786014557 0.1779269427061081 0.21088063716888428 0.08022371679544449 0.07956226915121078 -0.005422547925263643 -0.03001498617231846 -0.046153780072927475 -0.1766437441110611 -0.16815364360809326 -0.16787251830101013 -0.04670317471027374 0.04028193652629852 0.03296220302581787 0.1545955091714859 0.15983392298221588 0.10648594796657562 0.011754067614674568 0.056975625455379486 -0.12410824745893478 -0.07869195938110352 -0.06177802383899689 -0.11070762574672699 -0.026834780350327492 0.11529137194156647 0.1687145233154297 0.21651335060596466 0.17197802662849426 0.10155797749757767 0.04846087098121643 0.023780692368745804 0.01864566095173359 0.008018922992050648 -0.04439256340265274 -0.06269776821136475 0.01848527230322361 0.09396116435527802 0.1839398890733719 0.198991596698761 0.2744353115558624 0.17875336110591888 0.04122892767190933 0.01810304820537567 -0.05707474425435066 -0.04685167595744133 -0.05067593976855278 -0.04144420474767685 -0.01253313198685646 0.041432835161685944 0.20186400413513184 0.07749226689338684 0.35756024718284607 0.4774746000766754 0.14870180189609528 0.02411246858537197 0.006311682052910328 -0.01169232465326786 -0.0905899628996849 -0.044447142630815506 -0.04650728031992912 -0.048858847469091415 -0.022447556257247925 -0.028207072988152504 0.15164265036582947 0.19398854672908783 0.2440689653158188 0.08322660624980927 0.041016798466444016 0.0210353285074234 -0.1282077580690384 -0.07232090085744858 -0.16619770228862762 -0.10984577238559723 -0.1002669632434845 -0.07388386875391006 -0.0796881839632988 -0.061253320425748825 0.08208943158388138 0.12240765988826752 0.05921345204114914 0.027878055348992348 -0.06247832253575325 -0.11221490055322647 -0.1890694797039032 -0.21645154058933258 -0.17131835222244263 -0.2105388194322586 -0.18969914317131042 -0.2423444390296936 -0.08493943512439728 0.012627213262021542 -0.09444793313741684 -0.17430351674556732 -0.38247770071029663 -0.3934541940689087 -0.5136975646018982 -0.521404504776001 -0.5245354771614075 -0.553665041923523 -0.5440976619720459 -0.640338122844696 -0.36334457993507385 -0.40106669068336487 -0.46986329555511475 -0.25643596053123474 0.04997846484184265 -0.13394129276275635 -0.11456054449081421 -0.05609699711203575 -0.16626088321208954 -0.09968210756778717 -0.033993907272815704 -0.10186304897069931 -0.1968255341053009 -0.10882000625133514 -0.09343532472848892 -0.07489275932312012 -0.17540167272090912 -0.07463632524013519 -0.2211369276046753 -0.13591651618480682 -0.20758242905139923 -0.09105975180864334 -0.07062133401632309 -0.12086543440818787 -0.1265358328819275 -0.14189065992832184 -0.11181239783763885 -0.10420141369104385 -0.05432678759098053 -0.025167668238282204 -0.21944943070411682 -0.2080981582403183 -0.297869473695755 -0.2657112181186676 -0.13858498632907867 -0.11035070568323135 -0.1827688217163086 -0.24393832683563232 -0.1239604651927948 -0.19131574034690857 -0.11393480002880096 0.0029734387062489986 -0.006967082619667053 -0.30743837356567383 -0.3086029887199402 -0.3016917407512665 -0.3471824824810028 -0.1532975435256958 -0.09997207671403885 -0.14415159821510315 -0.2120872437953949 -0.14702722430229187 -0.1271977722644806 -0.09956154227256775 0.0782298892736435 0.04779518023133278 -0.14007069170475006 -0.14742890000343323 -0.026663120836019516 -0.12741750478744507 -0.038800500333309174 -0.03182017058134079 -0.07782552391290665 -0.08966092020273209 -0.10343904793262482 0.025415219366550446 0.051697295159101486 0.12430861592292786 0.07237306237220764 -0.057963576167821884 0.12888526916503906 -0.003478068858385086 -0.03034680150449276 0.00019434001296758652 0.06336352229118347 0.033879853785037994 -0.018229596316814423 0.06125033646821976 0.09957796335220337 0.11875016242265701 0.13524828851222992 0.04971635714173317 0.04797373712062836 -0.020767034962773323 0.05769551917910576 0.010647728107869625 0.09418321400880814 0.09550735354423523 0.06726647168397903 0.07530657202005386 0.08700896799564362 -0.0361579954624176 0.03744066134095192 -0.05974831432104111 0.05159815028309822 0.06964877992868423 0.05460623279213905 0.007947116158902645 0.06154341623187065 0.022493593394756317 0.09125888347625732 0.096318818628788 0.034981194883584976 -0.04733407869935036 -0.021738506853580475 -0.09022270888090134 -0.13042008876800537 -0.08380598574876785 0.3182961642742157 0.13948309421539307 0.11207400262355804 0.08686373382806778 0.08333161473274231 0.140848308801651 0.17579220235347748 0.09679470211267471 0.09825970232486725 0.03967071324586868 -0.06924670934677124 -0.22382962703704834 -0.17218494415283203 0.26570209860801697 0.24779707193374634 0.20159108936786652 0.1579454094171524 0.18759366869926453 0.21894027292728424 0.24858197569847107 0.20453284680843353 0.1919068545103073 0.07739599794149399 -0.03682977706193924 -0.12932360172271729 -0.24397794902324677 0.23351119458675385 0.26682284474372864 0.18620328605175018 0.1910410076379776 0.26006048917770386 0.25966891646385193 0.18417125940322876 0.19273146986961365 0.19490233063697815 0.09031283855438232 0.05614856258034706 -0.3858695328235626 -0.3722570836544037 0.13130393624305725 0.11198863387107849 0.15962782502174377 0.18754693865776062 0.26667654514312744 0.2017216980457306 0.18632861971855164 0.16571275889873505 0.24690048396587372 0.024028854444622993 -0.1378631442785263 -0.34842172265052795 -0.35806509852409363 -0.029674509540200233 -0.05625888705253601 -0.006855751853436232 0.10319550335407257 0.13759760558605194 0.21670205891132355 0.24022424221038818 0.32913509011268616 0.2414102405309677 0.04510023444890976 -0.11907736957073212 -0.34446409344673157 -0.2589651942253113 -0.005671062972396612 0.003907674457877874 0.009634127840399742 -0.01198890432715416 -0.016128288581967354 0.016354231163859367 -0.006310054566711187 -0.008245706558227539 -0.011350087821483612 0.016436900943517685 -0.024226602166891098 0.02423395775258541 0.006374632939696312 0.0038180442061275244 -0.007969148457050323 0.01662435755133629 0.013340696692466736 0.019281193614006042 0.017300788313150406 -0.010243849828839302 0.023895448073744774 -0.016010241582989693 0.013233607634902 -0.016430040821433067 -0.010642786510288715 0.01841317117214203 0.016425026580691338 -0.024481674656271935 0.0059277694672346115 -0.01513291709125042 0.02254723198711872 -0.01154125016182661 -0.013858204707503319 -0.02546076290309429 0.010065870359539986 0.013497826643288136 0.021276328712701797 0.00580166932195425 -0.0027921930886805058 0.014239170588552952 0.017832878977060318 0.02002071589231491 0.012884593568742275 0.0033718354534357786 0.007171535864472389 -0.012042845599353313 0.007254214957356453 -0.006211725529283285 -0.01753119006752968 -0.0222273338586092 -0.023281387984752655 -0.013661378994584084 -0.01997603476047516 0.008024053648114204 -0.022063691169023514 0.006031814031302929 0.025554273277521133 0.006198870949447155 0.016528738662600517 -0.023954050615429878 0.02127901092171669 -0.004265786148607731 0.004998181946575642 0.01690448820590973 -0.009052569046616554 -0.007779672741889954 0.021145520731806755 0.011607407592236996 0.011274531483650208 0.024558523669838905 -0.025948774069547653 0.024557214230298996 0.025936609134078026 0.004165055230259895 -0.021878380328416824 0.0014103372814133763 -0.014684406109154224 -0.006296116858720779 0.023140691220760345 -0.021641794592142105 -0.019833272323012352 0.014373838901519775 -0.005280157085508108 0.021532844752073288 -0.01676720567047596 0.0176456980407238 0.012792754918336868 0.02124299481511116 -0.004155364818871021 -0.007041999138891697 0.013337052427232265 0.015866482630372047 0.024512795731425285 0.025681355968117714 -0.024650663137435913 -0.019239384680986404 0.0019090317655354738 0.016063330695033073 0.021014276891946793 -0.020619500428438187 0.02224298007786274 -0.007352640852332115 -0.018489914014935493 0.026584472507238388 0.01671619527041912 0.021544959396123886 0.021077632904052734 0.003413541242480278 0.023530691862106323 -0.012941536493599415 0.026986928656697273 0.012180034071207047 -0.02025851421058178 -0.01814422570168972 -0.001175310229882598 0.008604321628808975 -0.0031877639703452587 -0.001176642719656229 -0.023661494255065918 0.015560866333544254 0.009150093421339989 -0.006964086089283228 0.02113053947687149 -0.0043014781549572945 0.005280620884150267 -0.005793573800474405 0.002825719304382801 0.015952900052070618 0.010134897194802761 0.025397229939699173 -0.02634218893945217 -0.012039058841764927 -0.008565850555896759 0.026679087430238724 0.021248310804367065 -0.02552488073706627 9.98945179162547e-05 0.0012894601095467806 -0.02190255932509899 0.017004869878292084 0.008540388196706772 0.02441023662686348 0.009951194748282433 -0.02322513796389103 0.011982264928519726 -0.011339626275002956 -0.01620417647063732 -0.023949632421135902 -0.0015538246370851994 -0.0086152208968997 -0.024740854278206825 0.022120462730526924 -0.024175776168704033 0.024031318724155426 -0.02029132843017578 -0.027031542733311653 0.01662791706621647 -0.009279724210500717 -0.012718032114207745 0.009308530017733574 0.002382801380008459 -0.010496636852622032 0.01206058356910944 0.020471077412366867 -0.026844624429941177 0.00691748782992363 -0.02143723890185356 0.02564752846956253 -0.00879830401390791 -0.21311095356941223 -0.08986667543649673 -0.04050362855195999 -0.027271369472146034 -0.034602101892232895 -0.0968165174126625 -0.17599044740200043 -0.23697955906391144 -0.30926305055618286 -0.3040304481983185 -0.3071238398551941 -0.2563602924346924 -0.27259477972984314 -0.15390785038471222 -0.006050205323845148 0.023844625800848007 0.11038432270288467 0.0604938268661499 0.0036479022819548845 0.029791148379445076 -0.13446754217147827 -0.13566458225250244 -0.2699800431728363 -0.28618544340133667 -0.30683308839797974 -0.28438156843185425 0.023671753704547882 0.07459873706102371 0.20510177314281464 0.22961635887622833 0.10800464451313019 0.15490920841693878 0.053317587822675705 0.018427595496177673 -0.10484008491039276 -0.2533419132232666 -0.32907548546791077 -0.3170478343963623 -0.2780967354774475 0.07431329041719437 0.16457991302013397 0.2907692790031433 0.22287753224372864 0.1729222983121872 0.13161605596542358 0.06549807637929916 0.011302932165563107 -0.19311276078224182 -0.2987617254257202 -0.38271862268447876 -0.3294376730918884 -0.2681960165500641 0.07140953838825226 0.22318154573440552 0.31966784596443176 0.24598614871501923 0.1665283739566803 0.10123580694198608 0.07073736190795898 -0.16814163327217102 -0.2995254099369049 -0.3335961103439331 -0.33693355321884155 -0.1910213828086853 -0.25172555446624756 0.06878416240215302 0.3032626211643219 0.28523632884025574 0.1804925501346588 0.17888666689395905 0.09830420464277267 -0.007319669239223003 -0.18203893303871155 -0.28278881311416626 -0.3447723388671875 -0.21062308549880981 -0.21353958547115326 -0.15378159284591675 0.10137780010700226 0.2888713777065277 0.3211507499217987 0.3228098750114441 0.26597946882247925 0.18813876807689667 0.09979937225580215 -0.14653359353542328 -0.08262769132852554 -0.12494617700576782 -0.12637588381767273 -0.029476962983608246 0.03854949399828911 0.06981884688138962 0.24166268110275269 0.369556188583374 0.37102749943733215 0.31352126598358154 0.11729948222637177 0.12319369614124298 -0.049043621867895126 -0.06132769584655762 -0.009948044084012508 0.0812029242515564 0.07757371664047241 0.09657587856054306 -0.03518231213092804 0.15298141539096832 0.24580346047878265 0.24586635828018188 0.20889806747436523 0.13550765812397003 0.0615045465528965 -0.02728682942688465 -0.04262198880314827 0.04987790808081627 0.03613094612956047 0.0333598330616951 -0.058890894055366516 -0.15848864614963531 0.037122830748558044 0.08969344943761826 0.1001187413930893 -0.041334036737680435 -0.009521326050162315 -0.016664762049913406 -0.01556314341723919 -0.00966663844883442 -0.039644185453653336 0.034209828823804855 0.060781363397836685 0.0006876926054246724 -0.26687997579574585 -0.14695143699645996 -0.13185426592826843 -0.04006350785493851 -0.06228448078036308 -0.045726098120212555 0.008522704243659973 -0.022141123190522194 0.02778621017932892 0.051088325679302216 0.11028912663459778 0.1094253659248352 -0.05110333487391472 -0.16100922226905823 -0.1806207299232483 -0.11761397123336792 -0.10209905356168747 -0.08830946683883667 -0.14878426492214203 -0.00770708080381155 -0.00792879331856966 0.0040464275516569614 0.09207971394062042 0.14501281082630157 0.09344133734703064 -0.08505523949861526 -0.17394070327281952 -0.12824401259422302 -0.08468572795391083 -0.2216683030128479 -0.12678851187229156 -0.16634954512119293 -0.18236051499843597 -0.07462362945079803 -0.09577383100986481 -0.10117456316947937 -0.08032934367656708 -0.09072788804769516 -0.15418598055839539 0.25723546743392944 0.4854898750782013 0.5026920437812805 0.45293551683425903 0.3891272246837616 0.2309928685426712 0.228795126080513 0.175936758518219 0.07161352038383484 0.05670855939388275 -0.07115486264228821 -0.020917482674121857 -0.3441843092441559 0.19346898794174194 0.35121601819992065 0.3884091079235077 0.31779712438583374 0.23070435225963593 0.20978544652462006 0.22208474576473236 0.16557034850120544 0.13051895797252655 0.004497168119996786 -0.16194215416908264 -0.18855378031730652 -0.5638515949249268 0.4016205966472626 0.43345338106155396 0.4094945192337036 0.43921932578086853 0.3241825997829437 0.22599609196186066 0.16974008083343506 0.10036806762218475 0.06875824928283691 -0.15246859192848206 -0.17260901629924774 -0.28363415598869324 -0.769440770149231 0.4213990867137909 0.3717133104801178 0.45408910512924194 0.3751504123210907 0.2389959990978241 0.2185583859682083 0.23213687539100647 0.09608661383390427 0.06616031378507614 -0.04614265635609627 -0.12211991101503372 -0.2733111083507538 -0.760054886341095 0.4323514997959137 0.3774735629558563 0.2791934311389923 0.30343374609947205 0.24780277907848358 0.14267835021018982 0.09101434797048569 0.06726178526878357 -0.024429865181446075 -0.0805753692984581 -0.14279486238956451 -0.33331140875816345 -0.4810483157634735 0.2703586518764496 0.27119478583335876 0.26638928055763245 0.1748245656490326 0.05440886691212654 0.018299119547009468 0.015723442658782005 -0.042117197066545486 0.01855429634451866 -0.09181888401508331 -0.11752469092607498 -0.13348540663719177 -0.07782226800918579 0.16392366588115692 0.17806656658649445 0.17756444215774536 0.0684041678905487 -0.009173830971121788 -0.11712642014026642 -0.009265897795557976 -0.06140662357211113 -0.030469363555312157 -0.07658945024013519 0.053989242762327194 0.05495871230959892 0.2674641013145447 0.12364117801189423 0.09368745982646942 0.14365988969802856 0.09998910874128342 0.023152483627200127 0.046239327639341354 0.0644424706697464 0.03310653194785118 0.022383995354175568 0.03334209322929382 0.10057216882705688 0.1358923614025116 0.4868929088115692 0.011868654750287533 0.054107893258333206 0.16014143824577332 0.147054985165596 0.11775320023298264 0.10812804847955704 0.08533304929733276 0.09826280921697617 0.1546761691570282 0.06036458909511566 0.11585758626461029 0.23565785586833954 0.6115221381187439 0.026390308514237404 0.01473312173038721 0.09271835535764694 0.12685900926589966 0.1433776170015335 0.07216536998748779 0.10712294280529022 0.10334545373916626 0.13138480484485626 0.1542402058839798 0.13209526240825653 0.2278861552476883 0.7845224738121033 -0.08564813435077667 -0.02238493226468563 0.06472253054380417 0.1312359720468521 0.1183566302061081 0.06434169411659241 0.08583220839500427 0.14901676774024963 0.16232480108737946 0.15448926389217377 0.14414583146572113 0.3304746747016907 0.8249850869178772 -0.013924571685492992 -0.08097267150878906 -0.0023385612294077873 0.061169639229774475 0.05802397429943085 0.010325717739760876 0.09948864579200745 0.07513834536075592 0.06819599866867065 0.06767867505550385 0.21582423150539398 0.3829540014266968 0.8584648370742798 -0.04686063528060913 0.0065575214102864265 -0.030624710023403168 0.0743384063243866 0.07630672305822372 0.06516158580780029 0.21125076711177826 0.19568400084972382 0.1259385645389557 0.2189091295003891 0.1968340426683426 0.35991641879081726 0.7367755770683289 -0.11694589257240295 -0.1915481686592102 -0.07859114557504654 -0.05586018040776253 0.009432417340576649 0.07609359174966812 0.11309093236923218 0.08377745002508163 0.07527025789022446 0.04407684504985809 0.048539984971284866 0.005568773951381445 0.015650173649191856 -0.13927331566810608 -0.01336553506553173 -0.016050690785050392 0.08892867714166641 0.2407667189836502 0.14872074127197266 0.22936534881591797 0.1358698159456253 0.07231136411428452 -0.0018554844427853823 -0.017996715381741524 -0.05688228830695152 -0.023289769887924194 -0.04448647424578667 0.051892705261707306 0.15199239552021027 0.29325053095817566 0.3412485420703888 0.37725821137428284 0.27330318093299866 0.15062619745731354 0.0462949313223362 0.0021209341939538717 -0.011252018623054028 -0.0780545026063919 -0.14157184958457947 0.05997255817055702 0.21914348006248474 0.24149766564369202 0.23967020213603973 0.3002834618091583 0.24667072296142578 0.07406889647245407 0.008938249200582504 0.0069373962469398975 0.041626881808042526 -0.019816463813185692 -0.1439620405435562 -0.23076322674751282 -0.021949399262666702 0.16104507446289062 0.1851603239774704 0.14852090179920197 0.18457454442977905 0.10334061086177826 0.058366890996694565 -0.039082180708646774 -0.014796242117881775 0.03228571265935898 0.009049884974956512 -0.13583898544311523 -0.06910435855388641 -0.20199935138225555 -0.14658433198928833 -0.04412750527262688 0.07261661440134048 0.11408235877752304 0.013811162672936916 0.09774212539196014 -0.008523263037204742 0.012577788904309273 0.028480378910899162 -0.026090197265148163 -0.0693499892950058 0.0017053154297173023 -0.2583838999271393 -0.2920251488685608 -0.1640566885471344 -0.07607638835906982 -0.003994813188910484 0.07094814628362656 0.10381801426410675 0.005333941895514727 0.08860645443201065 0.07287237048149109 0.1113351508975029 0.046355828642845154 0.09029673039913177 -0.2645511329174042 -0.194955512881279 -0.18727914988994598 -0.11520106345415115 -0.0015471396036446095 0.002320911968126893 0.0233203936368227 -0.0114184794947505 0.09598583728075027 0.1352977752685547 0.17523881793022156 0.20252029597759247 0.27434080839157104 -0.2429215908050537 -0.18489955365657806 -0.15267573297023773 -0.16753368079662323 -0.05112138390541077 -0.07564562559127808 -0.007222272455692291 -0.00562528008595109 0.10906506329774857 0.21410894393920898 0.254147469997406 0.30452144145965576 0.3778016269207001 -0.19621093571186066 -0.32365453243255615 -0.2457130402326584 -0.15689833462238312 -0.0863843560218811 -0.06474979966878891 -0.03066934272646904 0.08618026971817017 0.21736659109592438 0.30293142795562744 0.3503561317920685 0.43902096152305603 0.467604398727417 -0.19924040138721466 -0.3828284740447998 -0.25254467129707336 -0.2429846227169037 -0.245591938495636 -0.15795956552028656 0.0029166298918426037 0.21554170548915863 0.2990510165691376 0.4147418141365051 0.44029539823532104 0.5869110226631165 0.7514358162879944 -0.30704957246780396 -0.3968592882156372 -0.32518714666366577 -0.25235652923583984 -0.3238673508167267 -0.20156854391098022 0.18245001137256622 0.3098527789115906 0.3817598521709442 0.4725196957588196 0.619046151638031 0.7732000946998596 0.8407096266746521 -0.41202956438064575 -0.22319863736629486 -0.1372717171907425 -0.08857745677232742 0.13394460082054138 0.1605471968650818 0.278645396232605 0.42541763186454773 0.428300678730011 0.49699777364730835 0.6371987462043762 0.8328597545623779 0.9293128848075867 -0.09081996977329254 -0.15250980854034424 -0.05188964307308197 -0.031744372099637985 0.030693072825670242 0.046888913959264755 0.019065510481595993 0.05337221175432205 0.16015012562274933 0.17662262916564941 0.154001846909523 0.15387284755706787 0.06743763387203217 -0.25823819637298584 -0.1945551633834839 -0.1721569001674652 -0.25306013226509094 -0.07756919413805008 -0.013725756667554379 0.11190950125455856 0.1693612039089203 0.26687583327293396 0.21114850044250488 0.30451110005378723 0.4831428527832031 0.49419328570365906 -0.24934089183807373 -0.27289608120918274 -0.2947114408016205 -0.12555567920207977 -0.02728581614792347 0.05211900174617767 0.1824430376291275 0.23476684093475342 0.1956128180027008 0.21409301459789276 0.33066803216934204 0.3518531918525696 0.5169453620910645 -0.384001761674881 -0.2785201370716095 -0.24622805416584015 -0.15360932052135468 0.03723474591970444 0.12037047743797302 0.20177501440048218 0.21330735087394714 0.2581363916397095 0.28506574034690857 0.32769259810447693 0.43698543310165405 0.3118118941783905 -0.3014064431190491 -0.32120397686958313 -0.21068423986434937 -0.14563271403312683 -0.010054081678390503 0.0018282595556229353 0.05153348296880722 0.08652102202177048 0.173483207821846 0.2389676421880722 0.31782057881355286 0.31964588165283203 0.12048764526844025 -0.24699144065380096 -0.3425287902355194 -0.40249788761138916 -0.23773321509361267 -0.1501067727804184 -0.04767070338129997 -0.08502066880464554 -0.0448908768594265 0.04416458681225777 0.11218894273042679 0.15572074055671692 0.07658658176660538 -0.012890750542283058 -0.2369391918182373 -0.34643280506134033 -0.3315410315990448 -0.32349497079849243 -0.23392418026924133 -0.1825309842824936 -0.09256652742624283 -0.07858976721763611 -0.025732550770044327 0.027317341417074203 0.012591061182320118 0.06005343794822693 -0.30691108107566833 -0.3432478606700897 -0.38898614048957825 -0.3391021192073822 -0.31274041533470154 -0.3226872980594635 -0.17333601415157318 -0.2189473807811737 -0.27726784348487854 -0.2011394202709198 -0.12719272077083588 -0.0859043151140213 -0.21476799249649048 -0.5308927297592163 -0.28401947021484375 -0.28516045212745667 -0.22678039968013763 -0.23163706064224243 -0.3137491047382355 -0.28132179379463196 -0.309507817029953 -0.3150809109210968 -0.28235575556755066 -0.26066744327545166 -0.22028329968452454 -0.2695169448852539 -0.49903640151023865 -0.22484418749809265 -0.18074265122413635 -0.18791434168815613 -0.18649786710739136 -0.28511762619018555 -0.27371129393577576 -0.32851478457450867 -0.3307986557483673 -0.3253145217895508 -0.3484918475151062 -0.33665716648101807 -0.36348408460617065 -0.6123399138450623 -0.17784395813941956 0.020675526931881905 -0.08065087348222733 -0.12762276828289032 -0.2507479786872864 -0.3476890027523041 -0.412299782037735 -0.4800488352775574 -0.3972790837287903 -0.3905940651893616 -0.3529329299926758 -0.3053809404373169 -0.4340445399284363 0.008609281852841377 -0.01840694062411785 -0.002217315835878253 -0.1263991743326187 -0.2021024078130722 -0.3549509346485138 -0.3937622904777527 -0.363545298576355 -0.4706941843032837 -0.4552067518234253 -0.2938949763774872 -0.3301968276500702 -0.34789517521858215 0.015883782878518105 -0.013483665883541107 -0.04617711901664734 -0.20441362261772156 -0.36348989605903625 -0.3712923228740692 -0.44869929552078247 -0.6297052502632141 -0.6468585133552551 -0.4268931746482849 -0.236668199300766 -0.2514973282814026 0.12300635129213333 -0.405110239982605 -0.24296978116035461 -0.22011798620224 0.06887593120336533 0.1089591234922409 0.2766830325126648 0.24789628386497498 0.33256396651268005 0.20251250267028809 0.312662810087204 0.33995431661605835 0.3943329453468323 0.4247405529022217 -0.6127164363861084 -0.44188472628593445 -0.20555700361728668 0.0419166199862957 0.24138328433036804 0.314414918422699 0.1691960096359253 0.17211683094501495 0.14390802383422852 0.23424331843852997 0.2833940088748932 0.23383527994155884 0.3341904878616333 -0.8360406756401062 -0.6190783977508545 -0.3144003450870514 -0.13507705926895142 0.22463089227676392 0.3492755591869354 0.21985699236392975 0.09083039313554764 0.09617087244987488 0.16004377603530884 0.24367853999137878 0.11938734352588654 0.15154863893985748 -1.066085934638977 -0.6962169408798218 -0.47221627831459045 -0.09778688102960587 0.261252224445343 0.2631567418575287 0.2030530720949173 0.04813726991415024 0.09882280230522156 0.10822248458862305 0.18657873570919037 0.08024661242961884 0.21802054345607758 -1.2332583665847778 -0.8106295466423035 -0.570517361164093 -0.24722595512866974 0.17045877873897552 0.26043832302093506 0.11360432952642441 0.11079970002174377 0.09183962643146515 0.08263474702835083 0.13377103209495544 0.010316597297787666 0.13905251026153564 -1.169315218925476 -0.7569773197174072 -0.5542997717857361 -0.26454293727874756 0.16543124616146088 0.2766683101654053 0.10874545574188232 0.15083755552768707 0.05477983504533768 0.13434001803398132 0.10382810980081558 0.05325774475932121 0.023249680176377296 -1.2249521017074585 -0.7321335673332214 -0.5654410719871521 -0.3083812892436981 0.01042372640222311 0.23282216489315033 0.13155648112297058 0.1116250604391098 0.11140618473291397 0.09108158200979233 0.04084464907646179 0.007752395235002041 0.010337531566619873 -1.1061327457427979 -0.46522462368011475 -0.44302302598953247 -0.14673128724098206 0.009621655568480492 0.12219399958848953 0.09235648065805435 0.05116625502705574 0.04613306000828743 0.066439688205719 0.05371994525194168 -0.08494482934474945 0.01641153357923031 -0.8930835127830505 -0.3594886064529419 -0.29083943367004395 -0.10500213503837585 0.0526694618165493 0.08443226665258408 0.012520400807261467 -0.06579652428627014 -0.02692330814898014 -0.007245057262480259 -0.03269236162304878 -0.07892858237028122 -0.026452504098415375 -0.7775104641914368 -0.2655423879623413 -0.19375552237033844 -0.06110586225986481 -0.030651671811938286 -0.02726791612803936 -0.14373181760311127 -0.07259730249643326 -0.08553998172283173 -0.05106683820486069 -0.008698890917003155 0.00653396500274539 0.05111773684620857 -0.6733271479606628 -0.26064959168434143 -0.1510581523180008 -0.0484578013420105 -0.07758072018623352 -0.11881674081087112 -0.12918446958065033 -0.1806010901927948 -0.08382878452539444 -0.014723675325512886 -0.018397381529211998 0.09690675139427185 0.09410811960697174 -0.327394038438797 -0.14682206511497498 -0.02971409261226654 0.0654374212026596 0.024864383041858673 -0.09722846001386642 -0.1447649449110031 -0.10265573859214783 0.00019865759531967342 0.003796163247898221 0.17496240139007568 0.11123490333557129 0.12707394361495972 -0.17207147181034088 -0.00988700333982706 0.15755678713321686 0.25915607810020447 0.2306913286447525 0.10476227104663849 0.08901745826005936 -0.0506209172308445 0.0486094169318676 0.11257103085517883 0.10009786486625671 0.042847082018852234 -0.028596997261047363 -0.10713398456573486 -0.0769629180431366 -0.05982573702931404 -0.07737956941127777 -0.18972435593605042 -0.21243815124034882 -0.25965484976768494 -0.3771197497844696 -0.44326379895210266 -0.5578100681304932 -0.6111205220222473 -0.688438892364502 -0.6984625458717346 -0.12141206860542297 -0.05114404484629631 -0.025439949706196785 -0.1848241090774536 -0.2334524244070053 -0.22649002075195312 -0.130219966173172 -0.13109004497528076 -0.20610524713993073 -0.48152774572372437 -0.4223247766494751 -0.5103833675384521 -0.6321446299552917 -0.09447498619556427 0.012239695526659489 0.0088273324072361 -0.011350853368639946 -0.07985451072454453 -0.0653313472867012 -0.013794118538498878 0.003548949956893921 -0.07415027171373367 -0.25876086950302124 -0.4380093812942505 -0.3761133849620819 -0.6004734039306641 -0.07361723482608795 0.1402612179517746 0.19673745334148407 0.15179653465747833 0.017396170645952225 0.05345949903130531 0.08198826014995575 0.05971946567296982 -0.13041187822818756 -0.4317849576473236 -0.3882432281970978 -0.3376825153827667 -0.4675309956073761 0.09388486295938492 0.12394072860479355 0.12896600365638733 0.17515744268894196 0.07251998782157898 0.07370728254318237 0.05755401402711868 0.030842259526252747 -0.06381773948669434 -0.36441776156425476 -0.5579937100410461 -0.5557530522346497 -0.6600616574287415 0.06541468948125839 0.03686114773154259 0.09835262596607208 0.08404340595006943 -0.06660731136798859 0.040935736149549484 0.03353230655193329 -0.0037566591054201126 -0.1698557585477829 -0.33598318696022034 -0.5010523200035095 -0.5741258859634399 -0.8089156150817871 0.005293389316648245 0.09963810443878174 0.17087702453136444 0.14486472308635712 0.017884060740470886 -0.031347427517175674 0.08968396484851837 0.1698969155550003 -0.04329720884561539 -0.25545236468315125 -0.3419772982597351 -0.33033379912376404 -0.5981393456459045 -0.04851892590522766 -0.05675859376788139 0.07336026430130005 0.19927442073822021 0.19461575150489807 0.09856502711772919 0.0995694249868393 0.11362553387880325 0.07501984387636185 -0.13638195395469666 -0.22006617486476898 -0.20188193023204803 -0.32587626576423645 -0.005038141738623381 -0.0286039300262928 0.1453007459640503 0.19342486560344696 0.15977366268634796 0.16813424229621887 0.17263156175613403 0.17859090864658356 0.06461121141910553 -0.005742108915001154 -0.05600334703922272 -0.10856811702251434 -0.2651134133338928 -0.0031441901810467243 -0.03823142126202583 0.040060460567474365 0.15856768190860748 0.16817940771579742 0.15883228182792664 0.2601076364517212 0.15656302869319916 0.0879746526479721 0.12570244073867798 0.11968765407800674 -0.06220819428563118 -0.15032748878002167 0.07022301852703094 -0.002108810469508171 0.058079034090042114 0.25472742319107056 0.22469933331012726 0.3093237578868866 0.32030823826789856 0.22425761818885803 0.19303973019123077 0.13814401626586914 0.19372472167015076 -0.026515845209360123 -0.05769180506467819 0.015233473852276802 -0.0043433536775410175 -0.05159904062747955 0.09482398629188538 0.20789459347724915 0.3384481370449066 0.3419160842895508 0.28009146451950073 0.2214628905057907 0.20369794964790344 0.15243977308273315 0.031729262322187424 0.0818404033780098 0.10298845916986465 0.14169825613498688 0.19111597537994385 0.2928333878517151 0.39617016911506653 0.43946921825408936 0.45363378524780273 0.5322485566139221 0.36124318838119507 0.45974862575531006 0.4408414363861084 0.6443161368370056 0.3360046446323395 -0.22508887946605682 -0.13387566804885864 -0.05721854791045189 0.01965123601257801 0.008232380263507366 0.031913626939058304 -0.005194570403546095 -0.08190325647592545 -0.06297927349805832 -0.07385861128568649 -0.1428530216217041 -0.1439674198627472 -0.09334520250558853 -0.16613337397575378 -0.1854439526796341 -0.02661028504371643 -0.06724119186401367 0.030626870691776276 0.08162596076726913 0.1407506912946701 0.07279381901025772 0.07535144686698914 0.13101573288440704 0.10242795199155807 0.18014243245124817 0.028506480157375336 -0.5738999843597412 -0.2820770740509033 -0.22282123565673828 -0.1882673054933548 -0.004224475938826799 0.070904441177845 0.11148364841938019 0.13987886905670166 0.15362785756587982 0.25310632586479187 0.3106062114238739 0.28443360328674316 0.15853939950466156 -0.6984807848930359 -0.3871697783470154 -0.2631382644176483 -0.08141803741455078 -0.0845458135008812 -0.0011567743495106697 -0.06359407305717468 -0.03353191912174225 -0.0012798800598829985 0.13572387397289276 0.28263428807258606 0.17749226093292236 0.17612069845199585 -0.6146541237831116 -0.3868175745010376 -0.21046212315559387 -0.23748202621936798 -0.012919183820486069 -0.06761469691991806 -0.03006145730614662 -0.04685238003730774 0.0187230184674263 0.11507143825292587 0.20186038315296173 0.2101954072713852 0.10828880220651627 -0.5738662481307983 -0.3821884095668793 -0.3477970063686371 -0.24224333465099335 -0.1371767222881317 -0.1045524850487709 -0.12052754312753677 -0.17877353727817535 -0.009803256019949913 0.13443900644779205 0.2865995764732361 0.18653225898742676 0.10765527933835983 -0.7844509482383728 -0.3783271908760071 -0.3656170964241028 -0.23772725462913513 -0.1236405149102211 -0.11276298761367798 -0.23953817784786224 -0.17741814255714417 -0.057297483086586 0.1691233366727829 0.34129250049591064 0.2093905806541443 0.13178539276123047 -0.7007395625114441 -0.5566961169242859 -0.5314955711364746 -0.3740473687648773 -0.27319851517677307 -0.16186343133449554 -0.15741124749183655 -0.15029561519622803 -0.025068804621696472 0.19234241545200348 0.3113776743412018 0.3050884008407593 0.06174827367067337 -0.6803638339042664 -0.5447301268577576 -0.36080652475357056 -0.27279654145240784 -0.21312876045703888 -0.17176304757595062 -0.11729113012552261 -0.13268445432186127 -0.06800268590450287 0.10437583923339844 0.2594399154186249 0.19317744672298431 0.035714004188776016 -0.6462960839271545 -0.5470318794250488 -0.42349448800086975 -0.32597556710243225 -0.18443964421749115 -0.1454114019870758 -0.22196277976036072 -0.2437399923801422 -0.09611960500478745 0.1134176179766655 0.12815530598163605 0.11285087466239929 0.15500015020370483 -0.46383634209632874 -0.45750537514686584 -0.27999550104141235 -0.2572077810764313 -0.21507136523723602 -0.1907673329114914 -0.20398204028606415 -0.2213447540998459 -0.08621682971715927 0.10646229237318039 0.21913118660449982 0.24465881288051605 0.29628199338912964 -0.23284390568733215 -0.31161558628082275 -0.2772185206413269 -0.1434321403503418 -0.20719854533672333 -0.1776898354291916 -0.2097070962190628 -0.16419413685798645 -0.05865205079317093 0.10465455800294876 0.26001396775245667 0.3409738540649414 0.15343208611011505 -0.03137895464897156 -0.0681469514966011 -0.17765869200229645 -0.09811357408761978 -0.10775578022003174 -0.14551106095314026 -0.13553589582443237 0.019356846809387207 0.14982660114765167 0.21851688623428345 0.41832461953163147 0.3889833092689514 0.3107452988624573 0.011106248944997787 0.022420460358262062 -0.017994603142142296 0.023964298889040947 0.023769594728946686 0.00948140025138855 0.013305451720952988 -0.01008265744894743 0.014725800603628159 0.01856200024485588 -0.015855086967349052 -0.022683197632431984 0.002080929232761264 -0.026354923844337463 -0.011705133132636547 0.0251663476228714 -0.016620852053165436 -0.024632485583424568 0.015011971816420555 0.0109846331179142 -0.018106959760189056 0.010184462182223797 0.0062595852650702 -0.002008316805586219 -0.005829670932143927 0.004525764379650354 0.012217333540320396 0.0014680266613140702 -0.02248392440378666 -0.023417336866259575 0.007899746298789978 0.0011728982208296657 0.016435695812106133 -0.022148704156279564 0.010443836450576782 -0.024413609877228737 0.014670731499791145 0.0006880829459987581 -0.024010732769966125 0.006668513175100088 -0.013044585473835468 -0.025760948657989502 -0.026773791760206223 -0.016010722145438194 -0.026678187772631645 0.01982332020998001 0.01892051473259926 0.016661083325743675 0.01787635311484337 0.020496709272265434 0.005552756600081921 -0.024788163602352142 -0.003331076120957732 -0.0066457572393119335 -0.01760459691286087 -0.012842556461691856 -0.021431192755699158 -0.009236562997102737 -0.019306525588035583 -0.009248808026313782 0.0012167568784207106 0.01218112651258707 -0.02077941782772541 -0.026845823973417282 -0.023797249421477318 -0.006359330378472805 -0.010580414906144142 -0.01887425035238266 0.000476395565783605 0.018244978040456772 -0.017309950664639473 0.01136348769068718 0.0018949093064293265 0.008680869825184345 0.02399473637342453 0.017600899562239647 0.005604162812232971 -0.021068532019853592 -0.026316599920392036 -0.011166340671479702 -0.009413721971213818 -0.0147993890568614 0.01273970864713192 0.013231157325208187 -0.011432547122240067 -0.01631072908639908 0.006494232919067144 -0.009419195353984833 -5.767634320363868e-06 -0.016955839470028877 0.01913687027990818 0.021857015788555145 -0.015415066853165627 -0.006750109605491161 0.0232448298484087 -0.009092200547456741 0.006235720124095678 0.008774344809353352 0.012304376810789108 -0.0027860363479703665 0.012391299940645695 0.02315254509449005 0.011413169093430042 0.0071214232593774796 0.012945197522640228 -0.011388084851205349 -0.002580106956884265 -0.015894368290901184 0.010908720083534718 0.0020383414812386036 0.01398405246436596 0.02185969054698944 -0.024960123002529144 -0.010530306026339531 -0.015184157527983189 0.00488743931055069 -0.024871179834008217 0.01704389974474907 0.006536956876516342 -0.02476266212761402 0.026153909042477608 -0.005285720806568861 -0.0013462838251143694 0.019461369141936302 0.004182530101388693 0.013831088319420815 -0.00520746037364006 -0.014400320127606392 0.013155564665794373 -0.01908544823527336 -0.007289913482964039 0.01323123462498188 -0.001755805336870253 0.015909602865576744 -0.011334804818034172 0.0005877928924746811 -0.016058215871453285 -0.008220525458455086 -0.010043898597359657 0.01714903488755226 0.013001122511923313 -0.023733124136924744 -0.022931182757019997 0.024894777685403824 -0.017730940133333206 -0.019495764747262 -0.019676988944411278 -0.022023240104317665 -0.01662570983171463 0.024260062724351883 0.01766868121922016 -0.01795395463705063 0.013115573674440384 -0.025995967909693718 0.003197298850864172 0.025299053639173508 0.0004190142499282956 0.007452350575476885 -0.0010884942021220922 0.018021289259195328 -0.014761505648493767 -0.019208494573831558 -0.023338545113801956 0.0035566105507314205 0.016354838386178017 0.017963573336601257 -0.01242502685636282 0.004548682365566492 -0.016512535512447357 -0.04238922894001007 0.03659182786941528 0.08968016505241394 0.05272236466407776 -0.03604908287525177 -0.019427428022027016 -0.061876166611909866 -0.16766142845153809 -0.30087563395500183 -0.28635138273239136 -0.33627161383628845 -0.2663690149784088 -0.14223988354206085 0.02570255659520626 0.157547727227211 0.25859567523002625 0.14974525570869446 0.031030120328068733 -0.027245324105024338 -0.12116225063800812 -0.10847365111112595 -0.2682390511035919 -0.3029671907424927 -0.3369123637676239 -0.24580062925815582 -0.1880476176738739 0.12982337176799774 0.34450724720954895 0.29698148369789124 0.2274024337530136 0.21716825664043427 0.07161592692136765 -0.051486436277627945 -0.09670697897672653 -0.250583291053772 -0.3224167227745056 -0.39750176668167114 -0.19621852040290833 -0.13479012250900269 0.23132283985614777 0.36684635281562805 0.3812221586704254 0.33066630363464355 0.26889893412590027 0.0779709666967392 0.065437912940979 -0.007688187528401613 -0.19944117963314056 -0.30437201261520386 -0.31377798318862915 -0.20180456340312958 -0.173739954829216 0.21758998930454254 0.23752567172050476 0.3748452961444855 0.3021279275417328 0.16343346238136292 0.12685303390026093 0.11179383099079132 0.009097952395677567 -0.2622912526130676 -0.3489921987056732 -0.35635629296302795 -0.2537716031074524 -0.180672749876976 0.3567352592945099 0.3030625879764557 0.44718265533447266 0.2396264374256134 0.11560797691345215 0.032842617481946945 -0.07287979125976562 -0.11080930382013321 -0.311293363571167 -0.3688886761665344 -0.3909786641597748 -0.41174226999282837 -0.10810395330190659 0.3607751727104187 0.39646393060684204 0.38298001885414124 0.2816467881202698 0.11988672614097595 0.019106481224298477 0.008727801963686943 -0.03799263387918472 -0.2600933313369751 -0.30580881237983704 -0.4132182002067566 -0.3003447353839874 -0.1232333555817604 0.24580088257789612 0.3210042417049408 0.41724810004234314 0.212833434343338 0.2104368358850479 0.09485914558172226 -0.024193020537495613 -0.05863724276423454 -0.15234051644802094 -0.26879873871803284 -0.3549480736255646 -0.32527416944503784 -0.12875591218471527 0.1699100285768509 0.225064218044281 0.3927622139453888 0.25037163496017456 0.13149799406528473 0.02324574440717697 0.019475745037198067 -0.12021040171384811 -0.19306603074073792 -0.2581465542316437 -0.36262068152427673 -0.35157424211502075 -0.22388000786304474 0.006130215711891651 0.1579853892326355 0.31925851106643677 0.28383567929267883 0.07425128668546677 0.0016470100963488221 -0.053906410932540894 -0.1388910561800003 -0.18843364715576172 -0.3110218346118927 -0.26305297017097473 -0.34360504150390625 -0.20738926529884338 0.0237208753824234 0.1963527500629425 0.3366459608078003 0.3162459135055542 0.18356649577617645 0.09498634189367294 0.030964026227593422 -0.06577010452747345 -0.19303275644779205 -0.30427461862564087 -0.31872883439064026 -0.3257751762866974 -0.20610709488391876 -0.10702003538608551 0.07044760882854462 0.2517365515232086 0.22855998575687408 0.16444112360477448 0.09991637617349625 -0.04582153260707855 -0.06588543951511383 -0.10904646664857864 -0.23812632262706757 -0.3181813657283783 -0.2028081864118576 -0.14526739716529846 -0.1184818297624588 